  0.484730636605236E+000  0.579746535177037E+001  0.266570197685916E+000  0.958270838560390E+000  0.300597965168684E+001 -0.782628783937294E+000 -0.122443251346383E+001 -0.268920711330073E+001  0.000000000000000E+000 -0.289873267588519E+001
  0.484730636605236E+000  0.597424201758127E+001  0.256389963292966E+000  0.965078904933449E+000  0.305204775125394E+001 -0.827517951262162E+000 -0.135216968267748E+001 -0.268920711330073E+001  0.000000000000000E+000 -0.298712100879064E+001
  0.484730636605236E+000  0.770289588335496E+001  0.262906818847515E+000  0.959207105849083E+000  0.303371951851923E+001 -0.824185637131291E+000 -0.103191849340360E+001 -0.268920711330073E+001  0.000000000000000E+000 -0.385144794167748E+001
  0.484730636605236E+000  0.708129102457576E+001  0.268927158707756E+000  0.958483605994566E+000  0.299568556115023E+001 -0.782608691431651E+000 -0.119502087081189E+001 -0.268920711330073E+001  0.000000000000000E+000 -0.354064551228788E+001
  0.484730636605236E+000  0.510742659903768E+001  0.261080535270569E+000  0.965072458365648E+000  0.302858274128995E+001 -0.811448114457344E+000 -0.133723339707556E+001 -0.268920711330073E+001  0.000000000000000E+000 -0.255371329951884E+001
  0.484730636605236E+000  0.435641425392997E+001  0.265320136382260E+000  0.961450985093425E+000  0.302201054912996E+001 -0.831232570020930E+000 -0.937596857338030E+000 -0.268920711330073E+001  0.000000000000000E+000 -0.217820712696499E+001
  0.484730636605236E+000  0.420515255160456E+001  0.255986002843671E+000  0.968803373071299E+000  0.305346923047211E+001 -0.849798596449351E+000 -0.128329763020836E+001 -0.268920711330073E+001  0.000000000000000E+000 -0.210257627580228E+001
  0.484730636605236E+000  0.382713541487817E+001  0.253348714022447E+000  0.976557021559189E+000  0.307059556177992E+001 -0.888239454738986E+000 -0.107145814687637E+001 -0.268920711330073E+001  0.000000000000000E+000 -0.191356770743909E+001
  0.484730636605236E+000  0.379039131065115E+001  0.263730656118392E+000  0.962581392466362E+000  0.301643950645890E+001 -0.801397828313613E+000 -0.129906839874655E+001 -0.268920711330073E+001  0.000000000000000E+000 -0.189519565532558E+001
  0.484730636605236E+000  0.365547709152762E+001  0.256912986312408E+000  0.972934834628991E+000  0.305408820710136E+001 -0.860823459257992E+000 -0.103462364450582E+001 -0.268920711330073E+001  0.000000000000000E+000 -0.182773854576381E+001
  0.484730636605236E+000  0.333576134154728E+001  0.259225315149399E+000  0.967300854651132E+000  0.303707140280358E+001 -0.827289154497201E+000 -0.127067742539684E+001 -0.268920711330073E+001  0.000000000000000E+000 -0.166788067077364E+001
  0.484730636605236E+000  0.312537438387709E+001  0.263592275888968E+000  0.958802946035200E+000  0.302600995051074E+001 -0.811538431172715E+000 -0.113384614457600E+001 -0.268920711330073E+001  0.000000000000000E+000 -0.156268719193855E+001
  0.484730636605236E+000  0.308221857346302E+001  0.259466781933152E+000  0.968667934982300E+000  0.304189327425445E+001 -0.859241606227583E+000 -0.104762002401768E+001 -0.268920711330073E+001  0.000000000000000E+000 -0.154110928673151E+001
  0.484730636605236E+000  0.304314833557811E+001  0.266089351059776E+000  0.958797473618530E+000  0.300645977303815E+001 -0.778668042067528E+000 -0.131759829727674E+001 -0.268920711330073E+001  0.000000000000000E+000 -0.152157416778905E+001
  0.484730636605236E+000  0.293352124194208E+001  0.259794549823131E+000  0.969296128821780E+000  0.303755069261301E+001 -0.836209097812134E+000 -0.117002145486943E+001 -0.268920711330073E+001  0.000000000000000E+000 -0.146676062097104E+001
  0.484730636605236E+000  0.290225969123253E+001  0.261922530011147E+000  0.960302647054921E+000  0.302662571964362E+001 -0.797325670073501E+000 -0.133767410005483E+001 -0.268920711330073E+001  0.000000000000000E+000 -0.145112984561627E+001
  0.484730636605236E+000  0.288065568357737E+001  0.264597248126015E+000  0.959772908808150E+000  0.302103584180463E+001 -0.820166345313399E+000 -0.107312123753575E+001 -0.268920711330073E+001  0.000000000000000E+000 -0.144032784178868E+001
  0.484730636605236E+000  0.287625545667184E+001  0.260673404226378E+000  0.961513813309349E+000  0.304262139475767E+001 -0.839489034562538E+000 -0.101928010703636E+001 -0.268920711330073E+001  0.000000000000000E+000 -0.143812772833592E+001
  0.484730636605236E+000  0.280536143919189E+001  0.256565646895064E+000  0.975132964683066E+000  0.305298468300213E+001 -0.868052454705058E+000 -0.107498749647431E+001 -0.268920711330073E+001  0.000000000000000E+000 -0.140268071959594E+001
  0.484730636605236E+000  0.226288708384643E+001  0.259205723154907E+000  0.962602121404276E+000  0.304292521766771E+001 -0.831714062047272E+000 -0.120620769955675E+001 -0.268920711330073E+001  0.000000000000000E+000 -0.113144354192321E+001
  0.484730636605236E+000  0.221965998347512E+001  0.257856249476197E+000  0.971114460994949E+000  0.304593470968241E+001 -0.852536614899740E+000 -0.116426885262264E+001 -0.268920711330073E+001  0.000000000000000E+000 -0.110982999173756E+001
  0.484730636605236E+000  0.217268164518259E+001  0.261503011012214E+000  0.960094419498789E+000  0.303462862597918E+001 -0.820355190847967E+000 -0.115015201211214E+001 -0.268920711330073E+001  0.000000000000000E+000 -0.108634082259130E+001
  0.484730636605236E+000  0.212476691096631E+001  0.264785041216265E+000  0.962772637546387E+000  0.301894275423131E+001 -0.815480048323141E+000 -0.105886661878403E+001 -0.268920711330073E+001  0.000000000000000E+000 -0.106238345548316E+001
  0.484730636605236E+000  0.193473451342736E+001  0.259590460099447E+000  0.964902275993822E+000  0.303847066153424E+001 -0.833003370023978E+000 -0.121693961945318E+001 -0.268920711330073E+001  0.000000000000000E+000 -0.967367256713679E+000
  0.484730636605236E+000  0.186245482320583E+001  0.262989817609714E+000  0.959308446975302E+000  0.302388420920073E+001 -0.799966776128878E+000 -0.125047645748830E+001 -0.268920711330073E+001  0.000000000000000E+000 -0.931227411602914E+000
  0.484730636605236E+000  0.183238816510123E+001  0.264523341332176E+000  0.960605398424081E+000  0.302096844723038E+001 -0.808727979073556E+000 -0.109736842140085E+001 -0.268920711330073E+001  0.000000000000000E+000 -0.916194082550615E+000
  0.484730636605236E+000  0.168524796595397E+001  0.261490998227380E+000  0.965342455815926E+000  0.303178809422199E+001 -0.835848066810392E+000 -0.111772360284190E+001 -0.268920711330073E+001  0.000000000000000E+000 -0.842623982976984E+000
  0.484730636605236E+000  0.165677907214488E+001  0.264884310375803E+000  0.960285837466019E+000  0.302048743021523E+001 -0.814921190049598E+000 -0.105338852924082E+001 -0.268920711330073E+001  0.000000000000000E+000 -0.828389536072441E+000
  0.484730636605236E+000  0.142985575482899E+001  0.262121882169399E+000  0.961785080499602E+000  0.303108149847293E+001 -0.821962502375044E+000 -0.113916129580500E+001 -0.268920711330073E+001  0.000000000000000E+000 -0.714927877414494E+000
  0.484730636605236E+000  0.131964882352978E+001  0.259161832839740E+000  0.966389417685850E+000  0.304317793927744E+001 -0.848491096844396E+000 -0.110586251256557E+001 -0.268920711330073E+001  0.000000000000000E+000 -0.659824411764892E+000
  0.484730636605236E+000  0.122801000809294E+001  0.260347417889479E+000  0.966905941903234E+000  0.303645187280837E+001 -0.831071581235203E+000 -0.114493906154005E+001 -0.268920711330073E+001  0.000000000000000E+000 -0.614005004046471E+000
  0.484730636605236E+000  0.110127292361307E+001  0.257842648425894E+000  0.969431975476269E+000  0.304737198295198E+001 -0.850135807454338E+000 -0.115715165286211E+001 -0.268920711330073E+001  0.000000000000000E+000 -0.550636461806537E+000
  0.484730636605236E+000  0.106792208364275E+001  0.259063274285229E+000  0.966198957985410E+000  0.304299491199653E+001 -0.840641747638573E+000 -0.116522023714779E+001 -0.268920711330073E+001  0.000000000000000E+000 -0.533961041821374E+000
