  0.419053906365596E+000  0.129065755529217E+002  0.265232818345971E+000  0.960489171819882E+000  0.303064890152264E+001 -0.827414079629649E+000 -0.785733901188185E+000 -0.268920711330073E+001  0.000000000000000E+000 -0.645328777646086E+001
  0.419053906365596E+000  0.878708103952346E+001  0.259224825024829E+000  0.971791448081303E+000  0.304670254680246E+001 -0.887065994571956E+000 -0.890272036896278E+000 -0.268920711330073E+001  0.000000000000000E+000 -0.439354051976173E+001
  0.419053906365596E+000  0.101093033064144E+002  0.260118732100387E+000  0.971299803630264E+000  0.304055259872620E+001 -0.874820132078924E+000 -0.964258787348900E+000 -0.268920711330073E+001  0.000000000000000E+000 -0.505465165320719E+001
  0.419053906365596E+000  0.435865873208520E+001  0.260924003270522E+000  0.966397813912865E+000  0.304002049586982E+001 -0.841403199591830E+000 -0.955878805450975E+000 -0.268920711330073E+001  0.000000000000000E+000 -0.217932936604260E+001
  0.419053906365596E+000  0.615076520473124E+001  0.252847311196535E+000  0.984507208681428E+000  0.307448889893442E+001 -0.923996397301637E+000 -0.858275759539178E+000 -0.268920711330073E+001  0.000000000000000E+000 -0.307538260236562E+001
  0.419053906365596E+000  0.487772315967379E+001  0.251503801880923E+000  0.982507861324095E+000  0.308275000829609E+001 -0.917124826631390E+000 -0.894168632563945E+000 -0.268920711330073E+001  0.000000000000000E+000 -0.243886157983689E+001
  0.419053906365596E+000  0.643710790800492E+001  0.262649222353748E+000  0.971247435476887E+000  0.303377680968718E+001 -0.859184651469648E+000 -0.835410174986367E+000 -0.268920711330073E+001  0.000000000000000E+000 -0.321855395400246E+001
  0.419053906365596E+000  0.559768853028541E+001  0.249841473763204E+000  0.978748234351606E+000  0.309226643687851E+001 -0.916306335891742E+000 -0.930890179948102E+000 -0.268920711330073E+001  0.000000000000000E+000 -0.279884426514271E+001
  0.419053906365596E+000  0.494326326091128E+001  0.258624007218224E+000  0.967136780767880E+000  0.305954951233507E+001 -0.889828297464011E+000 -0.745716075822552E+000 -0.268920711330073E+001  0.000000000000000E+000 -0.247163163045564E+001
  0.419053906365596E+000  0.530847834548687E+001  0.250442934461696E+000  0.978874605789162E+000  0.309725191386727E+001 -0.945079900746443E+000 -0.676434719791319E+000 -0.268920711330073E+001  0.000000000000000E+000 -0.265423917274343E+001
  0.419053906365596E+000  0.525786063313167E+001  0.253571946843617E+000  0.973337235439416E+000  0.308320283865503E+001 -0.925353084585324E+000 -0.729055606008711E+000 -0.268920711330073E+001  0.000000000000000E+000 -0.262893031656584E+001
  0.419053906365596E+000  0.524526125289644E+001  0.252035629567888E+000  0.979244691966074E+000  0.308338580252677E+001 -0.926985077008549E+000 -0.783963164568311E+000 -0.268920711330073E+001  0.000000000000000E+000 -0.262263062644822E+001
  0.419053906365596E+000  0.506419341579298E+001  0.251659748875608E+000  0.982415365250877E+000  0.307987779552170E+001 -0.920020144906483E+000 -0.892818383939646E+000 -0.268920711330073E+001  0.000000000000000E+000 -0.253209670789649E+001
  0.419053906365596E+000  0.413172331074106E+001  0.258679750603658E+000  0.968379390063610E+000  0.304903291093059E+001 -0.872954141276303E+000 -0.951321086037086E+000 -0.268920711330073E+001  0.000000000000000E+000 -0.206586165537053E+001
  0.419053906365596E+000  0.393783332900040E+001  0.256436000866407E+000  0.978557197358992E+000  0.305886236341588E+001 -0.897676457534368E+000 -0.873335988229232E+000 -0.268920711330073E+001  0.000000000000000E+000 -0.196891666450020E+001
  0.419053906365596E+000  0.379234419894711E+001  0.251802465452007E+000  0.973361754079850E+000  0.308308890508480E+001 -0.907562112525666E+000 -0.974329940733845E+000 -0.268920711330073E+001  0.000000000000000E+000 -0.189617209947356E+001
  0.419053906365596E+000  0.375917866104702E+001  0.250538500697269E+000  0.982825650525129E+000  0.308450324194588E+001 -0.919804564710113E+000 -0.962468455012335E+000 -0.268920711330073E+001  0.000000000000000E+000 -0.187958933052351E+001
  0.419053906365596E+000  0.347116326430321E+001  0.250717466741364E+000  0.980263888717941E+000  0.309056398334495E+001 -0.940255312749886E+000 -0.773694860580812E+000 -0.268920711330073E+001  0.000000000000000E+000 -0.173558163215160E+001
  0.419053906365596E+000  0.343523695298328E+001  0.250234430422357E+000  0.979985107309570E+000  0.308570120931770E+001 -0.914233709380578E+000 -0.102567994800942E+001 -0.268920711330073E+001  0.000000000000000E+000 -0.171761847649164E+001
  0.419053906365596E+000  0.332114097554367E+001  0.251459544766539E+000  0.977028344333921E+000  0.308679453485855E+001 -0.925947100898516E+000 -0.826105986952144E+000 -0.268920711330073E+001  0.000000000000000E+000 -0.166057048777183E+001
  0.419053906365596E+000  0.318530749619485E+001  0.261505235086993E+000  0.967158054402367E+000  0.304039892403341E+001 -0.852320455601011E+000 -0.891570661603002E+000 -0.268920711330073E+001  0.000000000000000E+000 -0.159265374809743E+001
  0.419053906365596E+000  0.312997384092557E+001  0.253591992813503E+000  0.975925743693554E+000  0.307204040598892E+001 -0.901240347352559E+000 -0.930964585972334E+000 -0.268920711330073E+001  0.000000000000000E+000 -0.156498692046279E+001
  0.419053906365596E+000  0.304475453117045E+001  0.253648093911018E+000  0.973423524091804E+000  0.307614783102323E+001 -0.913116543431300E+000 -0.865107098985100E+000 -0.268920711330073E+001  0.000000000000000E+000 -0.152237726558523E+001
  0.419053906365596E+000  0.289656298553570E+001  0.252501494012772E+000  0.980301177122796E+000  0.308607954943613E+001 -0.942724534823799E+000 -0.678368183748520E+000 -0.268920711330073E+001  0.000000000000000E+000 -0.144828149276785E+001
  0.419053906365596E+000  0.286504256928179E+001  0.259273381343302E+000  0.971390687901840E+000  0.304847690614748E+001 -0.881469280102299E+000 -0.861891823855919E+000 -0.268920711330073E+001  0.000000000000000E+000 -0.143252128464090E+001
  0.419053906365596E+000  0.284493394806311E+001  0.253070973236031E+000  0.978455089146930E+000  0.307570481764995E+001 -0.902385743594704E+000 -0.903600175899066E+000 -0.268920711330073E+001  0.000000000000000E+000 -0.142246697403155E+001
  0.419053906365596E+000  0.278984959249386E+001  0.255620104977536E+000  0.975286186793591E+000  0.306176043430191E+001 -0.896488164156696E+000 -0.946250292985390E+000 -0.268920711330073E+001  0.000000000000000E+000 -0.139492479624693E+001
  0.419053906365596E+000  0.275995870635764E+001  0.250198191209801E+000  0.979192841294265E+000  0.309215939889386E+001 -0.935593662338281E+000 -0.854506530460488E+000 -0.268920711330073E+001  0.000000000000000E+000 -0.137997935317882E+001
  0.419053906365596E+000  0.271773556361421E+001  0.261041721922437E+000  0.970888749739894E+000  0.303873485950810E+001 -0.857554049428265E+000 -0.912035081089665E+000 -0.268920711330073E+001  0.000000000000000E+000 -0.135886778180711E+001
  0.419053906365596E+000  0.268296039254041E+001  0.258023525774568E+000  0.973021727202317E+000  0.306058752370962E+001 -0.896643737169791E+000 -0.716940718623697E+000 -0.268920711330073E+001  0.000000000000000E+000 -0.134148019627020E+001
  0.419053906365596E+000  0.259522013511935E+001  0.254175993020820E+000  0.975498185815670E+000  0.307080011789450E+001 -0.891947018521170E+000 -0.919278867770220E+000 -0.268920711330073E+001  0.000000000000000E+000 -0.129761006755967E+001
  0.419053906365596E+000  0.255276523631479E+001  0.255208436034395E+000  0.971761496631832E+000  0.307040758905259E+001 -0.905040768937435E+000 -0.827461157077843E+000 -0.268920711330073E+001  0.000000000000000E+000 -0.127638261815740E+001
  0.419053906365596E+000  0.247921651195572E+001  0.262422841394282E+000  0.965252449252135E+000  0.303478761406941E+001 -0.852166906934757E+000 -0.911014566977211E+000 -0.268920711330073E+001  0.000000000000000E+000 -0.123960825597786E+001
  0.419053906365596E+000  0.240387176288102E+001  0.256582678895708E+000  0.972204289823420E+000  0.306137665587664E+001 -0.878757448349095E+000 -0.921864945768490E+000 -0.268920711330073E+001  0.000000000000000E+000 -0.120193588144051E+001
  0.419053906365596E+000  0.211232042407729E+001  0.258290756732886E+000  0.972781697289414E+000  0.304782969789281E+001 -0.864246691644124E+000 -0.102521052682996E+001 -0.268920711330073E+001  0.000000000000000E+000 -0.105616021203865E+001
  0.419053906365596E+000  0.207006727613218E+001  0.258002307549387E+000  0.970627186038746E+000  0.305453835718085E+001 -0.867329119373813E+000 -0.916745523776926E+000 -0.268920711330073E+001  0.000000000000000E+000 -0.103503363806609E+001
  0.419053906365596E+000  0.181882338507170E+001  0.255197194138103E+000  0.977799855115297E+000  0.306667910695617E+001 -0.907210432702772E+000 -0.833554154252162E+000 -0.268920711330073E+001  0.000000000000000E+000 -0.909411692535853E+000
  0.419053906365596E+000  0.173269167052889E+001  0.256224237734401E+000  0.974906097744793E+000  0.306440802218392E+001 -0.893435751472286E+000 -0.816406960339236E+000 -0.268920711330073E+001  0.000000000000000E+000 -0.866345835264446E+000
  0.419053906365596E+000  0.145383282709497E+001  0.252330957652371E+000  0.978288633703256E+000  0.307923357663128E+001 -0.909847571478304E+000 -0.921455993335417E+000 -0.268920711330073E+001  0.000000000000000E+000 -0.726916413547484E+000
  0.419053906365596E+000  0.135470346593238E+001  0.257146442526776E+000  0.974393785651843E+000  0.306091634888087E+001 -0.896585773589100E+000 -0.787569989687249E+000 -0.268920711330073E+001  0.000000000000000E+000 -0.677351732966190E+000
  0.419053906365596E+000  0.130524185812176E+001  0.253206439368199E+000  0.978787355171614E+000  0.307701181526298E+001 -0.912847311714149E+000 -0.840892484634515E+000 -0.268920711330073E+001  0.000000000000000E+000 -0.652620929060882E+000
  0.419053906365596E+000  0.130382439614722E+001  0.257132067950306E+000  0.973146932616268E+000  0.305645476424263E+001 -0.883283656736016E+000 -0.907190649233799E+000 -0.268920711330073E+001  0.000000000000000E+000 -0.651912198073610E+000
  0.419053906365596E+000  0.127748973692262E+001  0.256403062149266E+000  0.970328331455723E+000  0.306265615499994E+001 -0.882336841623342E+000 -0.929648443484984E+000 -0.268920711330073E+001  0.000000000000000E+000 -0.638744868461310E+000
  0.419053906365596E+000  0.127327985254269E+001  0.256050645281189E+000  0.976251647595203E+000  0.306461845914233E+001 -0.902106776381536E+000 -0.804988931396044E+000 -0.268920711330073E+001  0.000000000000000E+000 -0.636639926271345E+000
  0.419053906365596E+000  0.119114479268049E+001  0.255031925669928E+000  0.976062110395477E+000  0.306496637673460E+001 -0.891400461923169E+000 -0.937738066150950E+000 -0.268920711330073E+001  0.000000000000000E+000 -0.595572396340246E+000
  0.419053906365596E+000  0.116995329761772E+001  0.259306951610267E+000  0.969571969420877E+000  0.304863151516364E+001 -0.867603575926167E+000 -0.888346686947370E+000 -0.268920711330073E+001  0.000000000000000E+000 -0.584976648808863E+000
  0.419053906365596E+000  0.110067994835472E+001  0.255107175931922E+000  0.971194423536761E+000  0.306713118216013E+001 -0.883745292434778E+000 -0.965802992490349E+000 -0.268920711330073E+001  0.000000000000000E+000 -0.550339974177359E+000
  0.419053906365596E+000  0.971953672413211E+000  0.255195577285010E+000  0.974418962126846E+000  0.306916950949571E+001 -0.902023191408343E+000 -0.826545164322955E+000 -0.268920711330073E+001  0.000000000000000E+000 -0.485976836206606E+000
  0.419053906365596E+000  0.805845869847194E+000  0.257384494337418E+000  0.973253647945236E+000  0.305560250859704E+001 -0.877366854264348E+000 -0.925192800591150E+000 -0.268920711330073E+001  0.000000000000000E+000 -0.402922934923598E+000
  0.419053906365596E+000  0.144783164505277E+000  0.258553551467823E+000  0.968731331971026E+000  0.305062839738531E+001 -0.865402188893004E+000 -0.958971771379578E+000 -0.268920711330073E+001  0.000000000000000E+000 -0.723915822526391E-001
  0.419053906365596E+000  0.767516141176499E-001  0.257456329008859E+000  0.970496378429247E+000  0.305528463659671E+001 -0.874502634181960E+000 -0.955179249011032E+000 -0.268920711330073E+001  0.000000000000000E+000 -0.383758070588254E-001
