  0.683960260068416E+000  0.192383077504639E+002  0.244780465899603E+000  0.976779073815973E+000  0.311739613749093E+001 -0.963277968683820E+000 -0.368696485827446E+000 -0.343114445803011E+001  0.000000000000000E+000 -0.971031465362893E+001
  0.683960260068416E+000  0.110592472022655E+002  0.261686493931428E+000  0.959549047485818E+000  0.305358236135689E+001 -0.866193966796657E+000 -0.253295046825901E+000 -0.343114445803011E+001  0.000000000000000E+000 -0.562078437952973E+001
  0.683960260068416E+000  0.170032101913372E+002  0.263331264885567E+000  0.964894415986252E+000  0.303476474257934E+001 -0.841821962691117E+000 -0.407178055074740E+000 -0.343114445803011E+001  0.000000000000000E+000 -0.859276587406559E+001
  0.683960260068416E+000  0.730055960031061E+001  0.260904381829831E+000  0.959291520448267E+000  0.303873640509475E+001 -0.845509340247668E+000 -0.521029242149520E+000 -0.343114445803011E+001  0.000000000000000E+000 -0.374144057855228E+001
  0.683960260068416E+000  0.164010594230872E+002  0.259640786125293E+000  0.966038783590353E+000  0.306013701239672E+001 -0.895897754375766E+000 -0.234290939231220E+000 -0.343114445803011E+001  0.000000000000000E+000 -0.829169048994056E+001
  0.683960260068416E+000  0.139753203918044E+002  0.252215025629316E+000  0.968502390131436E+000  0.308415059692380E+001 -0.923586166705986E+000 -0.363934806863828E+000 -0.343114445803011E+001  0.000000000000000E+000 -0.707882097429917E+001
  0.683960260068416E+000  0.136802188556403E+002  0.258033213364398E+000  0.959537830614368E+000  0.307559587254815E+001 -0.889660008286446E+000 -0.225500894770912E+000 -0.343114445803011E+001  0.000000000000000E+000 -0.693127020621714E+001
  0.683960260068416E+000  0.113873596920993E+002  0.263389168575045E+000  0.954151366214700E+000  0.302915905362868E+001 -0.829176773412867E+000 -0.520424943019857E+000 -0.343114445803011E+001  0.000000000000000E+000 -0.578484062444664E+001
  0.683960260068416E+000  0.126723710597333E+002  0.273099547350877E+000  0.943919147253677E+000  0.300037818768213E+001 -0.748407763942348E+000 -0.511241342817289E+000 -0.343114445803011E+001  0.000000000000000E+000 -0.642734630826365E+001
  0.683960260068416E+000  0.128684314972539E+002  0.257414583564727E+000  0.974446116690220E+000  0.306507744737748E+001 -0.897391927646510E+000 -0.224586411663655E+000 -0.343114445803011E+001  0.000000000000000E+000 -0.652537652702395E+001
  0.683960260068416E+000  0.109864056667103E+002  0.249644563851476E+000  0.973516044168446E+000  0.310101320069011E+001 -0.950143536672663E+000 -0.255756118650770E+000 -0.343114445803011E+001  0.000000000000000E+000 -0.558436361175211E+001
  0.683960260068416E+000  0.109300973549003E+002  0.266976480820240E+000  0.956133119157042E+000  0.302683517300699E+001 -0.830024112496186E+000 -0.333611231503093E+000 -0.343114445803011E+001  0.000000000000000E+000 -0.555620945584712E+001
  0.683960260068416E+000  0.105581522691234E+002  0.260642577001652E+000  0.968384693272708E+000  0.305103040254644E+001 -0.881996635211278E+000 -0.272919962877006E+000 -0.343114445803011E+001  0.000000000000000E+000 -0.537023691295870E+001
  0.683960260068416E+000  0.102408150309432E+002  0.252802043831433E+000  0.973043553123997E+000  0.310270278560382E+001 -0.946439250867796E+000 -0.722473681864138E-001 -0.343114445803011E+001  0.000000000000000E+000 -0.521156829386858E+001
  0.683960260068416E+000  0.101030260444368E+002  0.258150288463718E+000  0.977658892269115E+000  0.307555831370325E+001 -0.908291437764638E+000 -0.818886476268927E-001 -0.343114445803011E+001  0.000000000000000E+000 -0.514267380061538E+001
  0.683960260068416E+000  0.100904204400093E+002  0.268869994713908E+000  0.951069510621867E+000  0.301399473419679E+001 -0.776102941589060E+000 -0.505438930042871E+000 -0.343114445803011E+001  0.000000000000000E+000 -0.513637099840163E+001
  0.683960260068416E+000  0.992371826236660E+001  0.266665878490977E+000  0.963904532812823E+000  0.302934902656043E+001 -0.824606001987808E+000 -0.291625142487642E+000 -0.343114445803011E+001  0.000000000000000E+000 -0.505301990958028E+001
  0.683960260068416E+000  0.985061900087335E+001  0.256517921352419E+000  0.966305770474442E+000  0.307487953785393E+001 -0.870338466936997E+000 -0.286555594020482E+000 -0.343114445803011E+001  0.000000000000000E+000 -0.501647027883365E+001
  0.683960260068416E+000  0.948798065786444E+001  0.250919620768152E+000  0.968629502641722E+000  0.310908844260536E+001 -0.929618828789851E+000 -0.165516026455747E+000 -0.343114445803011E+001  0.000000000000000E+000 -0.483515110732920E+001
  0.683960260068416E+000  0.733879456400360E+001  0.249343734998230E+000  0.971336501801577E+000  0.310591696973496E+001 -0.936242295531733E+000 -0.256758699801076E+000 -0.343114445803011E+001  0.000000000000000E+000 -0.376055806039878E+001
  0.683960260068416E+000  0.889989193958271E+001  0.271029435689877E+000  0.945562019139114E+000  0.300391086870830E+001 -0.758996848211309E+000 -0.539134161226281E+000 -0.343114445803011E+001  0.000000000000000E+000 -0.454110674818833E+001
  0.683960260068416E+000  0.869579929982783E+001  0.264761504524904E+000  0.955742983239205E+000  0.304250434215211E+001 -0.812335790020390E+000 -0.335562690456612E+000 -0.343114445803011E+001  0.000000000000000E+000 -0.443906042831089E+001
  0.683960260068416E+000  0.853933971902544E+001  0.249567293935210E+000  0.973775374695799E+000  0.309598494472755E+001 -0.928713990856603E+000 -0.360370405627100E+000 -0.343114445803011E+001  0.000000000000000E+000 -0.436083063790970E+001
  0.683960260068416E+000  0.845379777349280E+001  0.256012873449312E+000  0.965801314207515E+000  0.306993092244455E+001 -0.873930231332000E+000 -0.395313109222350E+000 -0.343114445803011E+001  0.000000000000000E+000 -0.431805966514338E+001
  0.683960260068416E+000  0.825997032157979E+001  0.263904738756424E+000  0.962305197967448E+000  0.303825161681116E+001 -0.849382136216006E+000 -0.325218619380887E+000 -0.343114445803011E+001  0.000000000000000E+000 -0.422114593918687E+001
  0.683960260068416E+000  0.810817390399234E+001  0.251971932028630E+000  0.984598435778490E+000  0.310320324035314E+001 -0.939398854828635E+000 -0.517154441739169E-001 -0.343114445803011E+001  0.000000000000000E+000 -0.414524773039315E+001
  0.683960260068416E+000  0.784762357550898E+001  0.257994595943830E+000  0.969160180003695E+000  0.305399803291488E+001 -0.875987553257997E+000 -0.389212247537695E+000 -0.343114445803011E+001  0.000000000000000E+000 -0.401497256615147E+001
  0.683960260068416E+000  0.780625698512309E+001  0.260772176273758E+000  0.964979458684658E+000  0.305816227236857E+001 -0.877097137413266E+000 -0.209582371258838E+000 -0.343114445803011E+001  0.000000000000000E+000 -0.399428927095853E+001
  0.683960260068416E+000  0.773279688119931E+001  0.256351158361438E+000  0.972079717984823E+000  0.307169174552576E+001 -0.878045432222093E+000 -0.288089166939326E+000 -0.343114445803011E+001  0.000000000000000E+000 -0.395755921899663E+001
  0.683960260068416E+000  0.746204369906624E+001  0.261974958040005E+000  0.955594486393326E+000  0.305519227396970E+001 -0.848021804556504E+000 -0.307343502169748E+000 -0.343114445803011E+001  0.000000000000000E+000 -0.382218262793010E+001
  0.683960260068416E+000  0.542886009117167E+001  0.259637025599865E+000  0.970129619138695E+000  0.306194080832986E+001 -0.886544761767944E+000 -0.193738546203527E+000 -0.343114445803011E+001  0.000000000000000E+000 -0.271443004558584E+001
  0.683960260068416E+000  0.743004880959940E+001  0.259146876965192E+000  0.956947479219804E+000  0.305134760154586E+001 -0.848767246255947E+000 -0.502770254999502E+000 -0.343114445803011E+001  0.000000000000000E+000 -0.380618518319668E+001
  0.683960260068416E+000  0.734747645178197E+001  0.263184756751937E+000  0.961228656666451E+000  0.305676237766777E+001 -0.837351616487998E+000 -0.215635235766110E+000 -0.343114445803011E+001  0.000000000000000E+000 -0.376489900428796E+001
  0.683960260068416E+000  0.725548997179672E+001  0.254424861223457E+000  0.977317581912757E+000  0.309013402705295E+001 -0.909357883459841E+000 -0.144302495528744E+000 -0.343114445803011E+001  0.000000000000000E+000 -0.362774498589836E+001
  0.683960260068416E+000  0.711144051531678E+001  0.259042116191718E+000  0.960903682338606E+000  0.305823834342626E+001 -0.854050058246122E+000 -0.368894072169453E+000 -0.343114445803011E+001  0.000000000000000E+000 -0.355572025765839E+001
  0.683960260068416E+000  0.705143971269284E+001  0.262091223459871E+000  0.961864159457614E+000  0.304807618717274E+001 -0.853954842866055E+000 -0.292453594195537E+000 -0.343114445803011E+001  0.000000000000000E+000 -0.352571985634642E+001
  0.683960260068416E+000  0.698090412090248E+001  0.250068437226841E+000  0.975201033077366E+000  0.310080243655711E+001 -0.929816783719776E+000 -0.264748592288378E+000 -0.343114445803011E+001  0.000000000000000E+000 -0.349045206045124E+001
  0.683960260068416E+000  0.687794165763585E+001  0.265481687777365E+000  0.954699563186312E+000  0.304511947613291E+001 -0.822904149732005E+000 -0.263836462373757E+000 -0.343114445803011E+001  0.000000000000000E+000 -0.343897082881793E+001
  0.683960260068416E+000  0.677571122909662E+001  0.253554898473851E+000  0.980082901702367E+000  0.309056357331982E+001 -0.917655472879825E+000 -0.146913888238907E+000 -0.343114445803011E+001  0.000000000000000E+000 -0.338785561454831E+001
  0.683960260068416E+000  0.674820905864382E+001  0.256730029676901E+000  0.963478970138888E+000  0.306704307158792E+001 -0.864179176097618E+000 -0.389403774110095E+000 -0.343114445803011E+001  0.000000000000000E+000 -0.337410452932191E+001
  0.683960260068416E+000  0.659335026572268E+001  0.264927356545022E+000  0.957023809659429E+000  0.303723887553734E+001 -0.823976687043880E+000 -0.364300420687121E+000 -0.343114445803011E+001  0.000000000000000E+000 -0.329667513286134E+001
  0.683960260068416E+000  0.651693055662507E+001  0.263580286618964E+000  0.955738297379063E+000  0.304358984726379E+001 -0.819469266812639E+000 -0.369968635978904E+000 -0.343114445803011E+001  0.000000000000000E+000 -0.325846527831254E+001
  0.683960260068416E+000  0.635331384797106E+001  0.260588887078512E+000  0.970212607961905E+000  0.306005682414891E+001 -0.872930292923288E+000 -0.205996805696404E+000 -0.343114445803011E+001  0.000000000000000E+000 -0.317665692398553E+001
  0.683960260068416E+000  0.621534643419456E+001  0.254022763878980E+000  0.973360775572135E+000  0.308089577833423E+001 -0.920935276059707E+000 -0.233234905235554E+000 -0.343114445803011E+001  0.000000000000000E+000 -0.310767321709728E+001
  0.683960260068416E+000  0.619314315131569E+001  0.262843466194291E+000  0.956747897870306E+000  0.304236943473557E+001 -0.847226933685445E+000 -0.364258546294502E+000 -0.343114445803011E+001  0.000000000000000E+000 -0.309657157565784E+001
  0.683960260068416E+000  0.615551563945233E+001  0.262448943008653E+000  0.955219025194910E+000  0.304848033070703E+001 -0.827477824910064E+000 -0.373723336776385E+000 -0.343114445803011E+001  0.000000000000000E+000 -0.307775781972617E+001
  0.683960260068416E+000  0.613612462597975E+001  0.246980002929975E+000  0.984692978687038E+000  0.312826156057218E+001 -0.969153542373396E+000 -0.283744459855306E-001 -0.343114445803011E+001  0.000000000000000E+000 -0.306806231298988E+001
  0.683960260068416E+000  0.610444791053285E+001  0.260026351563295E+000  0.969605995288476E+000  0.305148059700377E+001 -0.859341092045050E+000 -0.336092564989495E+000 -0.343114445803011E+001  0.000000000000000E+000 -0.305222395526643E+001
  0.683960260068416E+000  0.608372409839345E+001  0.264058171614384E+000  0.959864502259795E+000  0.304445179120428E+001 -0.834956981009459E+000 -0.303673021635936E+000 -0.343114445803011E+001  0.000000000000000E+000 -0.304186204919672E+001
  0.683960260068416E+000  0.546266192970697E+001  0.256932477865209E+000  0.972770159832996E+000  0.306305179918792E+001 -0.883030886665810E+000 -0.332707173389726E+000 -0.343114445803011E+001  0.000000000000000E+000 -0.273133096485348E+001
  0.683960260068416E+000  0.560059870323089E+001  0.255336844155199E+000  0.968173073493467E+000  0.309718568530986E+001 -0.904475903489796E+000 -0.925271399427290E-001 -0.343114445803011E+001  0.000000000000000E+000 -0.280029935161545E+001
  0.683960260068416E+000  0.553974630740710E+001  0.250841259193320E+000  0.972759880499933E+000  0.311016087384911E+001 -0.928983620992786E+000 -0.127771795283799E+000 -0.343114445803011E+001  0.000000000000000E+000 -0.276987315370355E+001
  0.683960260068416E+000  0.538147493763203E+001  0.256179488396118E+000  0.970737264345723E+000  0.307794701575577E+001 -0.905593977993973E+000 -0.179624616120341E+000 -0.343114445803011E+001  0.000000000000000E+000 -0.269073746881602E+001
  0.683960260068416E+000  0.526339403239062E+001  0.265862969753254E+000  0.954595474282954E+000  0.302250197218576E+001 -0.798675575368143E+000 -0.505986638572407E+000 -0.343114445803011E+001  0.000000000000000E+000 -0.263169701619531E+001
  0.683960260068416E+000  0.525369037951189E+001  0.260110747165057E+000  0.966030126744159E+000  0.307244084159678E+001 -0.871937447746195E+000 -0.147767850979672E+000 -0.343114445803011E+001  0.000000000000000E+000 -0.262684518975594E+001
  0.683960260068416E+000  0.481902592035583E+001  0.257628829505915E+000  0.964580149940416E+000  0.306699837712040E+001 -0.875710374728954E+000 -0.297992958595072E+000 -0.343114445803011E+001  0.000000000000000E+000 -0.240951296017792E+001
  0.683960260068416E+000  0.472262786112380E+001  0.267958890290891E+000  0.954449390562109E+000  0.301794607435826E+001 -0.801837108127896E+000 -0.433245923782366E+000 -0.343114445803011E+001  0.000000000000000E+000 -0.236131393056190E+001
  0.683960260068416E+000  0.432059664546701E+001  0.260892656908108E+000  0.962724072843996E+000  0.305521841646786E+001 -0.865218384749513E+000 -0.291877736208253E+000 -0.343114445803011E+001  0.000000000000000E+000 -0.216029832273351E+001
  0.683960260068416E+000  0.411810226356927E+001  0.254271617345387E+000  0.974596213217682E+000  0.308943700534212E+001 -0.912481160188852E+000 -0.144426676256503E+000 -0.343114445803011E+001  0.000000000000000E+000 -0.205905113178463E+001
  0.683960260068416E+000  0.402431889572950E+001  0.254743224764408E+000  0.974677908610679E+000  0.308075325140241E+001 -0.921282152128778E+000 -0.195384391553576E+000 -0.343114445803011E+001  0.000000000000000E+000 -0.201215944786475E+001
  0.683960260068416E+000  0.388322396418288E+001  0.263099714244918E+000  0.959891408950101E+000  0.305158784559372E+001 -0.845260674048332E+000 -0.246545369396864E+000 -0.343114445803011E+001  0.000000000000000E+000 -0.194161198209144E+001
  0.683960260068416E+000  0.386570228552761E+001  0.263100307774064E+000  0.962194178517883E+000  0.305381951485507E+001 -0.846109391006051E+000 -0.226158955962252E+000 -0.343114445803011E+001  0.000000000000000E+000 -0.193285114276380E+001
  0.683960260068416E+000  0.381300512883612E+001  0.253846280057230E+000  0.974604202230082E+000  0.308632069204690E+001 -0.904901212619402E+000 -0.225509856721067E+000 -0.343114445803011E+001  0.000000000000000E+000 -0.190650256441806E+001
  0.683960260068416E+000  0.376039574227084E+001  0.259625936421643E+000  0.967726180534188E+000  0.305837504432910E+001 -0.881710387362149E+000 -0.257048014756657E+000 -0.343114445803011E+001  0.000000000000000E+000 -0.188019787113542E+001
  0.683960260068416E+000  0.363214436156948E+001  0.252166020443525E+000  0.970536817965513E+000  0.309580471509090E+001 -0.914664332768258E+000 -0.234130250168290E+000 -0.343114445803011E+001  0.000000000000000E+000 -0.181607218078474E+001
  0.683960260068416E+000  0.363037773245333E+001  0.260404375962073E+000  0.969050296618591E+000  0.305914197499114E+001 -0.869067100689348E+000 -0.220879493587245E+000 -0.343114445803011E+001  0.000000000000000E+000 -0.181518886622667E+001
  0.683960260068416E+000  0.348111634388716E+001  0.259513106079067E+000  0.970709003122040E+000  0.306795706176290E+001 -0.883573337323634E+000 -0.153470280437954E+000 -0.343114445803011E+001  0.000000000000000E+000 -0.174055817194358E+001
  0.683960260068416E+000  0.325526648017286E+001  0.264180529716400E+000  0.958154001264641E+000  0.304642884116681E+001 -0.836238150989315E+000 -0.272007727447985E+000 -0.343114445803011E+001  0.000000000000000E+000 -0.162763324008643E+001
  0.683960260068416E+000  0.321152629174146E+001  0.260437195185778E+000  0.965527460105693E+000  0.304908177917119E+001 -0.863194500490060E+000 -0.357743045018402E+000 -0.343114445803011E+001  0.000000000000000E+000 -0.160576314587073E+001
  0.683960260068416E+000  0.320895891956537E+001  0.256171489473732E+000  0.967825214049987E+000  0.306542384275063E+001 -0.883707445428942E+000 -0.388172278648169E+000 -0.343114445803011E+001  0.000000000000000E+000 -0.160447945978269E+001
  0.683960260068416E+000  0.316041419951926E+001  0.255393346643171E+000  0.973135867781869E+000  0.308995936424057E+001 -0.906003746546351E+000 -0.108646372481176E+000 -0.343114445803011E+001  0.000000000000000E+000 -0.158020709975963E+001
  0.683960260068416E+000  0.310788550280775E+001  0.259179495562239E+000  0.966696255685531E+000  0.305209236408657E+001 -0.864624214619294E+000 -0.388714796493260E+000 -0.343114445803011E+001  0.000000000000000E+000 -0.155394275140387E+001
  0.683960260068416E+000  0.302065505279121E+001  0.256787934939632E+000  0.968403776530083E+000  0.308668049726442E+001 -0.903471902829423E+000 -0.991550774442986E-001 -0.343114445803011E+001  0.000000000000000E+000 -0.151032752639561E+001
  0.683960260068416E+000  0.295496580049830E+001  0.254950881941838E+000  0.967711416726073E+000  0.307994049607139E+001 -0.906279609248315E+000 -0.266564367954495E+000 -0.343114445803011E+001  0.000000000000000E+000 -0.147748290024915E+001
  0.683960260068416E+000  0.288367645927991E+001  0.259976374319612E+000  0.963241550168805E+000  0.305611619517990E+001 -0.851850312529118E+000 -0.348353278436855E+000 -0.343114445803011E+001  0.000000000000000E+000 -0.144183822963996E+001
  0.683960260068416E+000  0.284317466449737E+001  0.257114226379908E+000  0.967562145135814E+000  0.308715655483666E+001 -0.896646929573333E+000 -0.103800609094140E+000 -0.343114445803011E+001  0.000000000000000E+000 -0.142158733224868E+001
  0.683960260068416E+000  0.283124627676261E+001  0.260165180277110E+000  0.961399093686267E+000  0.306416051364044E+001 -0.866829397624657E+000 -0.232597817232723E+000 -0.343114445803011E+001  0.000000000000000E+000 -0.141562313838131E+001
  0.683960260068416E+000  0.277369744422326E+001  0.251927184627382E+000  0.974731686933255E+000  0.310162261905452E+001 -0.930782951271248E+000 -0.145489798524835E+000 -0.343114445803011E+001  0.000000000000000E+000 -0.138684872211163E+001
  0.683960260068416E+000  0.270219679043816E+001  0.256670961375479E+000  0.964772261657991E+000  0.306883720998542E+001 -0.884365637614142E+000 -0.341162336291912E+000 -0.343114445803011E+001  0.000000000000000E+000 -0.135109839521908E+001
  0.683960260068416E+000  0.262021231873481E+001  0.257651653464150E+000  0.971190383492400E+000  0.307672027424304E+001 -0.897856821217341E+000 -0.136028233107705E+000 -0.343114445803011E+001  0.000000000000000E+000 -0.131010615936740E+001
  0.683960260068416E+000  0.251841162073822E+001  0.256612974780049E+000  0.967961140289702E+000  0.308471472295875E+001 -0.901346111382768E+000 -0.128899019983757E+000 -0.343114445803011E+001  0.000000000000000E+000 -0.125920581036911E+001
  0.683960260068416E+000  0.248698171537699E+001  0.254383970102214E+000  0.972089449672336E+000  0.308288033211345E+001 -0.902264189794961E+000 -0.238224947807323E+000 -0.343114445803011E+001  0.000000000000000E+000 -0.124349085768850E+001
  0.683960260068416E+000  0.246983897338085E+001  0.262362060219486E+000  0.961193834088424E+000  0.304200273934278E+001 -0.843639281148178E+000 -0.372726082472165E+000 -0.343114445803011E+001  0.000000000000000E+000 -0.123491948669043E+001
  0.683960260068416E+000  0.242331443873629E+001  0.251028669488721E+000  0.973471371061682E+000  0.310465702759165E+001 -0.932347472637439E+000 -0.156413487068336E+000 -0.343114445803011E+001  0.000000000000000E+000 -0.121165721936814E+001
  0.683960260068416E+000  0.228211761405232E+001  0.258349840152920E+000  0.968951995921265E+000  0.306698848064127E+001 -0.889415057875279E+000 -0.216439483084079E+000 -0.343114445803011E+001  0.000000000000000E+000 -0.114105880702616E+001
  0.683960260068416E+000  0.224216448246483E+001  0.259684804882532E+000  0.960581843386723E+000  0.306333660031820E+001 -0.861623910553873E+000 -0.284930461387821E+000 -0.343114445803011E+001  0.000000000000000E+000 -0.112108224123241E+001
  0.683960260068416E+000  0.222401907409061E+001  0.252888772244171E+000  0.973374773904204E+000  0.310160536441810E+001 -0.921270892918541E+000 -0.113380420549808E+000 -0.343114445803011E+001  0.000000000000000E+000 -0.111200953704531E+001
  0.683960260068416E+000  0.220566885153222E+001  0.263683384941338E+000  0.960861715450672E+000  0.304039506511968E+001 -0.838967080911070E+000 -0.333866415560007E+000 -0.343114445803011E+001  0.000000000000000E+000 -0.110283442576611E+001
  0.683960260068416E+000  0.214559545269546E+001  0.260155986827311E+000  0.964994809230755E+000  0.306824881494488E+001 -0.871446220197338E+000 -0.180107631443205E+000 -0.343114445803011E+001  0.000000000000000E+000 -0.107279772634773E+001
  0.683960260068416E+000  0.208014835353519E+001  0.260912520004885E+000  0.963195004752169E+000  0.304902930596676E+001 -0.848059488656143E+000 -0.365575751761074E+000 -0.343114445803011E+001  0.000000000000000E+000 -0.104007417676760E+001
  0.683960260068416E+000  0.207070802666335E+001  0.256335981634970E+000  0.973753738687052E+000  0.307543817902971E+001 -0.904151162708635E+000 -0.197263681272135E+000 -0.343114445803011E+001  0.000000000000000E+000 -0.103535401333168E+001
  0.683960260068416E+000  0.206640414207308E+001  0.261443926743647E+000  0.959037163019823E+000  0.304610018170361E+001 -0.844798157229228E+000 -0.398286534861987E+000 -0.343114445803011E+001  0.000000000000000E+000 -0.103320207103654E+001
  0.683960260068416E+000  0.203366993088848E+001  0.255608757766910E+000  0.971439813096635E+000  0.307916350149726E+001 -0.892994757238830E+000 -0.233917549441529E+000 -0.343114445803011E+001  0.000000000000000E+000 -0.101683496544424E+001
  0.683960260068416E+000  0.202136145395777E+001  0.258716621640915E+000  0.970141785138626E+000  0.306597135107461E+001 -0.878285537441871E+000 -0.226859237664638E+000 -0.343114445803011E+001  0.000000000000000E+000 -0.101068072697888E+001
  0.683960260068416E+000  0.195648197775629E+001  0.260673527914182E+000  0.965965692822939E+000  0.306225909792049E+001 -0.864288206371148E+000 -0.211715646755309E+000 -0.343114445803011E+001  0.000000000000000E+000 -0.978240988878144E+000
  0.683960260068416E+000  0.194789201832996E+001  0.261540853696577E+000  0.961228488068442E+000  0.304539370184329E+001 -0.847479404489669E+000 -0.389335546556518E+000 -0.343114445803011E+001  0.000000000000000E+000 -0.973946009164982E+000
  0.683960260068416E+000  0.182351977760672E+001  0.254211924012913E+000  0.971177345280644E+000  0.308795125599791E+001 -0.911950911947894E+000 -0.203233056851484E+000 -0.343114445803011E+001  0.000000000000000E+000 -0.911759888803362E+000
  0.683960260068416E+000  0.174480274615376E+001  0.260780985143572E+000  0.962880691798139E+000  0.305480959930482E+001 -0.857743061081202E+000 -0.294893323472479E+000 -0.343114445803011E+001  0.000000000000000E+000 -0.872401373076880E+000
  0.683960260068416E+000  0.171475681245337E+001  0.256072266989489E+000  0.970253121782343E+000  0.308522941993443E+001 -0.902920437375906E+000 -0.151344870973636E+000 -0.343114445803011E+001  0.000000000000000E+000 -0.857378406226684E+000
  0.683960260068416E+000  0.157315666460686E+001  0.258619567790929E+000  0.966960065935536E+000  0.306627446722056E+001 -0.870555938456917E+000 -0.264075512456673E+000 -0.343114445803011E+001  0.000000000000000E+000 -0.786578332303430E+000
  0.683960260068416E+000  0.148510822770332E+001  0.255241646720688E+000  0.972014097430713E+000  0.307955228406864E+001 -0.901824694498252E+000 -0.238938023909077E+000 -0.343114445803011E+001  0.000000000000000E+000 -0.742554113851659E+000
  0.683960260068416E+000  0.136417508532190E+001  0.259032219778097E+000  0.967192271959117E+000  0.306136609504449E+001 -0.868503651607265E+000 -0.287398066862809E+000 -0.343114445803011E+001  0.000000000000000E+000 -0.682087542660953E+000
  0.683960260068416E+000  0.136067251300600E+001  0.259088882736219E+000  0.963068330222014E+000  0.306818982435481E+001 -0.874651376775486E+000 -0.233922264719691E+000 -0.343114445803011E+001  0.000000000000000E+000 -0.680336256503001E+000
  0.683960260068416E+000  0.131207952626073E+001  0.256444516941823E+000  0.967751629459988E+000  0.306931868999339E+001 -0.887712859058068E+000 -0.314732202181970E+000 -0.343114445803011E+001  0.000000000000000E+000 -0.656039763130367E+000
  0.683960260068416E+000  0.123457621236044E+001  0.255560963809240E+000  0.969747199389334E+000  0.307778474311830E+001 -0.891976610864265E+000 -0.262043235787659E+000 -0.343114445803011E+001  0.000000000000000E+000 -0.617288106180222E+000
  0.683960260068416E+000  0.115275015328401E+001  0.256747830971371E+000  0.970527813501877E+000  0.308101058078343E+001 -0.905312813472692E+000 -0.141653420676121E+000 -0.343114445803011E+001  0.000000000000000E+000 -0.576375076642005E+000
  0.683960260068416E+000  0.112165915610776E+001  0.252956306555962E+000  0.975840174033180E+000  0.309107776625231E+001 -0.922962042065601E+000 -0.184454466753804E+000 -0.343114445803011E+001  0.000000000000000E+000 -0.560829578053883E+000
  0.683960260068416E+000  0.111593446635069E+001  0.260756978449031E+000  0.962244163921258E+000  0.305701865383937E+001 -0.856146726896585E+000 -0.287202959234649E+000 -0.343114445803011E+001  0.000000000000000E+000 -0.557967233175347E+000
  0.683960260068416E+000  0.106756520938377E+001  0.253700268915100E+000  0.971716367982610E+000  0.309733830164924E+001 -0.923427205041741E+000 -0.110366152473120E+000 -0.343114445803011E+001  0.000000000000000E+000 -0.533782604691888E+000
  0.683960260068416E+000  0.103990346600445E+001  0.255353786132866E+000  0.971553469309503E+000  0.308452636486529E+001 -0.901929467292519E+000 -0.185945969919100E+000 -0.343114445803011E+001  0.000000000000000E+000 -0.519951733002226E+000
  0.683960260068416E+000  0.100531873112409E+001  0.256353137639847E+000  0.970174659206811E+000  0.308232835907316E+001 -0.903937301600634E+000 -0.158508406348410E+000 -0.343114445803011E+001  0.000000000000000E+000 -0.502659365562044E+000
  0.683960260068416E+000  0.892979710712434E+000  0.259134978967099E+000  0.965667741935352E+000  0.306019885291468E+001 -0.874570577032973E+000 -0.292196444115325E+000 -0.343114445803011E+001  0.000000000000000E+000 -0.446489855356218E+000
  0.683960260068416E+000  0.786838506881151E+000  0.254922074023991E+000  0.972367975411058E+000  0.308905201772657E+001 -0.918249686970685E+000 -0.128920404144663E+000 -0.343114445803011E+001  0.000000000000000E+000 -0.393419253440576E+000
  0.683960260068416E+000  0.756264129053131E+000  0.256143320944735E+000  0.971859461583191E+000  0.308051062273408E+001 -0.898954024917165E+000 -0.177669992796806E+000 -0.343114445803011E+001  0.000000000000000E+000 -0.378132064526566E+000
  0.683960260068416E+000  0.738432228098186E+000  0.260251926115665E+000  0.962943839429401E+000  0.305730495283501E+001 -0.861530715931837E+000 -0.302559731771495E+000 -0.343114445803011E+001  0.000000000000000E+000 -0.369216114049093E+000
  0.683960260068416E+000  0.695145595314422E+000  0.258680682268076E+000  0.967339435873558E+000  0.307022284886791E+001 -0.879306051180718E+000 -0.206046084623295E+000 -0.343114445803011E+001  0.000000000000000E+000 -0.347572797657211E+000
  0.683960260068416E+000  0.627139201325869E+000  0.256409149270975E+000  0.968601635475541E+000  0.307897018463825E+001 -0.896240371949622E+000 -0.208832123364865E+000 -0.343114445803011E+001  0.000000000000000E+000 -0.313569600662935E+000
