  0.100000000000000E+001  0.928918904336080E+002  0.256174447151482E+000  0.985084455263301E+000  0.310177300183010E+001 -0.967248868490833E+001 -0.293016290625428E+002
  0.100000000000000E+001  0.910654923795194E+002  0.257155298445778E+000  0.983204567318315E+000  0.309885375211510E+001 -0.664977635186688E+001 -0.314111423685399E+002
  0.100000000000000E+001  0.910272077311741E+002  0.256885629317028E+000  0.984333971501494E+000  0.309931812265120E+001 -0.808623670441788E+001 -0.299555396918163E+002
  0.100000000000000E+001  0.908591153440004E+002  0.256722493754417E+000  0.985026465852234E+000  0.309994949432145E+001 -0.910612667520323E+001 -0.288516035274441E+002
  0.100000000000000E+001  0.903166770385133E+002  0.256674900649757E+000  0.982638431800811E+000  0.310329821905809E+001 -0.727667811446501E+001 -0.304098329354388E+002
  0.100000000000000E+001  0.891722180323598E+002  0.255096051896421E+000  0.983557620465744E+000  0.310878506424791E+001 -0.996027454949932E+001 -0.271540069973276E+002
  0.100000000000000E+001  0.890338314320443E+002  0.256377854570785E+000  0.983416619426661E+000  0.310228049831895E+001 -0.782883063327041E+001 -0.292162576133988E+002
  0.100000000000000E+001  0.889110184931531E+002  0.256328442367408E+000  0.983098276932907E+000  0.310492784823600E+001 -0.826750065665109E+001 -0.287161811205726E+002
  0.100000000000000E+001  0.893047002436163E+002  0.255708446676595E+000  0.983604615851646E+000  0.310857968674158E+001 -0.998015725204985E+001 -0.272003654004054E+002
  0.100000000000000E+001  0.903988719979943E+002  0.255852802140209E+000  0.984213508237537E+000  0.310745825588280E+001 -0.103418108422679E+002 -0.273857976873764E+002
  0.100000000000000E+001  0.922662393321936E+002  0.257188882915050E+000  0.980636185878164E+000  0.309935903144123E+001 -0.407812307380377E+001 -0.345831691229401E+002
  0.100000000000000E+001  0.907154626439784E+002  0.255800157154670E+000  0.976211339042914E+000  0.311148771793259E+001 -0.407649433535577E+001 -0.338094095172805E+002
  0.100000000000000E+001  0.905560198077630E+002  0.255019516419773E+000  0.978261101545456E+000  0.311225171708731E+001 -0.586640013740758E+001 -0.319397822971210E+002
  0.100000000000000E+001  0.898681453831692E+002  0.255284411495421E+000  0.978727036585745E+000  0.311393893963064E+001 -0.686779922660891E+001 -0.305944459956228E+002
  0.100000000000000E+001  0.894583253941295E+002  0.256561284493095E+000  0.980265753085762E+000  0.310523105462240E+001 -0.542373234238064E+001 -0.318336028853312E+002
  0.100000000000000E+001  0.891084614928308E+002  0.256533178087230E+000  0.978926649872604E+000  0.310437690676371E+001 -0.393530088265594E+001 -0.331471023944065E+002
  0.100000000000000E+001  0.887611547863054E+002  0.256693716726162E+000  0.982263510765884E+000  0.310156330638828E+001 -0.635180936370136E+001 -0.305569405600984E+002
  0.100000000000000E+001  0.885998441295984E+002  0.256392880529446E+000  0.984649465003926E+000  0.310240523548608E+001 -0.933347043995473E+001 -0.274946241554916E+002
  0.100000000000000E+001  0.883891694378947E+002  0.256583326891154E+000  0.983413299556032E+000  0.310252655427454E+001 -0.791164455675580E+001 -0.288111126928386E+002
  0.100000000000000E+001  0.882413446070108E+002  0.256384866266780E+000  0.981649238858239E+000  0.310330696888530E+001 -0.620047653493169E+001 -0.304483682992208E+002
  0.100000000000000E+001  0.878482331515898E+002  0.256250288198525E+000  0.984448389400278E+000  0.310359457452136E+001 -0.943679531974432E+001 -0.270154937866977E+002
  0.100000000000000E+001  0.874634084162832E+002  0.255997826508241E+000  0.981632852867272E+000  0.310535293199895E+001 -0.678923051649597E+001 -0.294706462222927E+002
  0.100000000000000E+001  0.874329641991397E+002  0.256320894281618E+000  0.982904114944392E+000  0.310458907809249E+001 -0.794356042712485E+001 -0.283010942030921E+002
  0.100000000000000E+001  0.879390458436272E+002  0.255486436125246E+000  0.977013692856426E+000  0.311210800310222E+001 -0.485568554288840E+001 -0.316420099095723E+002
  0.100000000000000E+001  0.876659223856358E+002  0.255662528469052E+000  0.978166914400449E+000  0.310958847482167E+001 -0.491364839401110E+001 -0.314474853294539E+002
  0.100000000000000E+001  0.874648123950561E+002  0.256209579712380E+000  0.978768676735490E+000  0.310728764188478E+001 -0.469621267868075E+001 -0.315643660494944E+002
  0.100000000000000E+001  0.873681086777036E+002  0.255500114538115E+000  0.977939418268761E+000  0.311218140309691E+001 -0.560382296380060E+001 -0.306084039056983E+002
  0.100000000000000E+001  0.872119665799947E+002  0.255537171731067E+000  0.977586123720664E+000  0.311169467653865E+001 -0.515534397935784E+001 -0.309788118412866E+002
  0.100000000000000E+001  0.871864490884817E+002  0.255493953041053E+000  0.977567538972130E+000  0.311148443898965E+001 -0.506585234672251E+001 -0.310555447281654E+002
  0.100000000000000E+001  0.871303067782405E+002  0.255303449845037E+000  0.979172335533797E+000  0.311070681893079E+001 -0.613037097645674E+001 -0.299629549433106E+002
  0.100000000000000E+001  0.866883870098248E+002  0.255785299744206E+000  0.978374930554384E+000  0.310937694715994E+001 -0.502254067481051E+001 -0.308498253607490E+002
  0.100000000000000E+001  0.866734204293229E+002  0.255337621753946E+000  0.980135920991164E+000  0.311233672861305E+001 -0.757622266461703E+001 -0.282886600806915E+002
  0.100000000000000E+001  0.866475997681307E+002  0.254990320187772E+000  0.978407709430514E+000  0.311328476235327E+001 -0.634957452547591E+001 -0.295023978892365E+002
  0.100000000000000E+001  0.865508935455438E+002  0.255098167933517E+000  0.977746537971275E+000  0.311368923805267E+001 -0.595802277310040E+001 -0.298455965303186E+002
  0.100000000000000E+001  0.883311916055482E+002  0.255039919013399E+000  0.984107409495355E+000  0.311196425638984E+001 -0.116811705476344E+002 -0.250125977857868E+002
  0.100000000000000E+001  0.874567343598304E+002  0.254522035588614E+000  0.984634491348077E+000  0.311209771865625E+001 -0.123408647715955E+002 -0.239156749389667E+002
  0.100000000000000E+001  0.868269599874289E+002  0.254872335172168E+000  0.981776348915311E+000  0.311420409964660E+001 -0.984836763598615E+001 -0.260932848883754E+002
  0.100000000000000E+001  0.867057046562830E+002  0.255429275645252E+000  0.983593252156186E+000  0.310965668343868E+001 -0.103092177510623E+002 -0.255718071077263E+002
  0.100000000000000E+001  0.866805680271761E+002  0.254838913933006E+000  0.984506803319793E+000  0.311052031732684E+001 -0.116578119108567E+002 -0.242106446333784E+002
  0.100000000000000E+001  0.866448507299975E+002  0.255451260098979E+000  0.983731361433997E+000  0.310938775706173E+001 -0.103816023289880E+002 -0.254689955666578E+002
  0.100000000000000E+001  0.865577864191192E+002  0.255306708381571E+000  0.982525692098845E+000  0.311114533387350E+001 -0.960199112785680E+001 -0.262050746123499E+002
  0.100000000000000E+001  0.865570779158041E+002  0.255183522279260E+000  0.982098822474064E+000  0.311215192134934E+001 -0.948106977703741E+001 -0.263256417115117E+002
  0.100000000000000E+001  0.865205763154145E+002  0.254737184816223E+000  0.983474291711198E+000  0.311372543238603E+001 -0.115414315436144E+002 -0.242470291447400E+002
  0.100000000000000E+001  0.861401354475153E+002  0.255519043925012E+000  0.983104678894755E+000  0.310931111628941E+001 -0.963837642620276E+001 -0.259598638282020E+002
  0.100000000000000E+001  0.864605795707532E+002  0.254618071118035E+000  0.983546204406349E+000  0.311430740871813E+001 -0.118269524091065E+002 -0.239315099069171E+002
  0.100000000000000E+001  0.864553994412210E+002  0.254883281672027E+000  0.985018173609559E+000  0.311138009195450E+001 -0.125852746295423E+002 -0.231705976217152E+002
  0.100000000000000E+001  0.862806846963928E+002  0.254687664870802E+000  0.984903626661312E+000  0.311250303828589E+001 -0.128222685107987E+002 -0.228462463680448E+002
  0.100000000000000E+001  0.862246458264725E+002  0.255655512692612E+000  0.984446316777354E+000  0.310664569067813E+001 -0.103503219003084E+002 -0.252901735435749E+002
  0.100000000000000E+001  0.861566927888588E+002  0.254835499744348E+000  0.983311652820212E+000  0.311319412195656E+001 -0.111708846380571E+002 -0.244356342870194E+002
  0.100000000000000E+001  0.860597580357231E+002  0.256136243883914E+000  0.981995737706757E+000  0.310590297049714E+001 -0.735192933269001E+001 -0.282061222158186E+002
  0.100000000000000E+001  0.860502375801574E+002  0.255340696142092E+000  0.982107056985912E+000  0.310885012258593E+001 -0.837787221699215E+001 -0.271754191037336E+002
  0.100000000000000E+001  0.858961913311014E+002  0.255560768523184E+000  0.982481380908981E+000  0.310943082152807E+001 -0.898746518045795E+001 -0.264888030157398E+002
  0.100000000000000E+001  0.857885049223623E+002  0.255968602970232E+000  0.982773913881079E+000  0.310636643835798E+001 -0.833423727834230E+001 -0.270881877134859E+002
  0.100000000000000E+001  0.854355326088043E+002  0.255948252286393E+000  0.981734101857863E+000  0.310639043867646E+001 -0.721935517311841E+001 -0.280265836619308E+002
  0.100000000000000E+001  0.851545902993708E+002  0.255240676740881E+000  0.982156805756796E+000  0.310965511674943E+001 -0.869384867481389E+001 -0.264116190055186E+002
  0.100000000000000E+001  0.848664695379666E+002  0.255542006807229E+000  0.982102446388455E+000  0.310828696238749E+001 -0.819837467418516E+001 -0.267630326254453E+002
  0.100000000000000E+001  0.861365677909953E+002  0.256126161652525E+000  0.980177644396525E+000  0.310688096649783E+001 -0.583468900075492E+001 -0.297617674253898E+002
  0.100000000000000E+001  0.858324040788655E+002  0.254861761784211E+000  0.980471445637602E+000  0.311255628127923E+001 -0.794954944935697E+001 -0.274948251207229E+002
  0.100000000000000E+001  0.857448571804531E+002  0.255336588782439E+000  0.978496229191700E+000  0.311199338199030E+001 -0.598963620529659E+001 -0.294109649155771E+002
  0.100000000000000E+001  0.856105419369023E+002  0.256000142929772E+000  0.980448523615694E+000  0.310701753198930E+001 -0.613015874819011E+001 -0.292032847509081E+002
  0.100000000000000E+001  0.855609958216850E+002  0.255010244402241E+000  0.978490741191906E+000  0.311398355870190E+001 -0.666863114824539E+001 -0.286400392932442E+002
  0.100000000000000E+001  0.854513276170799E+002  0.255001905897029E+000  0.978945969888493E+000  0.311420466876531E+001 -0.713759958657442E+001 -0.281162367526126E+002
  0.100000000000000E+001  0.853752301024092E+002  0.255174804198079E+000  0.979022257326266E+000  0.311225036740298E+001 -0.652281061552606E+001 -0.286929769663256E+002
  0.100000000000000E+001  0.849237609405808E+002  0.255460068987822E+000  0.980959108299080E+000  0.310930810175439E+001 -0.735018885297312E+001 -0.276398641479644E+002
  0.100000000000000E+001  0.860363050001399E+002  0.254691676144733E+000  0.984915403529827E+000  0.311181140954738E+001 -0.125966034836508E+002 -0.229497215470663E+002
  0.100000000000000E+001  0.860263660327837E+002  0.254919080373489E+000  0.981237114712482E+000  0.311404756259293E+001 -0.923833740957274E+001 -0.263030181374662E+002
  0.100000000000000E+001  0.857048113677372E+002  0.254939897283076E+000  0.982988512332613E+000  0.311270642546452E+001 -0.106378577767856E+002 -0.247427204377301E+002
  0.100000000000000E+001  0.856941947511372E+002  0.254975177307083E+000  0.982946975722494E+000  0.311253229159399E+001 -0.105319977949423E+002 -0.248432721112733E+002
  0.100000000000000E+001  0.856580791602999E+002  0.255283032468213E+000  0.984144686557479E+000  0.310959583901841E+001 -0.109313247602307E+002 -0.244258873505663E+002
  0.100000000000000E+001  0.855345406653996E+002  0.254543579952755E+000  0.983927530736567E+000  0.311399370651210E+001 -0.121578164353625E+002 -0.231376264279844E+002
  0.100000000000000E+001  0.855271671319402E+002  0.254623141045010E+000  0.983757255399031E+000  0.311374785768286E+001 -0.118732972582532E+002 -0.234184588383640E+002
  0.100000000000000E+001  0.855098064514711E+002  0.255197053205549E+000  0.983564554282544E+000  0.310920728366263E+001 -0.101135298363499E+002 -0.251695459200327E+002
  0.100000000000000E+001  0.854851598734062E+002  0.255811560158702E+000  0.983074586386890E+000  0.310697571087480E+001 -0.885663552301362E+001 -0.264141169443366E+002
  0.100000000000000E+001  0.853986031061019E+002  0.255316862499801E+000  0.983529962085562E+000  0.310864332991279E+001 -0.989291819755734E+001 -0.253345558861407E+002
  0.100000000000000E+001  0.853469967316851E+002  0.254600443777836E+000  0.984232313259263E+000  0.311313521918386E+001 -0.122191729804332E+002 -0.229824979160564E+002
  0.100000000000000E+001  0.851865074502231E+002  0.254698263352247E+000  0.983447968113252E+000  0.311219605622282E+001 -0.109711261030978E+002 -0.241503001526608E+002
  0.100000000000000E+001  0.849226069367400E+002  0.255183952990496E+000  0.981512956332816E+000  0.311039635857865E+001 -0.826314570170794E+001 -0.267263302973092E+002
  0.100000000000000E+001  0.849119748745504E+002  0.254651182322742E+000  0.983575528028611E+000  0.311264156018345E+001 -0.112720245500256E+002 -0.237121354178967E+002
  0.100000000000000E+001  0.848725918768251E+002  0.255200587659765E+000  0.981531167398618E+000  0.311031701566465E+001 -0.825595278829122E+001 -0.267085156807684E+002
  0.100000000000000E+001  0.848702375167921E+002  0.255584059718094E+000  0.982958582529890E+000  0.310790718767791E+001 -0.901454961595630E+001 -0.259487416730868E+002
  0.100000000000000E+001  0.846180208101880E+002  0.255518085297629E+000  0.982705417635495E+000  0.310846331208425E+001 -0.891085231716393E+001 -0.259263306185772E+002
  0.100000000000000E+001  0.846080019760822E+002  0.255608208349689E+000  0.982055705126360E+000  0.310828813475411E+001 -0.815255641767446E+001 -0.266796171010138E+002
  0.100000000000000E+001  0.845911631566485E+002  0.255537071618455E+000  0.982496411631502E+000  0.310882146751620E+001 -0.880010581534418E+001 -0.260236482936272E+002
  0.100000000000000E+001  0.844654155386085E+002  0.255512149252714E+000  0.982030794525371E+000  0.310877542049713E+001 -0.828111630226269E+001 -0.264797639976886E+002
  0.100000000000000E+001  0.847539100686455E+002  0.255524117846833E+000  0.981054197472532E+000  0.311004079824744E+001 -0.769434253103462E+001 -0.272107850339352E+002
  0.100000000000000E+001  0.847532367951699E+002  0.255191718124959E+000  0.979484586131944E+000  0.311215071248663E+001 -0.690087165595518E+001 -0.280039192722769E+002
  0.100000000000000E+001  0.847208651035578E+002  0.254829300367071E+000  0.982580260281963E+000  0.311325098719915E+001 -0.103703223456840E+002 -0.245182827367420E+002
  0.100000000000000E+001  0.847189333946168E+002  0.254933867753237E+000  0.982948262152408E+000  0.311120749905468E+001 -0.100726516209616E+002 -0.248149876069939E+002
  0.100000000000000E+001  0.846175099189187E+002  0.254770047198339E+000  0.981650133686146E+000  0.311416028530966E+001 -0.969590583315965E+001 -0.251410216569468E+002
  0.100000000000000E+001  0.845381220974797E+002  0.255382003137633E+000  0.982928160151768E+000  0.310908810342718E+001 -0.935795678547742E+001 -0.254392767939095E+002
  0.100000000000000E+001  0.845252596505137E+002  0.254882053745008E+000  0.981863782535302E+000  0.311336132930578E+001 -0.964070146929652E+001 -0.251501008866074E+002
  0.100000000000000E+001  0.844975203734184E+002  0.254852902111159E+000  0.983255999082186E+000  0.311233228977002E+001 -0.108057710416699E+002 -0.239711616756864E+002
  0.100000000000000E+001  0.844082999806055E+002  0.255418513694149E+000  0.980959242512306E+000  0.311053129132644E+001 -0.775945162148706E+001 -0.269728708994628E+002
  0.100000000000000E+001  0.843979129687975E+002  0.255473212443989E+000  0.980606268914966E+000  0.311005402996909E+001 -0.725282634897169E+001 -0.274743026660742E+002
  0.100000000000000E+001  0.842743420770280E+002  0.255209435275576E+000  0.980249982021945E+000  0.311189965701606E+001 -0.752586979638768E+001 -0.271394737727734E+002
  0.100000000000000E+001  0.843043274825428E+002  0.254824568744142E+000  0.982828847192819E+000  0.311278014268312E+001 -0.104793700945001E+002 -0.242009661774183E+002
  0.100000000000000E+001  0.842839656789866E+002  0.255189456587006E+000  0.980894815151909E+000  0.311194299060082E+001 -0.816744762923438E+001 -0.265027077409060E+002
  0.100000000000000E+001  0.842769600920946E+002  0.255249545595735E+000  0.982295658188716E+000  0.311003205380919E+001 -0.897043484547896E+001 -0.256962177312154E+002
  0.100000000000000E+001  0.842359315862078E+002  0.255178922887351E+000  0.982398312579231E+000  0.311038922776211E+001 -0.919870564106991E+001 -0.254474326826811E+002
  0.100000000000000E+001  0.841686247768342E+002  0.255204036944746E+000  0.982488321034817E+000  0.311034857604867E+001 -0.928437195268813E+001 -0.253281129663760E+002
  0.100000000000000E+001  0.841627344452216E+002  0.255041064275392E+000  0.981759579039050E+000  0.311229683114706E+001 -0.916528260969256E+001 -0.254442571435653E+002
  0.100000000000000E+001  0.841499548596791E+002  0.255323007122683E+000  0.981133983453633E+000  0.311042701660345E+001 -0.789420437497628E+001 -0.267089455855103E+002
  0.100000000000000E+001  0.841176934023286E+002  0.255097360446142E+000  0.980495845354632E+000  0.311213478780883E+001 -0.783791802170140E+001 -0.267491012101100E+002
  0.100000000000000E+001  0.841075384570875E+002  0.255252114245667E+000  0.982288709245185E+000  0.311029720637849E+001 -0.905256835441980E+001 -0.255293734047710E+002
  0.100000000000000E+001  0.840838159015028E+002  0.254809896294313E+000  0.981649449248574E+000  0.311286879188418E+001 -0.923905353531607E+001 -0.253310269460824E+002
  0.100000000000000E+001  0.840781633880267E+002  0.255330954601308E+000  0.981586086600170E+000  0.311038976552135E+001 -0.834428284359396E+001 -0.262229713810665E+002
