  0.880000451767400E+000  0.946676873213189E+001  0.256210735493697E+000  0.968758763249306E+000  0.307663137090368E+001 -0.923427841526388E+000 -0.184201530482399E+000 -0.268920711330073E+001  0.000000000000000E+000 -0.478311476283127E+001
  0.880000451767400E+000  0.979884769657753E+001  0.257729110744405E+000  0.966085506186472E+000  0.306321596274193E+001 -0.941143971013239E+000 -0.191986432457927E+000 -0.268920711330073E+001  0.000000000000000E+000 -0.494915424505408E+001
  0.880000451767400E+000  0.104632464147454E+002  0.250438614663695E+000  0.984423074153763E+000  0.311906809305453E+001 -0.101027647041365E+001  0.124753593995178E+000 -0.268920711330073E+001  0.000000000000000E+000 -0.528135360413804E+001
  0.880000451767400E+000  0.512897826478551E+001  0.245424827767265E+000  0.986168165982531E+000  0.314197464559393E+001 -0.105415107599219E+001  0.170586305699862E+000 -0.268920711330073E+001  0.000000000000000E+000 -0.261421952915807E+001
  0.880000451767400E+000  0.108822016825559E+002  0.256683867045514E+000  0.970988400365279E+000  0.310185628800039E+001 -0.953536927699712E+000  0.120522107181255E+000 -0.268920711330073E+001  0.000000000000000E+000 -0.549083123804327E+001
  0.880000451767400E+000  0.126386402154770E+002  0.256679709742941E+000  0.968922716705816E+000  0.307387279701640E+001 -0.942896783884746E+000 -0.113858152694462E+000 -0.268920711330073E+001  0.000000000000000E+000 -0.636905050450381E+001
  0.880000451767400E+000  0.827037316017845E+001  0.248823608022854E+000  0.987831517533272E+000  0.313386412659754E+001 -0.104044847097494E+001  0.244565985998740E+000 -0.268920711330073E+001  0.000000000000000E+000 -0.418491697685454E+001
  0.880000451767400E+000  0.742902467199200E+001  0.244555008733106E+000  0.990513676901281E+000  0.315402865070549E+001 -0.107024920991050E+001  0.279618178471207E+000 -0.268920711330073E+001  0.000000000000000E+000 -0.376424273276132E+001
  0.880000451767400E+000  0.712121137257510E+001  0.254208530082123E+000  0.968514459945931E+000  0.308971584574344E+001 -0.971974828622536E+000 -0.602400614598833E-001 -0.268920711330073E+001  0.000000000000000E+000 -0.361033608305287E+001
  0.880000451767400E+000  0.707454825918323E+001  0.254337698435378E+000  0.981634022999936E+000  0.309414349659486E+001 -0.987446275194301E+000  0.698663052978019E-001 -0.268920711330073E+001  0.000000000000000E+000 -0.358700452635694E+001
  0.880000451767400E+000  0.697198995219767E+001  0.259618170864104E+000  0.969891930239883E+000  0.304955168751938E+001 -0.919200108873664E+000 -0.266874237196211E+000 -0.268920711330073E+001  0.000000000000000E+000 -0.353572537286415E+001
  0.880000451767400E+000  0.692267294312003E+001  0.251893615507334E+000  0.975777619698521E+000  0.309644787285936E+001 -0.996336927080210E+000 -0.415646289773615E-001 -0.268920711330073E+001  0.000000000000000E+000 -0.351106686832534E+001
  0.880000451767400E+000  0.664545382263476E+001  0.250476193565282E+000  0.975555783257057E+000  0.310583480919762E+001 -0.100687232832844E+001 -0.164943433184881E-001 -0.268920711330073E+001  0.000000000000000E+000 -0.337245730808270E+001
  0.880000451767400E+000  0.655660788718794E+001  0.251110906350968E+000  0.975193027595150E+000  0.311800829570943E+001 -0.100271379113574E+001  0.117258235420866E+000 -0.268920711330073E+001  0.000000000000000E+000 -0.332803434035929E+001
  0.880000451767400E+000  0.653956350193452E+001  0.254099791908388E+000  0.973356629954411E+000  0.307943989852874E+001 -0.963159217030127E+000 -0.189377197911160E+000 -0.268920711330073E+001  0.000000000000000E+000 -0.331951214773258E+001
  0.880000451767400E+000  0.642917236497626E+001  0.255251869458620E+000  0.976895999955317E+000  0.308027413328439E+001 -0.974021199951654E+000 -0.597164613269174E-001 -0.268920711330073E+001  0.000000000000000E+000 -0.326431657925345E+001
  0.880000451767400E+000  0.626145725588436E+001  0.260224057945616E+000  0.972197147235251E+000  0.306576564186326E+001 -0.929621635626463E+000 -0.380987604206786E-001 -0.268920711330073E+001  0.000000000000000E+000 -0.318045902470750E+001
  0.880000451767400E+000  0.620002378492956E+001  0.252541103859763E+000  0.972847233685483E+000  0.310256091302816E+001 -0.976776665350542E+000  0.364023031760663E-002 -0.268920711330073E+001  0.000000000000000E+000 -0.314974228923010E+001
  0.880000451767400E+000  0.616222253678059E+001  0.248315929786079E+000  0.983736664954399E+000  0.313646010224744E+001 -0.103476606927352E+001  0.211014273465371E+000 -0.268920711330073E+001  0.000000000000000E+000 -0.313084166515561E+001
  0.880000451767400E+000  0.601654104850038E+001  0.249919158685793E+000  0.980156539848285E+000  0.312840492387045E+001 -0.101635277692979E+001  0.170890632018653E+000 -0.268920711330073E+001  0.000000000000000E+000 -0.305800092101551E+001
  0.880000451767400E+000  0.543785404556860E+001  0.243158073265829E+000  0.989388157937630E+000  0.314861922887379E+001 -0.106009249352782E+001  0.140697266426648E+000 -0.268920711330073E+001  0.000000000000000E+000 -0.276865741954962E+001
  0.880000451767400E+000  0.542969737725185E+001  0.257889546656431E+000  0.971546943365152E+000  0.305774031833782E+001 -0.930440539799678E+000 -0.241809601004245E+000 -0.268920711330073E+001  0.000000000000000E+000 -0.276457908539124E+001
  0.880000451767400E+000  0.537769058625423E+001  0.253239473923739E+000  0.971372726138913E+000  0.310369701702811E+001 -0.973360196318164E+000  0.728933399557352E-002 -0.268920711330073E+001  0.000000000000000E+000 -0.273857568989243E+001
  0.880000451767400E+000  0.518208385412485E+001  0.249600112028557E+000  0.975610880612988E+000  0.310683491599556E+001 -0.994510814835742E+000 -0.741818864137320E-001 -0.268920711330073E+001  0.000000000000000E+000 -0.264077232382774E+001
  0.880000451767400E+000  0.515848016969932E+001  0.260149842983579E+000  0.961937317711233E+000  0.305826894348414E+001 -0.924910919407935E+000 -0.170460456127450E+000 -0.268920711330073E+001  0.000000000000000E+000 -0.262897048161498E+001
  0.880000451767400E+000  0.512018291757893E+001  0.246183186173864E+000  0.987067144355273E+000  0.312671430152808E+001 -0.103917791669698E+001  0.613804163951395E-001 -0.268920711330073E+001  0.000000000000000E+000 -0.260982185555479E+001
  0.880000451767400E+000  0.503672332089846E+001  0.252797394086547E+000  0.968600083585278E+000  0.310251048595893E+001 -0.970213010754330E+000 -0.291963684534071E-001 -0.268920711330073E+001  0.000000000000000E+000 -0.256809205721455E+001
  0.880000451767400E+000  0.473613908050924E+001  0.257761537409755E+000  0.961734991260229E+000  0.307243161070840E+001 -0.936921582114975E+000 -0.149644844040091E+000 -0.268920711330073E+001  0.000000000000000E+000 -0.241779993701994E+001
  0.880000451767400E+000  0.472817048591886E+001  0.252219542053921E+000  0.980977161779257E+000  0.310301255997312E+001 -0.100081873574163E+001  0.554189870050759E-001 -0.268920711330073E+001  0.000000000000000E+000 -0.241381563972475E+001
  0.880000451767400E+000  0.466801752119857E+001  0.255777062162311E+000  0.975496841693207E+000  0.309816033269311E+001 -0.971669207895602E+000  0.108513818874159E+000 -0.268920711330073E+001  0.000000000000000E+000 -0.238373915736460E+001
  0.880000451767400E+000  0.466080252633902E+001  0.256667646812272E+000  0.970187035848843E+000  0.307685367689958E+001 -0.930779181321060E+000 -0.129909887172767E+000 -0.268920711330073E+001  0.000000000000000E+000 -0.238013165993483E+001
  0.880000451767400E+000  0.456493853343847E+001  0.257633079130650E+000  0.973898052990608E+000  0.308442670131766E+001 -0.958356190357253E+000  0.527741544640117E-001 -0.268920711330073E+001  0.000000000000000E+000 -0.233219966348455E+001
  0.880000451767400E+000  0.447727441196078E+001  0.255674210207127E+000  0.965930649731094E+000  0.308505567835951E+001 -0.947678995357348E+000 -0.109400937101379E+000 -0.268920711330073E+001  0.000000000000000E+000 -0.228836760274571E+001
  0.880000451767400E+000  0.438487385085733E+001  0.254873251545352E+000  0.976159892819578E+000  0.308797636377770E+001 -0.958178689301728E+000 -0.318229573154589E-001 -0.268920711330073E+001  0.000000000000000E+000 -0.224216732219399E+001
  0.880000451767400E+000  0.437032045491615E+001  0.259921790694202E+000  0.964730709270675E+000  0.306493429119066E+001 -0.932497804132092E+000 -0.103203394537977E+000 -0.268920711330073E+001  0.000000000000000E+000 -0.223489062422339E+001
  0.880000451767400E+000  0.429804473770188E+001  0.257724139628487E+000  0.968152599084689E+000  0.306170903332378E+001 -0.939062852453449E+000 -0.219841090299153E+000 -0.268920711330073E+001  0.000000000000000E+000 -0.219875276561626E+001
  0.880000451767400E+000  0.418894291243556E+001  0.245142982705111E+000  0.988200249209308E+000  0.314087211574194E+001 -0.105251984375517E+001  0.159877796061706E+000 -0.268920711330073E+001  0.000000000000000E+000 -0.214420185298310E+001
  0.880000451767400E+000  0.415756137421798E+001  0.248484432759671E+000  0.982381665275618E+000  0.311508269681321E+001 -0.102281055007371E+001  0.231330908283209E-001 -0.268920711330073E+001  0.000000000000000E+000 -0.212851108387431E+001
  0.880000451767400E+000  0.412184782068833E+001  0.249928164168119E+000  0.973650669120908E+000  0.311421834138165E+001 -0.100057419451127E+001  0.631810155525381E-002 -0.268920711330073E+001  0.000000000000000E+000 -0.211065430710948E+001
  0.880000451767400E+000  0.411507444980659E+001  0.249503749476920E+000  0.975713824152633E+000  0.311539917316294E+001 -0.100414410730956E+001  0.184276052547254E-001 -0.268920711330073E+001  0.000000000000000E+000 -0.210726762166861E+001
  0.880000451767400E+000  0.396308946761550E+001  0.250625313131580E+000  0.979128768535609E+000  0.309820081489955E+001 -0.995934763616265E+000 -0.864516874450660E-001 -0.268920711330073E+001  0.000000000000000E+000 -0.203127513057307E+001
  0.880000451767400E+000  0.386159640398130E+001  0.254054324506496E+000  0.974794548691713E+000  0.309841550315760E+001 -0.963235389755304E+000  0.975458804150442E-002 -0.268920711330073E+001  0.000000000000000E+000 -0.198052859875597E+001
  0.880000451767400E+000  0.374153952437046E+001  0.246044440935044E+000  0.986730563211266E+000  0.313127902985036E+001 -0.103931233368532E+001  0.925608469840653E-001 -0.268920711330073E+001  0.000000000000000E+000 -0.192050015895055E+001
  0.880000451767400E+000  0.372884917107478E+001  0.247552638761346E+000  0.986839207156395E+000  0.313114986836988E+001 -0.103709335788224E+001  0.161683765361820E+000 -0.268920711330073E+001  0.000000000000000E+000 -0.191415498230271E+001
  0.880000451767400E+000  0.358089160967260E+001  0.257872622738908E+000  0.964341309791147E+000  0.306007871666451E+001 -0.928780629792841E+000 -0.270193830893738E+000 -0.268920711330073E+001  0.000000000000000E+000 -0.184017620160162E+001
  0.880000451767400E+000  0.356792251621610E+001  0.250481568390419E+000  0.975637404185199E+000  0.309693174420976E+001 -0.984534485976693E+000 -0.153560466483500E+000 -0.268920711330073E+001  0.000000000000000E+000 -0.183369165487337E+001
  0.880000451767400E+000  0.356617740579658E+001  0.253367807807623E+000  0.967289899189799E+000  0.308804907166539E+001 -0.959088297627927E+000 -0.169174613137201E+000 -0.268920711330073E+001  0.000000000000000E+000 -0.183281909966361E+001
  0.880000451767400E+000  0.354957906264289E+001  0.255973761612177E+000  0.970943344479047E+000  0.308062635967037E+001 -0.954987911584888E+000 -0.678634305788206E-001 -0.268920711330073E+001  0.000000000000000E+000 -0.182451992808676E+001
  0.880000451767400E+000  0.347601536820144E+001  0.256628390017324E+000  0.975870690044394E+000  0.308031537567610E+001 -0.956468073487966E+000 -0.236510956557350E-001 -0.268920711330073E+001  0.000000000000000E+000 -0.178773808086604E+001
  0.880000451767400E+000  0.344014113699703E+001  0.252394239728020E+000  0.976032196175072E+000  0.310403139934006E+001 -0.997633747874861E+000  0.455354271899697E-001 -0.268920711330073E+001  0.000000000000000E+000 -0.176980096526384E+001
  0.880000451767400E+000  0.337840688307318E+001  0.259499505358463E+000  0.959182622588688E+000  0.306167537482312E+001 -0.909760454782944E+000 -0.229013150575878E+000 -0.268920711330073E+001  0.000000000000000E+000 -0.173893383830191E+001
  0.880000451767400E+000  0.334763875907922E+001  0.258983864334091E+000  0.962214739344106E+000  0.306196450721043E+001 -0.927310551683003E+000 -0.197013750627993E+000 -0.268920711330073E+001  0.000000000000000E+000 -0.172354977630493E+001
  0.880000451767400E+000  0.333923663873636E+001  0.250509848508000E+000  0.973148130844154E+000  0.310453683295917E+001 -0.990267347473491E+000 -0.744824970213211E-001 -0.268920711330073E+001  0.000000000000000E+000 -0.171934871613350E+001
  0.880000451767400E+000  0.327353286212918E+001  0.250382989076176E+000  0.973922725268275E+000  0.310755613867072E+001 -0.993493293408637E+000 -0.517806368910390E-001 -0.268920711330073E+001  0.000000000000000E+000 -0.168649682782991E+001
  0.880000451767400E+000  0.327065657030568E+001  0.256047134222042E+000  0.974006190893269E+000  0.307146287250494E+001 -0.949040012760638E+000 -0.157055496580850E+000 -0.268920711330073E+001  0.000000000000000E+000 -0.168505868191816E+001
  0.880000451767400E+000  0.325853066285287E+001  0.259001020629812E+000  0.966732789199282E+000  0.305300182302964E+001 -0.917226880161107E+000 -0.278389137125104E+000 -0.268920711330073E+001  0.000000000000000E+000 -0.167899572819175E+001
  0.880000451767400E+000  0.324893895781349E+001  0.252826233309338E+000  0.973005211932264E+000  0.310111895969137E+001 -0.975273446648396E+000 -0.156308665230886E-002 -0.268920711330073E+001  0.000000000000000E+000 -0.167419987567207E+001
  0.880000451767400E+000  0.318863680175271E+001  0.265581990428228E+000  0.956384360459890E+000  0.303053967183406E+001 -0.862200228029114E+000 -0.305591365067976E+000 -0.268920711330073E+001  0.000000000000000E+000 -0.164404879764167E+001
  0.880000451767400E+000  0.312312879255664E+001  0.256996941740582E+000  0.972713122718684E+000  0.307281218944059E+001 -0.953005759641103E+000 -0.879101519594254E-001 -0.268920711330073E+001  0.000000000000000E+000 -0.161129479304364E+001
  0.880000451767400E+000  0.306148358489577E+001  0.254981725439401E+000  0.973972065918631E+000  0.309503784391859E+001 -0.963123393767057E+000  0.304111192895871E-001 -0.268920711330073E+001  0.000000000000000E+000 -0.158047218921321E+001
  0.880000451767400E+000  0.299311667339213E+001  0.248489801271225E+000  0.984229026871130E+000  0.312009228526929E+001 -0.101717993648408E+001  0.706468994465164E-001 -0.268920711330073E+001  0.000000000000000E+000 -0.154628873346139E+001
  0.880000451767400E+000  0.298656761087754E+001  0.263661613725810E+000  0.958696091221116E+000  0.303452430143421E+001 -0.883754091914879E+000 -0.319168946053741E+000 -0.268920711330073E+001  0.000000000000000E+000 -0.154301420220409E+001
  0.880000451767400E+000  0.289302123787685E+001  0.261789274755626E+000  0.965123436128398E+000  0.305068272600230E+001 -0.912185786871088E+000 -0.163527295572853E+000 -0.268920711330073E+001  0.000000000000000E+000 -0.149624101570374E+001
  0.880000451767400E+000  0.287107830525547E+001  0.257210174155962E+000  0.965606450013067E+000  0.308298967663845E+001 -0.940596058212764E+000 -0.582582860565699E-001 -0.268920711330073E+001  0.000000000000000E+000 -0.148526954939305E+001
  0.880000451767400E+000  0.281532428847312E+001  0.258767707483435E+000  0.970783942827420E+000  0.306173108726240E+001 -0.928357545642529E+000 -0.162878541217855E+000 -0.268920711330073E+001  0.000000000000000E+000 -0.145739254100188E+001
  0.880000451767400E+000  0.276838955528237E+001  0.260456217774748E+000  0.964193463352730E+000  0.305183330798406E+001 -0.912840079785929E+000 -0.242725229728560E+000 -0.268920711330073E+001  0.000000000000000E+000 -0.143392517440651E+001
  0.880000451767400E+000  0.268280819302600E+001  0.259561835476738E+000  0.967086314748350E+000  0.306924976895506E+001 -0.935598425106118E+000 -0.542329069208125E-001 -0.268920711330073E+001  0.000000000000000E+000 -0.139113449327832E+001
  0.880000451767400E+000  0.260131155750445E+001  0.247152370100789E+000  0.983037214700308E+000  0.312964789979770E+001 -0.103144290193512E+001  0.997216575151376E-001 -0.268920711330073E+001  0.000000000000000E+000 -0.135038617551755E+001
  0.880000451767400E+000  0.246621089309302E+001  0.252190617347838E+000  0.975970442078666E+000  0.309664660779276E+001 -0.977097358240943E+000 -0.775773048180257E-001 -0.268920711330073E+001  0.000000000000000E+000 -0.128283584331183E+001
  0.880000451767400E+000  0.238513920117532E+001  0.255910355936837E+000  0.973616448679282E+000  0.308472263611478E+001 -0.967653804846802E+000 -0.124139033977002E-001 -0.268920711330073E+001  0.000000000000000E+000 -0.124229999735298E+001
  0.880000451767400E+000  0.237285855187503E+001  0.256292282823075E+000  0.974805206822283E+000  0.308028728708374E+001 -0.960728996434916E+000 -0.375364293058302E-001 -0.268920711330073E+001  0.000000000000000E+000 -0.123615967270284E+001
  0.880000451767400E+000  0.234677776759738E+001  0.259081842049038E+000  0.961884172406093E+000  0.305567191348236E+001 -0.909240488739922E+000 -0.289692723757039E+000 -0.268920711330073E+001  0.000000000000000E+000 -0.122311928056401E+001
  0.880000451767400E+000  0.232343202220740E+001  0.256795100508259E+000  0.971346536066281E+000  0.307209683012817E+001 -0.937242065776957E+000 -0.155484248712511E+000 -0.268920711330073E+001  0.000000000000000E+000 -0.121144640786902E+001
  0.880000451767400E+000  0.232183470054409E+001  0.256875367170512E+000  0.972774451758458E+000  0.308253690642364E+001 -0.946718880726265E+000 -0.255023714801741E-001 -0.268920711330073E+001  0.000000000000000E+000 -0.121064774703736E+001
  0.880000451767400E+000  0.228712998758462E+001  0.253369846830522E+000  0.971294008858409E+000  0.308788885313268E+001 -0.955549496717305E+000 -0.155412378529642E+000 -0.268920711330073E+001  0.000000000000000E+000 -0.119329539055763E+001
  0.880000451767400E+000  0.223509547439563E+001  0.253275408151502E+000  0.976846141388257E+000  0.310470330252243E+001 -0.985281928612193E+000  0.718563391602087E-001 -0.268920711330073E+001  0.000000000000000E+000 -0.116727813396313E+001
  0.880000451767400E+000  0.220997977416345E+001  0.250497284231925E+000  0.981885836064913E+000  0.311578725048769E+001 -0.100906600828656E+001  0.106190038841754E+000 -0.268920711330073E+001  0.000000000000000E+000 -0.115472028384705E+001
  0.880000451767400E+000  0.220532196222549E+001  0.255495092018794E+000  0.967584471975698E+000  0.308068721468864E+001 -0.951776427958438E+000 -0.141250535514495E+000 -0.268920711330073E+001  0.000000000000000E+000 -0.115239137787806E+001
  0.880000451767400E+000  0.218775117238576E+001  0.254979563498693E+000  0.974421409324786E+000  0.309482814442609E+001 -0.976318535862919E+000  0.484335667658806E-001 -0.268920711330073E+001  0.000000000000000E+000 -0.114360598295820E+001
  0.880000451767400E+000  0.214280322407907E+001  0.252861745602554E+000  0.972604917345870E+000  0.308609661561021E+001 -0.967225614586607E+000 -0.175628566892520E+000 -0.268920711330073E+001  0.000000000000000E+000 -0.112113200880486E+001
  0.880000451767400E+000  0.208360252826279E+001  0.255716283839621E+000  0.967041998410736E+000  0.308311045907071E+001 -0.948741080621597E+000 -0.113153807017156E+000 -0.268920711330073E+001  0.000000000000000E+000 -0.104180126413140E+001
  0.880000451767400E+000  0.206070787568404E+001  0.260621146506111E+000  0.962283226788245E+000  0.305547826088525E+001 -0.904145369634304E+000 -0.223477515326136E+000 -0.268920711330073E+001  0.000000000000000E+000 -0.103035393784202E+001
  0.880000451767400E+000  0.193855691792493E+001  0.248785240727505E+000  0.982485121345809E+000  0.311945085555499E+001 -0.101736621396461E+001  0.691787894205920E-001 -0.268920711330073E+001  0.000000000000000E+000 -0.969278458962468E+000
  0.880000451767400E+000  0.148353595507717E+001  0.255375682702512E+000  0.973344047990999E+000  0.309184769854017E+001 -0.961090831970185E+000  0.757266934189760E-002 -0.268920711330073E+001  0.000000000000000E+000 -0.741767977538584E+000
  0.880000451767400E+000  0.137287277845599E+001  0.253595067163440E+000  0.971769125712010E+000  0.308724423112827E+001 -0.957881007309334E+000 -0.140208085198272E+000 -0.268920711330073E+001  0.000000000000000E+000 -0.686436389227998E+000
  0.880000451767400E+000  0.135838245626472E+001  0.257463098683207E+000  0.965347678134544E+000  0.306740575757880E+001 -0.923403795283535E+000 -0.219021662804423E+000 -0.268920711330073E+001  0.000000000000000E+000 -0.679191228132362E+000
  0.880000451767400E+000  0.134931266737079E+001  0.257176175300903E+000  0.966358211386686E+000  0.307838708913778E+001 -0.945494897431842E+000 -0.823591403339368E-001 -0.268920711330073E+001  0.000000000000000E+000 -0.674656333685397E+000
  0.880000451767400E+000  0.133866131036646E+001  0.257780837984535E+000  0.964796725021520E+000  0.307466559262533E+001 -0.930437248883063E+000 -0.120678678591412E+000 -0.268920711330073E+001  0.000000000000000E+000 -0.669330655183231E+000
  0.880000451767400E+000  0.131721388001749E+001  0.259766994025241E+000  0.967143548157622E+000  0.306167431269251E+001 -0.920204898528620E+000 -0.147827384857744E+000 -0.268920711330073E+001  0.000000000000000E+000 -0.658606940008746E+000
  0.880000451767400E+000  0.105948115401929E+001  0.259236823906605E+000  0.964923631358360E+000  0.305943140261931E+001 -0.921904459022884E+000 -0.208211806938603E+000 -0.268920711330073E+001  0.000000000000000E+000 -0.529740577009645E+000
  0.880000451767400E+000  0.885250698682441E+000  0.256404334155080E+000  0.967637417344345E+000  0.308242734164122E+001 -0.944573847411914E+000 -0.806070352118926E-001 -0.268920711330073E+001  0.000000000000000E+000 -0.442625349341221E+000
  0.880000451767400E+000  0.722557074547374E+000  0.256340379041818E+000  0.968091144871709E+000  0.307486491181602E+001 -0.938713862216092E+000 -0.159650235795804E+000 -0.268920711330073E+001  0.000000000000000E+000 -0.361278537273688E+000
