  0.100000000000000E+001  0.102917574629318E+002  0.252892030031664E+000  0.976951120782379E+000  0.309119714113405E+001 -0.958032242221583E+000 -0.545547395280097E+000 -0.199605993274078E+001  0.000000000000000E+000 -0.514587873146591E+001
  0.100000000000000E+001  0.172327660976098E+002  0.249672863089917E+000  0.975906228762586E+000  0.309072083406778E+001 -0.906751492402541E+000 -0.982319934182196E+000 -0.199605993274078E+001  0.000000000000000E+000 -0.861638304880492E+001
  0.100000000000000E+001  0.103697780061424E+002  0.250888675795782E+000  0.979919536253998E+000  0.309957667023264E+001 -0.967413035992193E+000 -0.578811641379537E+000 -0.199605993274078E+001  0.000000000000000E+000 -0.518488900307121E+001
  0.100000000000000E+001  0.114153664496373E+002  0.252791630426307E+000  0.978254594295158E+000  0.308613942925465E+001 -0.928417886041936E+000 -0.731764184465782E+000 -0.199605993274078E+001  0.000000000000000E+000 -0.570768322481865E+001
  0.100000000000000E+001  0.622911508299057E+001  0.247222116420275E+000  0.983420372568593E+000  0.311459966209686E+001 -0.971300477036275E+000 -0.627218214545536E+000 -0.199605993274078E+001  0.000000000000000E+000 -0.311455754149528E+001
  0.100000000000000E+001  0.989983902220992E+001  0.261207064281768E+000  0.971764943970162E+000  0.302558545295684E+001 -0.823966339539154E+000 -0.125926407019744E+001 -0.199605993274078E+001  0.000000000000000E+000 -0.494991951110496E+001
  0.100000000000000E+001  0.999228504287519E+001  0.262673187193731E+000  0.958976156991525E+000  0.303914913298518E+001 -0.838962059067050E+000 -0.921977461743666E+000 -0.199605993274078E+001  0.000000000000000E+000 -0.499614252143760E+001
  0.100000000000000E+001  0.131639234872875E+002  0.262055129376371E+000  0.957321426727710E+000  0.304103672225946E+001 -0.825917916632365E+000 -0.985594813879427E+000 -0.199605993274078E+001  0.000000000000000E+000 -0.658196174364377E+001
  0.100000000000000E+001  0.107303781965651E+002  0.263259008860581E+000  0.960910830773819E+000  0.303984110243726E+001 -0.843282826266299E+000 -0.775045126612512E+000 -0.199605993274078E+001  0.000000000000000E+000 -0.536518909828256E+001
  0.100000000000000E+001  0.108259804773918E+002  0.254645451654634E+000  0.977868742112938E+000  0.306314481258907E+001 -0.905418632152722E+000 -0.965357190871480E+000 -0.199605993274078E+001  0.000000000000000E+000 -0.541299023869588E+001
  0.100000000000000E+001  0.114071861319895E+002  0.254509175297653E+000  0.974477345173483E+000  0.305678915727418E+001 -0.850635094989980E+000 -0.128022503241399E+001 -0.199605993274078E+001  0.000000000000000E+000 -0.570359306599477E+001
  0.100000000000000E+001  0.651109843054763E+001  0.251176403106936E+000  0.982010982435125E+000  0.309351892054571E+001 -0.939013734707243E+000 -0.648607245662618E+000 -0.199605993274078E+001  0.000000000000000E+000 -0.325554921527382E+001
  0.100000000000000E+001  0.124009442895177E+002  0.275638783202146E+000  0.941746789670904E+000  0.296319923665924E+001 -0.685646200709563E+000 -0.158415138813942E+001 -0.199605993274078E+001  0.000000000000000E+000 -0.620047214475886E+001
  0.100000000000000E+001  0.121009767308972E+002  0.256440222879486E+000  0.966673204229211E+000  0.305207747409543E+001 -0.840930537192030E+000 -0.122588418887741E+001 -0.199605993274078E+001  0.000000000000000E+000 -0.605048836544861E+001
  0.100000000000000E+001  0.690741734150821E+001  0.245594106929821E+000  0.990743277947468E+000  0.312194542930119E+001 -0.100421340417619E+001 -0.551907866708790E+000 -0.199605993274078E+001  0.000000000000000E+000 -0.345370867075410E+001
  0.100000000000000E+001  0.945733313447806E+001  0.257108105178603E+000  0.973980430941569E+000  0.305640969923224E+001 -0.894000731513850E+000 -0.852585531821725E+000 -0.199605993274078E+001  0.000000000000000E+000 -0.472866656723903E+001
  0.100000000000000E+001  0.924785790617197E+001  0.269045101283923E+000  0.950276988540849E+000  0.299371483842996E+001 -0.731888627492586E+000 -0.146902721694346E+001 -0.199605993274078E+001  0.000000000000000E+000 -0.462392895308599E+001
  0.100000000000000E+001  0.902185424272662E+001  0.263341654291252E+000  0.964111354008518E+000  0.302983793002350E+001 -0.819918603058903E+000 -0.965221825673771E+000 -0.199605993274078E+001  0.000000000000000E+000 -0.451092712136331E+001
  0.100000000000000E+001  0.879803868058315E+001  0.261268714219068E+000  0.964252081287676E+000  0.304444586378649E+001 -0.871777851775456E+000 -0.795432952112606E+000 -0.199605993274078E+001  0.000000000000000E+000 -0.439901934029158E+001
  0.100000000000000E+001  0.856216737196624E+001  0.261835168274077E+000  0.959060635052169E+000  0.302948914684132E+001 -0.794870687529729E+000 -0.132766560163368E+001 -0.199605993274078E+001  0.000000000000000E+000 -0.428108368598312E+001
  0.100000000000000E+001  0.854784313406915E+001  0.262544730855198E+000  0.953658549573176E+000  0.303093136275157E+001 -0.803660850964578E+000 -0.119770411112513E+001 -0.199605993274078E+001  0.000000000000000E+000 -0.427392156703457E+001
  0.100000000000000E+001  0.840931532115605E+001  0.256006452717612E+000  0.975390544764325E+000  0.305007408653336E+001 -0.852837322781986E+000 -0.122978776782400E+001 -0.199605993274078E+001  0.000000000000000E+000 -0.420465766057802E+001
  0.100000000000000E+001  0.834789780660829E+001  0.254692716283998E+000  0.973963852683057E+000  0.306190954437868E+001 -0.888103173043478E+000 -0.107254829306130E+001 -0.199605993274078E+001  0.000000000000000E+000 -0.417394890330415E+001
  0.100000000000000E+001  0.817107569799828E+001  0.266585823498904E+000  0.953698268764463E+000  0.301211542052480E+001 -0.794168855489006E+000 -0.119203853604705E+001 -0.199605993274078E+001  0.000000000000000E+000 -0.408553784899914E+001
  0.100000000000000E+001  0.815905554307122E+001  0.265430660491204E+000  0.956158187511215E+000  0.300614156015667E+001 -0.754111445396010E+000 -0.154461879322045E+001 -0.199605993274078E+001  0.000000000000000E+000 -0.407952777153561E+001
  0.100000000000000E+001  0.698926918639119E+001  0.247226954280652E+000  0.981199033671802E+000  0.311044560843445E+001 -0.952662382780044E+000 -0.770472840225392E+000 -0.199605993274078E+001  0.000000000000000E+000 -0.349463459319559E+001
  0.100000000000000E+001  0.799517800660090E+001  0.268518334846828E+000  0.956807224964136E+000  0.299608548784622E+001 -0.775442867709403E+000 -0.130403647133763E+001 -0.199605993274078E+001  0.000000000000000E+000 -0.399758900330045E+001
  0.100000000000000E+001  0.798974922240964E+001  0.250661941270502E+000  0.977261847300583E+000  0.308671430206467E+001 -0.911573539686324E+000 -0.935409366790930E+000 -0.199605993274078E+001  0.000000000000000E+000 -0.399487461120482E+001
  0.100000000000000E+001  0.796878803280400E+001  0.270089447850033E+000  0.952544467308959E+000  0.299314856713734E+001 -0.751221589870750E+000 -0.123075279110161E+001 -0.199605993274078E+001  0.000000000000000E+000 -0.398439401640200E+001
  0.100000000000000E+001  0.787640297648959E+001  0.261367263676398E+000  0.970245690436405E+000  0.302610074652548E+001 -0.829230905583349E+000 -0.122931046388794E+001 -0.199605993274078E+001  0.000000000000000E+000 -0.393820148824480E+001
  0.100000000000000E+001  0.769423294375494E+001  0.264925416683557E+000  0.966599600869066E+000  0.301766514706809E+001 -0.825413855817612E+000 -0.982754427763777E+000 -0.199605993274078E+001  0.000000000000000E+000 -0.384711647187747E+001
  0.100000000000000E+001  0.761891360126661E+001  0.260691049113019E+000  0.965424746286800E+000  0.304708786693403E+001 -0.879487111487379E+000 -0.801103809901648E+000 -0.199605993274078E+001  0.000000000000000E+000 -0.380945680063331E+001
  0.100000000000000E+001  0.747845351477272E+001  0.263712228242467E+000  0.953771658031757E+000  0.302444358409082E+001 -0.805440905099567E+000 -0.122285806224377E+001 -0.199605993274078E+001  0.000000000000000E+000 -0.373922675738636E+001
  0.100000000000000E+001  0.728658039878411E+001  0.246879501753494E+000  0.990685322104026E+000  0.311971447717124E+001 -0.997095694359471E+000 -0.454315272526654E+000 -0.199605993274078E+001  0.000000000000000E+000 -0.364329019939205E+001
  0.100000000000000E+001  0.730042237887745E+001  0.255042757647060E+000  0.966057825053911E+000  0.306056060795892E+001 -0.857362409759130E+000 -0.124594605301601E+001 -0.199605993274078E+001  0.000000000000000E+000 -0.365021118943872E+001
  0.100000000000000E+001  0.727597891025743E+001  0.262684556480031E+000  0.955965098918348E+000  0.303189377028219E+001 -0.824924093454708E+000 -0.109102230909373E+001 -0.199605993274078E+001  0.000000000000000E+000 -0.363798945512872E+001
  0.100000000000000E+001  0.727222417501322E+001  0.265222745958505E+000  0.952008151740251E+000  0.301782995493830E+001 -0.786638471738897E+000 -0.125594195400151E+001 -0.199605993274078E+001  0.000000000000000E+000 -0.363611208750661E+001
  0.100000000000000E+001  0.888264722414154E+001  0.248133877067156E+000  0.987592142684742E+000  0.311687279590647E+001 -0.999318735378003E+000 -0.393246885636263E+000 -0.199605993274078E+001  0.000000000000000E+000 -0.444132361207077E+001
  0.100000000000000E+001  0.717029985641680E+001  0.258849413028845E+000  0.967770600409963E+000  0.303425160925881E+001 -0.810331577129518E+000 -0.146415760392830E+001 -0.199605993274078E+001  0.000000000000000E+000 -0.358514992820840E+001
  0.100000000000000E+001  0.605717329750046E+001  0.269132602687908E+000  0.953050070509511E+000  0.299616526818111E+001 -0.765855088350586E+000 -0.123797990616904E+001 -0.199605993274078E+001  0.000000000000000E+000 -0.302858664875023E+001
  0.100000000000000E+001  0.668555506280043E+001  0.267214094810851E+000  0.950983278208078E+000  0.301046902402219E+001 -0.787486333340477E+000 -0.115402966762201E+001 -0.199605993274078E+001  0.000000000000000E+000 -0.334277753140022E+001
  0.100000000000000E+001  0.662693699179260E+001  0.271759188069843E+000  0.951425461275763E+000  0.298037189189040E+001 -0.735095366004260E+000 -0.137829164479795E+001 -0.199605993274078E+001  0.000000000000000E+000 -0.331346849589630E+001
  0.100000000000000E+001  0.655623065084137E+001  0.271889288159387E+000  0.949380727723903E+000  0.298487173938644E+001 -0.738395964630821E+000 -0.127966348704356E+001 -0.199605993274078E+001  0.000000000000000E+000 -0.327811532542069E+001
  0.100000000000000E+001  0.645548675244295E+001  0.254342168574187E+000  0.974084184259546E+000  0.305996368625171E+001 -0.860616366833248E+000 -0.122478220218110E+001 -0.199605993274078E+001  0.000000000000000E+000 -0.322774337622148E+001
  0.100000000000000E+001  0.612180382638134E+001  0.264735221100908E+000  0.953327886270276E+000  0.301202065627865E+001 -0.758985510568572E+000 -0.149286634152331E+001 -0.199605993274078E+001  0.000000000000000E+000 -0.306090191319067E+001
  0.100000000000000E+001  0.641894947486214E+001  0.260675394155642E+000  0.959975263101774E+000  0.303010902702021E+001 -0.800729524105141E+000 -0.138548661061294E+001 -0.199605993274078E+001  0.000000000000000E+000 -0.320947473743107E+001
  0.100000000000000E+001  0.637687738506227E+001  0.267322203202978E+000  0.959460029833357E+000  0.300418941153883E+001 -0.775555766067332E+000 -0.120358601488552E+001 -0.199605993274078E+001  0.000000000000000E+000 -0.318843869253113E+001
  0.100000000000000E+001  0.629360740925326E+001  0.267777124584168E+000  0.957946870180135E+000  0.300002218356143E+001 -0.764552063124013E+000 -0.130080363822448E+001 -0.199605993274078E+001  0.000000000000000E+000 -0.314680370462663E+001
  0.100000000000000E+001  0.620661138127580E+001  0.269000925065578E+000  0.952023560228975E+000  0.299506750655302E+001 -0.752433556093678E+000 -0.138446596872842E+001 -0.199605993274078E+001  0.000000000000000E+000 -0.310330569063790E+001
  0.100000000000000E+001  0.595896585829903E+001  0.262595815589443E+000  0.959192736280960E+000  0.302196530848243E+001 -0.780436633277169E+000 -0.142179413302226E+001 -0.199605993274078E+001  0.000000000000000E+000 -0.297948292914952E+001
  0.100000000000000E+001  0.593432838538959E+001  0.261403551553689E+000  0.960054233659808E+000  0.302943304291313E+001 -0.797465671956601E+000 -0.136865289137927E+001 -0.199605993274078E+001  0.000000000000000E+000 -0.296716419269480E+001
  0.100000000000000E+001  0.586339478022105E+001  0.253953375058654E+000  0.970111366367945E+000  0.306608454908940E+001 -0.857748198042456E+000 -0.120541308293542E+001 -0.199605993274078E+001  0.000000000000000E+000 -0.293169739011053E+001
  0.100000000000000E+001  0.579418572291997E+001  0.269268595209543E+000  0.957908970655556E+000  0.299909481942348E+001 -0.788766787425258E+000 -0.107069512699805E+001 -0.199605993274078E+001  0.000000000000000E+000 -0.289709286145998E+001
  0.100000000000000E+001  0.573600432884193E+001  0.259182725899744E+000  0.968007172187299E+000  0.304799382375260E+001 -0.876867120841964E+000 -0.914351125472906E+000 -0.199605993274078E+001  0.000000000000000E+000 -0.286800216442096E+001
  0.100000000000000E+001  0.571206354868986E+001  0.263602840998734E+000  0.959043343487393E+000  0.302062635149067E+001 -0.807413838828643E+000 -0.127189867544451E+001 -0.199605993274078E+001  0.000000000000000E+000 -0.285603177434493E+001
  0.100000000000000E+001  0.566441955633248E+001  0.259997684932161E+000  0.959410652625753E+000  0.303743185369988E+001 -0.809630974571013E+000 -0.134006965653439E+001 -0.199605993274078E+001  0.000000000000000E+000 -0.283220977816624E+001
  0.100000000000000E+001  0.563957570020984E+001  0.266715883788401E+000  0.957482285912509E+000  0.301480675056826E+001 -0.805803017957536E+000 -0.104084490543003E+001 -0.199605993274078E+001  0.000000000000000E+000 -0.281978785010492E+001
  0.100000000000000E+001  0.561742794943813E+001  0.263105142231746E+000  0.955889871991683E+000  0.301862368135333E+001 -0.769867728032064E+000 -0.148778641807399E+001 -0.199605993274078E+001  0.000000000000000E+000 -0.280871397471907E+001
  0.100000000000000E+001  0.560598140838449E+001  0.261052904529874E+000  0.966306990225185E+000  0.302574047875873E+001 -0.804899341477400E+000 -0.135579610097870E+001 -0.199605993274078E+001  0.000000000000000E+000 -0.280299070419225E+001
  0.100000000000000E+001  0.556030419986914E+001  0.260512331449135E+000  0.963070263228836E+000  0.304789326150586E+001 -0.866270467044420E+000 -0.872037557129909E+000 -0.199605993274078E+001  0.000000000000000E+000 -0.278015209993457E+001
  0.100000000000000E+001  0.547933747577803E+001  0.264969538963139E+000  0.964444353348812E+000  0.302618743868404E+001 -0.841139128511023E+000 -0.845437942057224E+000 -0.199605993274078E+001  0.000000000000000E+000 -0.273966873788901E+001
  0.100000000000000E+001  0.546065490926006E+001  0.256509904728464E+000  0.966251862961140E+000  0.305838458281517E+001 -0.853528791763632E+000 -0.107965590908007E+001 -0.199605993274078E+001  0.000000000000000E+000 -0.273032745463003E+001
  0.100000000000000E+001  0.538783999374311E+001  0.266857309342769E+000  0.958766925634986E+000  0.300527215064429E+001 -0.793953540474572E+000 -0.121753899490046E+001 -0.199605993274078E+001  0.000000000000000E+000 -0.269391999687156E+001
  0.100000000000000E+001  0.536051666681021E+001  0.252108836118450E+000  0.974446035434764E+000  0.308164989858776E+001 -0.919145775819394E+000 -0.909422458349815E+000 -0.199605993274078E+001  0.000000000000000E+000 -0.268025833340511E+001
  0.100000000000000E+001  0.535659039406911E+001  0.256641011732297E+000  0.969943840422350E+000  0.305058878936638E+001 -0.853632755936076E+000 -0.125679164832391E+001 -0.199605993274078E+001  0.000000000000000E+000 -0.267829519703455E+001
  0.100000000000000E+001  0.522751775754176E+001  0.261339848190419E+000  0.959927941967022E+000  0.303758520814356E+001 -0.831969675776714E+000 -0.104900252855109E+001 -0.199605993274078E+001  0.000000000000000E+000 -0.261375887877088E+001
  0.100000000000000E+001  0.500127926557225E+001  0.261377149683918E+000  0.970460060936475E+000  0.303155098968859E+001 -0.835266140517471E+000 -0.105515799965823E+001 -0.199605993274078E+001  0.000000000000000E+000 -0.250063963278613E+001
  0.100000000000000E+001  0.494682563464388E+001  0.265935728473852E+000  0.955664627087820E+000  0.301256732564623E+001 -0.778836790841968E+000 -0.124744716678166E+001 -0.199605993274078E+001  0.000000000000000E+000 -0.247341281732194E+001
  0.100000000000000E+001  0.487528927739125E+001  0.261268059478149E+000  0.960433142000962E+000  0.303042456407388E+001 -0.797046249972121E+000 -0.132754738062544E+001 -0.199605993274078E+001  0.000000000000000E+000 -0.243764463869562E+001
  0.100000000000000E+001  0.474203890715071E+001  0.267182504690205E+000  0.956220420906675E+000  0.300025484822297E+001 -0.763658644783991E+000 -0.136349723067886E+001 -0.199605993274078E+001  0.000000000000000E+000 -0.237101945357536E+001
  0.100000000000000E+001  0.468125692792569E+001  0.254980527847663E+000  0.968168567852981E+000  0.306184236215113E+001 -0.861045095127559E+000 -0.117051044887522E+001 -0.199605993274078E+001  0.000000000000000E+000 -0.234062846396285E+001
  0.100000000000000E+001  0.461112284894130E+001  0.260140235930038E+000  0.961195037493180E+000  0.303836878024786E+001 -0.818593952690094E+000 -0.125790891978367E+001 -0.199605993274078E+001  0.000000000000000E+000 -0.230556142447065E+001
  0.100000000000000E+001  0.457209427942741E+001  0.251513111782740E+000  0.975639767959203E+000  0.307710400759518E+001 -0.891357232121928E+000 -0.115107981025221E+001 -0.199605993274078E+001  0.000000000000000E+000 -0.228604713971371E+001
  0.100000000000000E+001  0.450468815051694E+001  0.258898958417491E+000  0.968946699380830E+000  0.305210961854160E+001 -0.860088444847328E+000 -0.892630771542437E+000 -0.199605993274078E+001  0.000000000000000E+000 -0.225234407525847E+001
  0.100000000000000E+001  0.446734122791302E+001  0.266577256919663E+000  0.955446875796643E+000  0.300952828779624E+001 -0.793880485277660E+000 -0.118062678170832E+001 -0.199605993274078E+001  0.000000000000000E+000 -0.223367061395651E+001
  0.100000000000000E+001  0.439663776585216E+001  0.260704000172002E+000  0.964740253315068E+000  0.304706257186829E+001 -0.870607439329092E+000 -0.831991475913347E+000 -0.199605993274078E+001  0.000000000000000E+000 -0.219831888292608E+001
  0.100000000000000E+001  0.438412526063154E+001  0.259975972721045E+000  0.967132327117381E+000  0.304404133300682E+001 -0.868402827984914E+000 -0.957559363783438E+000 -0.199605993274078E+001  0.000000000000000E+000 -0.219206263031577E+001
  0.100000000000000E+001  0.437363606300088E+001  0.265433949520537E+000  0.962795152174297E+000  0.301347934873545E+001 -0.805780553702382E+000 -0.110328095553240E+001 -0.199605993274078E+001  0.000000000000000E+000 -0.218681803150044E+001
  0.100000000000000E+001  0.432105108289551E+001  0.268984078977181E+000  0.953039874329777E+000  0.299938958470928E+001 -0.767262788942141E+000 -0.119759568328012E+001 -0.199605993274078E+001  0.000000000000000E+000 -0.216052554144776E+001
  0.100000000000000E+001  0.425201474698535E+001  0.259859266854367E+000  0.968146797144900E+000  0.304866017885106E+001 -0.880246268576703E+000 -0.840244680593016E+000 -0.199605993274078E+001  0.000000000000000E+000 -0.212600737349268E+001
  0.100000000000000E+001  0.416942133550345E+001  0.259858562156169E+000  0.971603375016761E+000  0.304684276098730E+001 -0.882506514122499E+000 -0.813803739963023E+000 -0.199605993274078E+001  0.000000000000000E+000 -0.208471066775173E+001
  0.100000000000000E+001  0.410650697589805E+001  0.258240297554837E+000  0.974714842915773E+000  0.304998904201834E+001 -0.869199246103908E+000 -0.950224169170324E+000 -0.199605993274078E+001  0.000000000000000E+000 -0.205325348794902E+001
  0.100000000000000E+001  0.405195395248529E+001  0.259719940153425E+000  0.971937642343757E+000  0.303893614067774E+001 -0.847700472060299E+000 -0.108945636706428E+001 -0.199605993274078E+001  0.000000000000000E+000 -0.202597697624264E+001
  0.100000000000000E+001  0.395783649055475E+001  0.260514371668104E+000  0.965661975335913E+000  0.303570832296856E+001 -0.823109675712900E+000 -0.114722340825695E+001 -0.199605993274078E+001  0.000000000000000E+000 -0.197891824527738E+001
  0.100000000000000E+001  0.394453418594173E+001  0.260726194781520E+000  0.960491969012409E+000  0.304238295512249E+001 -0.835758658571675E+000 -0.104247665544964E+001 -0.199605993274078E+001  0.000000000000000E+000 -0.197226709297087E+001
  0.100000000000000E+001  0.590992784797615E+001  0.247793269837907E+000  0.981485931319117E+000  0.310730119794907E+001 -0.956272909312685E+000 -0.740347021378436E+000 -0.199605993274078E+001  0.000000000000000E+000 -0.295496392398808E+001
  0.100000000000000E+001  0.547253804300897E+001  0.251960028089120E+000  0.977661964702626E+000  0.309276109772321E+001 -0.945180330714058E+000 -0.611248402044286E+000 -0.199605993274078E+001  0.000000000000000E+000 -0.273626902150449E+001
  0.100000000000000E+001  0.527958713219994E+001  0.251026354330529E+000  0.977037787524379E+000  0.309645320529712E+001 -0.946246360243992E+000 -0.657055095283422E+000 -0.199605993274078E+001  0.000000000000000E+000 -0.263979356609997E+001
  0.100000000000000E+001  0.527397275208701E+001  0.251745068993408E+000  0.980178350995827E+000  0.309438012538824E+001 -0.947342646879689E+000 -0.604609658926259E+000 -0.199605993274078E+001  0.000000000000000E+000 -0.263698637604350E+001
  0.100000000000000E+001  0.504658151810194E+001  0.256670010214066E+000  0.973498031229843E+000  0.307012135531148E+001 -0.918675804654209E+000 -0.640882305470595E+000 -0.199605993274078E+001  0.000000000000000E+000 -0.252329075905097E+001
  0.100000000000000E+001  0.488105601437284E+001  0.256487100833348E+000  0.972248982025411E+000  0.306764770139849E+001 -0.898263315080015E+000 -0.729754500399671E+000 -0.199605993274078E+001  0.000000000000000E+000 -0.244052800718642E+001
  0.100000000000000E+001  0.475581271165865E+001  0.255610423036173E+000  0.976978049088746E+000  0.307350671194824E+001 -0.928843980728328E+000 -0.626010714920320E+000 -0.199605993274078E+001  0.000000000000000E+000 -0.237790635582932E+001
  0.100000000000000E+001  0.465940840371258E+001  0.252299012721880E+000  0.981647002593274E+000  0.308547347491150E+001 -0.943176692870903E+000 -0.665535456543032E+000 -0.199605993274078E+001  0.000000000000000E+000 -0.232970420185629E+001
  0.100000000000000E+001  0.444301938995818E+001  0.256277272669022E+000  0.975509993541900E+000  0.306797529396905E+001 -0.916731564053313E+000 -0.717318612332345E+000 -0.199605993274078E+001  0.000000000000000E+000 -0.222150969497909E+001
  0.100000000000000E+001  0.417080122734115E+001  0.253272643458754E+000  0.976704563845703E+000  0.308249004248553E+001 -0.916311743624798E+000 -0.734888196149135E+000 -0.199605993274078E+001  0.000000000000000E+000 -0.208540061367058E+001
  0.100000000000000E+001  0.409828198003180E+001  0.248394924836892E+000  0.987769409290477E+000  0.310088156914746E+001 -0.961048954487330E+000 -0.743595487513868E+000 -0.199605993274078E+001  0.000000000000000E+000 -0.204914099001590E+001
  0.100000000000000E+001  0.379924802790750E+001  0.250570614800021E+000  0.984248721678531E+000  0.308822761147574E+001 -0.932017122955179E+000 -0.839431652211330E+000 -0.199605993274078E+001  0.000000000000000E+000 -0.189962401395375E+001
  0.100000000000000E+001  0.358256317895460E+001  0.251574539239561E+000  0.981598363225417E+000  0.308689740734256E+001 -0.929838383373531E+000 -0.788367456875991E+000 -0.199605993274078E+001  0.000000000000000E+000 -0.179128158947730E+001
  0.100000000000000E+001  0.330885653570549E+001  0.249640299105548E+000  0.984746956422606E+000  0.309932403602684E+001 -0.955587077761360E+000 -0.662681614570211E+000 -0.199605993274078E+001  0.000000000000000E+000 -0.165442826785274E+001
  0.100000000000000E+001  0.301817378998308E+001  0.253620608192241E+000  0.977018086987545E+000  0.307521554505203E+001 -0.920270796108715E+000 -0.823271060370772E+000 -0.199605993274078E+001  0.000000000000000E+000 -0.150908689499154E+001
  0.100000000000000E+001  0.301696821813994E+001  0.252497350276544E+000  0.981941938969074E+000  0.308274894726175E+001 -0.932632777377283E+000 -0.751682924768912E+000 -0.199605993274078E+001  0.000000000000000E+000 -0.150848410906997E+001
  0.100000000000000E+001  0.386850020446582E+001  0.260945505203032E+000  0.964665569019698E+000  0.303099412069829E+001 -0.828453090767932E+000 -0.122517503576026E+001 -0.199605993274078E+001  0.000000000000000E+000 -0.193425010223291E+001
  0.100000000000000E+001  0.384304792883384E+001  0.261062956780017E+000  0.964765215240607E+000  0.303672174702497E+001 -0.826630234700444E+000 -0.109777942613964E+001 -0.199605993274078E+001  0.000000000000000E+000 -0.192152396441692E+001
  0.100000000000000E+001  0.377857711867266E+001  0.264866757472262E+000  0.960838048606581E+000  0.301615079302016E+001 -0.798397974892740E+000 -0.115085644354450E+001 -0.199605993274078E+001  0.000000000000000E+000 -0.188928855933633E+001
  0.100000000000000E+001  0.375502464677666E+001  0.258904272417459E+000  0.965925567644792E+000  0.303879974508452E+001 -0.820021530084532E+000 -0.130497081989174E+001 -0.199605993274078E+001  0.000000000000000E+000 -0.187751232338833E+001
  0.100000000000000E+001  0.374320750980975E+001  0.267863766122029E+000  0.952650842181833E+000  0.300429618098005E+001 -0.776899052622550E+000 -0.121836351258191E+001 -0.199605993274078E+001  0.000000000000000E+000 -0.187160375490488E+001
  0.100000000000000E+001  0.361956101074464E+001  0.256961643331320E+000  0.968750031230098E+000  0.305458292377365E+001 -0.860112138834910E+000 -0.112342575920455E+001 -0.199605993274078E+001  0.000000000000000E+000 -0.180978050537232E+001
  0.100000000000000E+001  0.355484871033800E+001  0.259443829320063E+000  0.961918727221483E+000  0.304089952127732E+001 -0.819196427043675E+000 -0.124671429402815E+001 -0.199605993274078E+001  0.000000000000000E+000 -0.177742435516900E+001
  0.100000000000000E+001  0.349746019662156E+001  0.261664603699518E+000  0.963828261306759E+000  0.302863533891170E+001 -0.808189932137491E+000 -0.126117253371848E+001 -0.199605993274078E+001  0.000000000000000E+000 -0.174873009831078E+001
  0.100000000000000E+001  0.347163507754943E+001  0.263705882985371E+000  0.962018778525153E+000  0.302445571255233E+001 -0.810249539269779E+000 -0.110862686492377E+001 -0.199605993274078E+001  0.000000000000000E+000 -0.173581753877471E+001
  0.100000000000000E+001  0.342564202415169E+001  0.257814754070121E+000  0.965796438687341E+000  0.305002767349067E+001 -0.857189770998530E+000 -0.113143270356433E+001 -0.199605993274078E+001  0.000000000000000E+000 -0.171282101207585E+001
  0.100000000000000E+001  0.340800672874415E+001  0.257052902889383E+000  0.970868727873697E+000  0.304946884486192E+001 -0.854485691026608E+000 -0.120532207193462E+001 -0.199605993274078E+001  0.000000000000000E+000 -0.170400336437208E+001
  0.100000000000000E+001  0.340039319557415E+001  0.267632064011884E+000  0.957296390036429E+000  0.300241171842023E+001 -0.774212751971375E+000 -0.123794054551713E+001 -0.199605993274078E+001  0.000000000000000E+000 -0.170019659778707E+001
  0.100000000000000E+001  0.338220867913306E+001  0.267720874622687E+000  0.957159862261744E+000  0.300087065531917E+001 -0.774980524002424E+000 -0.126988756439367E+001 -0.199605993274078E+001  0.000000000000000E+000 -0.169110433956653E+001
  0.100000000000000E+001  0.289923063338705E+001  0.265011245762736E+000  0.957094568897861E+000  0.301922850736842E+001 -0.797692562876494E+000 -0.113626576792595E+001 -0.199605993274078E+001  0.000000000000000E+000 -0.144961531669353E+001
  0.100000000000000E+001  0.285631264108297E+001  0.259372446064825E+000  0.965504012392462E+000  0.303893497880172E+001 -0.830321749909406E+000 -0.121267425570187E+001 -0.199605993274078E+001  0.000000000000000E+000 -0.142815632054149E+001
  0.100000000000000E+001  0.263572758797888E+001  0.264393070129649E+000  0.963501741957767E+000  0.301992381677166E+001 -0.813600760860229E+000 -0.109958248984868E+001 -0.199605993274078E+001  0.000000000000000E+000 -0.131786379398944E+001
  0.100000000000000E+001  0.263314230929894E+001  0.264335593527414E+000  0.959888667401848E+000  0.301603055946832E+001 -0.791499616738760E+000 -0.125691503636967E+001 -0.199605993274078E+001  0.000000000000000E+000 -0.131657115464947E+001
  0.100000000000000E+001  0.383070792044422E+001  0.258777738125340E+000  0.969172479029465E+000  0.305116515595519E+001 -0.874551281189084E+000 -0.871884536458544E+000 -0.199605993274078E+001  0.000000000000000E+000 -0.191535396022211E+001
  0.100000000000000E+001  0.370694268871223E+001  0.252585981483696E+000  0.977389338594528E+000  0.307662980955761E+001 -0.895264515269607E+000 -0.980386710148747E+000 -0.199605993274078E+001  0.000000000000000E+000 -0.185347134435611E+001
  0.100000000000000E+001  0.353489210073046E+001  0.250806115775883E+000  0.976572868960907E+000  0.308391708949582E+001 -0.903676935292738E+000 -0.104651362642150E+001 -0.199605993274078E+001  0.000000000000000E+000 -0.176744605036523E+001
  0.100000000000000E+001  0.341703992727201E+001  0.260657840421554E+000  0.971065880320609E+000  0.303646051002104E+001 -0.846974208443050E+000 -0.103293337193902E+001 -0.199605993274078E+001  0.000000000000000E+000 -0.170851996363601E+001
  0.100000000000000E+001  0.328185121676950E+001  0.261463266659851E+000  0.965743013217949E+000  0.304276814029068E+001 -0.856077410510150E+000 -0.856022094131756E+000 -0.199605993274078E+001  0.000000000000000E+000 -0.164092560838475E+001
  0.100000000000000E+001  0.327380003791221E+001  0.258625672565902E+000  0.964344914881239E+000  0.304962232300031E+001 -0.853797828466111E+000 -0.102887489664893E+001 -0.199605993274078E+001  0.000000000000000E+000 -0.163690001895610E+001
  0.100000000000000E+001  0.324187167035928E+001  0.251084077917059E+000  0.976279011752351E+000  0.308246591243962E+001 -0.904785239351880E+000 -0.104500533582642E+001 -0.199605993274078E+001  0.000000000000000E+000 -0.162093583517964E+001
  0.100000000000000E+001  0.323448646158985E+001  0.257605828858669E+000  0.975946692286215E+000  0.305228139431486E+001 -0.883391724182239E+000 -0.909950594447344E+000 -0.199605993274078E+001  0.000000000000000E+000 -0.161724323079493E+001
  0.100000000000000E+001  0.316255160389505E+001  0.258449248678294E+000  0.969002886631070E+000  0.305417160205197E+001 -0.872081357081079E+000 -0.860102882091188E+000 -0.199605993274078E+001  0.000000000000000E+000 -0.158127580194752E+001
  0.100000000000000E+001  0.310628531078981E+001  0.261836820268880E+000  0.967182592265719E+000  0.303506507356143E+001 -0.851289198816923E+000 -0.969203627566668E+000 -0.199605993274078E+001  0.000000000000000E+000 -0.155314265539491E+001
  0.100000000000000E+001  0.296080791298540E+001  0.252554382274399E+000  0.980424529526261E+000  0.307563857400700E+001 -0.909992946074897E+000 -0.956675716665076E+000 -0.199605993274078E+001  0.000000000000000E+000 -0.148040395649270E+001
  0.100000000000000E+001  0.291684368371776E+001  0.259100561551673E+000  0.968861411858759E+000  0.305466787461838E+001 -0.882850323449931E+000 -0.773055614542518E+000 -0.199605993274078E+001  0.000000000000000E+000 -0.145842184185888E+001
  0.100000000000000E+001  0.266890715906369E+001  0.260558248436578E+000  0.967189149685941E+000  0.304430812267912E+001 -0.857480803826388E+000 -0.913492940232880E+000 -0.199605993274078E+001  0.000000000000000E+000 -0.133445357953185E+001
  0.100000000000000E+001  0.247687806463345E+001  0.256645505857644E+000  0.975919321952967E+000  0.306346904586515E+001 -0.907271952468827E+000 -0.753373974633263E+000 -0.199605993274078E+001  0.000000000000000E+000 -0.123843903231673E+001
  0.100000000000000E+001  0.243694927576136E+001  0.251682810790779E+000  0.981192498954868E+000  0.308764711255572E+001 -0.932199865478196E+000 -0.746218274034724E+000 -0.199605993274078E+001  0.000000000000000E+000 -0.121847463788068E+001
  0.100000000000000E+001  0.236994988318375E+001  0.257838456306834E+000  0.972772566297244E+000  0.305918483764861E+001 -0.898181694396441E+000 -0.763057755427752E+000 -0.199605993274078E+001  0.000000000000000E+000 -0.118497494159187E+001
  0.100000000000000E+001  0.232938235254084E+001  0.257131819860040E+000  0.974379622869442E+000  0.306331990422883E+001 -0.897233990792231E+000 -0.741557913942612E+000 -0.199605993274078E+001  0.000000000000000E+000 -0.116469117627042E+001
  0.100000000000000E+001  0.221477725886494E+001  0.253079351626256E+000  0.979803591618810E+000  0.307987662094794E+001 -0.920779000895607E+000 -0.762888378969264E+000 -0.199605993274078E+001  0.000000000000000E+000 -0.110738862943247E+001
  0.100000000000000E+001  0.168671343522636E+001  0.255218414561068E+000  0.977407442971431E+000  0.306621200013096E+001 -0.897108317323170E+000 -0.876586280141970E+000 -0.199605993274078E+001  0.000000000000000E+000 -0.843356717613181E+000
  0.100000000000000E+001  0.251593954435771E+001  0.255801582070633E+000  0.973180730527610E+000  0.305597875040220E+001 -0.867524796345200E+000 -0.115037764064867E+001 -0.199605993274078E+001  0.000000000000000E+000 -0.125796977217886E+001
  0.100000000000000E+001  0.230049617693106E+001  0.263369129299669E+000  0.962953213552941E+000  0.302555378734088E+001 -0.814888566068248E+000 -0.109857414522054E+001 -0.199605993274078E+001  0.000000000000000E+000 -0.115024808846553E+001
  0.100000000000000E+001  0.215517243669657E+001  0.264165000856266E+000  0.958781635662013E+000  0.301701386492373E+001 -0.796032565319174E+000 -0.128115925077458E+001 -0.199605993274078E+001  0.000000000000000E+000 -0.107758621834829E+001
  0.100000000000000E+001  0.203287404161631E+001  0.258967835284101E+000  0.966996309044052E+000  0.304397752392125E+001 -0.847765616543183E+000 -0.114047868771595E+001 -0.199605993274078E+001  0.000000000000000E+000 -0.101643702080815E+001
  0.100000000000000E+001  0.190037974843449E+001  0.259718996488236E+000  0.964882165368410E+000  0.303933265795405E+001 -0.827351156443776E+000 -0.118060027146820E+001 -0.199605993274078E+001  0.000000000000000E+000 -0.950189874217246E+000
  0.100000000000000E+001  0.183741151336545E+001  0.263258785284028E+000  0.962665062555990E+000  0.302045174227514E+001 -0.804764512446183E+000 -0.124442303988414E+001 -0.199605993274078E+001  0.000000000000000E+000 -0.918705756682727E+000
  0.100000000000000E+001  0.172693103248775E+001  0.260865395672880E+000  0.964770033986661E+000  0.303121700699954E+001 -0.818491698386585E+000 -0.126212069102035E+001 -0.199605993274078E+001  0.000000000000000E+000 -0.863465516243877E+000
  0.100000000000000E+001  0.163444899196060E+001  0.257725547593868E+000  0.965563980583522E+000  0.305269223452599E+001 -0.857015694283089E+000 -0.107781942353454E+001 -0.199605993274078E+001  0.000000000000000E+000 -0.817224495980301E+000
  0.100000000000000E+001  0.254977128872847E+001  0.252760982020518E+000  0.979565963263410E+000  0.307655710709917E+001 -0.917355524660498E+000 -0.905622551666047E+000 -0.199605993274078E+001  0.000000000000000E+000 -0.127488564436423E+001
  0.100000000000000E+001  0.243174626550957E+001  0.257736513515573E+000  0.968544988443639E+000  0.305522873242336E+001 -0.861545007165679E+000 -0.965021086002861E+000 -0.199605993274078E+001  0.000000000000000E+000 -0.121587313275478E+001
  0.100000000000000E+001  0.242962231592504E+001  0.261369087957753E+000  0.967861798336437E+000  0.303683615787527E+001 -0.857139034902722E+000 -0.950769619659793E+000 -0.199605993274078E+001  0.000000000000000E+000 -0.121481115796252E+001
  0.100000000000000E+001  0.231404607907050E+001  0.258969942371782E+000  0.972824358694552E+000  0.305024118933205E+001 -0.873762419368890E+000 -0.850403842763582E+000 -0.199605993274078E+001  0.000000000000000E+000 -0.115702303953525E+001
  0.100000000000000E+001  0.229958982831792E+001  0.258140889293140E+000  0.969584995742701E+000  0.305237991689931E+001 -0.859904517312591E+000 -0.989327201508776E+000 -0.199605993274078E+001  0.000000000000000E+000 -0.114979491415896E+001
  0.100000000000000E+001  0.215514257590926E+001  0.252322771641058E+000  0.976664771535158E+000  0.307706790242612E+001 -0.906666869470039E+000 -0.991261093875428E+000 -0.199605993274078E+001  0.000000000000000E+000 -0.107757128795463E+001
  0.100000000000000E+001  0.214256946885508E+001  0.256872386339588E+000  0.972016203493902E+000  0.305382818078793E+001 -0.875189727765092E+000 -0.104583761682964E+001 -0.199605993274078E+001  0.000000000000000E+000 -0.107128473442754E+001
  0.100000000000000E+001  0.207703377205234E+001  0.255227665622923E+000  0.970382791689461E+000  0.307019193924347E+001 -0.892630330786458E+000 -0.880129986264529E+000 -0.199605993274078E+001  0.000000000000000E+000 -0.103851688602617E+001
  0.100000000000000E+001  0.199334425230907E+001  0.260079352045803E+000  0.969317345931012E+000  0.303936306934144E+001 -0.850765136162807E+000 -0.102274845441678E+001 -0.199605993274078E+001  0.000000000000000E+000 -0.996672126154537E+000
  0.100000000000000E+001  0.190392515471361E+001  0.257463630833094E+000  0.972600058913800E+000  0.305039182061534E+001 -0.866057005656023E+000 -0.107261420171411E+001 -0.199605993274078E+001  0.000000000000000E+000 -0.951962577356805E+000
  0.100000000000000E+001  0.172951241304465E+001  0.256319979391071E+000  0.970360652574618E+000  0.306373020050300E+001 -0.888479131577697E+000 -0.906616022892938E+000 -0.199605993274078E+001  0.000000000000000E+000 -0.864756206522324E+000
  0.100000000000000E+001  0.169643776695050E+001  0.260647210026547E+000  0.964708093449208E+000  0.304254933733313E+001 -0.854270049337702E+000 -0.966993567471785E+000 -0.199605993274078E+001  0.000000000000000E+000 -0.848218883475249E+000
  0.100000000000000E+001  0.156555948797102E+001  0.251920027313700E+000  0.980074003379797E+000  0.308440479181266E+001 -0.930433640924562E+000 -0.787510289171060E+000 -0.199605993274078E+001  0.000000000000000E+000 -0.782779743985510E+000
  0.100000000000000E+001  0.156222980837851E+001  0.254645490822604E+000  0.978005712683164E+000  0.307326474534404E+001 -0.918809697715914E+000 -0.745100496183192E+000 -0.199605993274078E+001  0.000000000000000E+000 -0.781114904189254E+000
  0.100000000000000E+001  0.154447091869539E+001  0.253357509170678E+000  0.977627780025664E+000  0.307899290980673E+001 -0.921010893881052E+000 -0.794457998117238E+000 -0.199605993274078E+001  0.000000000000000E+000 -0.772235459347697E+000
  0.100000000000000E+001  0.107854165510533E+001  0.254498260281848E+000  0.975794018084639E+000  0.307416067963329E+001 -0.909854155813578E+000 -0.789063445427656E+000 -0.199605993274078E+001  0.000000000000000E+000 -0.539270827552667E+000
  0.100000000000000E+001  0.159144726221396E+001  0.259027074231809E+000  0.969030208203093E+000  0.305250459581266E+001 -0.873899794178829E+000 -0.838615659598055E+000 -0.199605993274078E+001  0.000000000000000E+000 -0.795723631106980E+000
  0.100000000000000E+001  0.151296636788685E+001  0.259933879504468E+000  0.964460603793683E+000  0.304368313666743E+001 -0.845040906329321E+000 -0.102107150126866E+001 -0.199605993274078E+001  0.000000000000000E+000 -0.756483183943426E+000
  0.100000000000000E+001  0.139718910758931E+001  0.257471826874617E+000  0.970987487483430E+000  0.305608260647002E+001 -0.871229792815491E+000 -0.925726083957022E+000 -0.199605993274078E+001  0.000000000000000E+000 -0.698594553794654E+000
  0.100000000000000E+001  0.125723784480365E+001  0.259233867009649E+000  0.971093562421022E+000  0.304763207173501E+001 -0.866993913025417E+000 -0.904125764912205E+000 -0.199605993274078E+001  0.000000000000000E+000 -0.628618922401828E+000
  0.100000000000000E+001  0.114430934384631E+001  0.257437843604592E+000  0.968464272288114E+000  0.305271381351094E+001 -0.857616459370899E+000 -0.106083241055760E+001 -0.199605993274078E+001  0.000000000000000E+000 -0.572154671923157E+000
  0.100000000000000E+001  0.130719047703528E+001  0.258820212897422E+000  0.967747199330920E+000  0.304492675825978E+001 -0.849415248682442E+000 -0.112033854149427E+001 -0.199605993274078E+001  0.000000000000000E+000 -0.653595238517642E+000
  0.100000000000000E+001  0.128748554954970E+001  0.257090614310045E+000  0.968959007431928E+000  0.305294759885696E+001 -0.860189340720845E+000 -0.112045758191609E+001 -0.199605993274078E+001  0.000000000000000E+000 -0.643742774774852E+000
  0.100000000000000E+001  0.105950621513501E+001  0.258872078811824E+000  0.968948214022441E+000  0.304315897420330E+001 -0.844784000156126E+000 -0.113808206168419E+001 -0.199605993274078E+001  0.000000000000000E+000 -0.529753107567508E+000
  0.100000000000000E+001  0.105562765010742E+001  0.260217405798921E+000  0.969884707276555E+000  0.304289884968957E+001 -0.861390080226071E+000 -0.924021229979173E+000 -0.199605993274078E+001  0.000000000000000E+000 -0.527813825053709E+000
  0.100000000000000E+001  0.944654627597673E+000  0.258963314630683E+000  0.971468340861586E+000  0.304907123070394E+001 -0.869720203367869E+000 -0.910435107221378E+000 -0.199605993274078E+001  0.000000000000000E+000 -0.472327313798837E+000
  0.100000000000000E+001  0.848861268142491E+000  0.258931789694589E+000  0.967595160681812E+000  0.304991955477803E+001 -0.859206191151839E+000 -0.957820585780841E+000 -0.199605993274078E+001  0.000000000000000E+000 -0.424430634071246E+000
  0.100000000000000E+001  0.772616674070712E+000  0.257209217747053E+000  0.972564778992839E+000  0.305795663106337E+001 -0.887264486979047E+000 -0.889529219478978E+000 -0.199605993274078E+001  0.000000000000000E+000 -0.386308337035356E+000
  0.100000000000000E+001  0.770292804073558E+000  0.258813086370117E+000  0.968069370857173E+000  0.304854918566390E+001 -0.862709900322334E+000 -0.100347136959071E+001 -0.199605993274078E+001  0.000000000000000E+000 -0.385146402036779E+000
  0.100000000000000E+001  0.763643151973044E+000  0.257240966728130E+000  0.970474028987313E+000  0.305636427189156E+001 -0.868702897620070E+000 -0.969379314018734E+000 -0.199605993274078E+001  0.000000000000000E+000 -0.381821575986522E+000
  0.100000000000000E+001  0.695596167108399E+000  0.258938406977208E+000  0.966778043914283E+000  0.304641908688056E+001 -0.854122268513714E+000 -0.106537798209210E+001 -0.199605993274078E+001  0.000000000000000E+000 -0.347798083554199E+000
  0.100000000000000E+001  0.627470936139491E+000  0.260135026767082E+000  0.968688366014731E+000  0.304171784220356E+001 -0.852674309645658E+000 -0.982335292677483E+000 -0.199605993274078E+001  0.000000000000000E+000 -0.313735468069746E+000
  0.100000000000000E+001  0.819302619090165E+000  0.260507845347329E+000  0.963912860296976E+000  0.303884659287984E+001 -0.838500278537984E+000 -0.110202120560190E+001 -0.199605993274078E+001  0.000000000000000E+000 -0.409651309545083E+000
