  0.100000000000000E+001  0.546266192970697E+001  0.256932477865209E+000  0.972770159832996E+000  0.306305179918792E+001 -0.883030886665810E+000 -0.332707173389726E+000 -0.343114445803011E+001  0.000000000000000E+000 -0.273133096485348E+001
  0.100000000000000E+001  0.105961470098298E+002  0.247299152972609E+000  0.981504173098354E+000  0.312869320801847E+001 -0.957538767534720E+000 -0.435143672919143E-001 -0.343114445803011E+001  0.000000000000000E+000 -0.529807350491490E+001
  0.100000000000000E+001  0.748288115710457E+001  0.260904381829831E+000  0.959291520448267E+000  0.303873640509475E+001 -0.845509340247668E+000 -0.521029242149520E+000 -0.343114445803011E+001  0.000000000000000E+000 -0.374144057855228E+001
  0.100000000000000E+001  0.568125798139181E+001  0.253682048089827E+000  0.971020400134524E+000  0.309670957480319E+001 -0.934931955699842E+000 -0.991220154226253E-001 -0.343114445803011E+001  0.000000000000000E+000 -0.284062899069591E+001
  0.100000000000000E+001  0.613612462597975E+001  0.246980002929975E+000  0.984692978687038E+000  0.312826156057218E+001 -0.969153542373396E+000 -0.283744459855306E-001 -0.343114445803011E+001  0.000000000000000E+000 -0.306806231298988E+001
  0.100000000000000E+001  0.659335026572268E+001  0.264927356545022E+000  0.957023809659429E+000  0.303723887553734E+001 -0.823976687043880E+000 -0.364300420687121E+000 -0.343114445803011E+001  0.000000000000000E+000 -0.329667513286134E+001
  0.100000000000000E+001  0.115696812488933E+002  0.263389168575045E+000  0.954151366214700E+000  0.302915905362868E+001 -0.829176773412867E+000 -0.520424943019857E+000 -0.343114445803011E+001  0.000000000000000E+000 -0.578484062444664E+001
  0.100000000000000E+001  0.135618264680427E+002  0.255103731476654E+000  0.958134715374794E+000  0.307990461137048E+001 -0.882500691796230E+000 -0.358238545112382E+000 -0.343114445803011E+001  0.000000000000000E+000 -0.678091323402133E+001
  0.100000000000000E+001  0.711144051531678E+001  0.259042116191718E+000  0.960903682338606E+000  0.305823834342626E+001 -0.854050058246122E+000 -0.368894072169453E+000 -0.343114445803011E+001  0.000000000000000E+000 -0.355572025765839E+001
  0.100000000000000E+001  0.602192030397892E+001  0.248892284202668E+000  0.984668651003663E+000  0.312694227588726E+001 -0.977878187575226E+000  0.549545108687308E-001 -0.343114445803011E+001  0.000000000000000E+000 -0.301096015198946E+001
  0.100000000000000E+001  0.636469109526047E+001  0.250939355014692E+000  0.981679757890035E+000  0.312239984316302E+001 -0.962734457155308E+000  0.871742568297904E-001 -0.343114445803011E+001  0.000000000000000E+000 -0.318234554763024E+001
  0.100000000000000E+001  0.999296726201251E+001  0.260276229185612E+000  0.957616873628275E+000  0.305577370496025E+001 -0.835298789333204E+000 -0.403730703152546E+000 -0.343114445803011E+001  0.000000000000000E+000 -0.499648363100626E+001
  0.100000000000000E+001  0.110975477294909E+002  0.261437095305398E+000  0.966856164948281E+000  0.305454638677488E+001 -0.841832473596272E+000 -0.281398543809537E+000 -0.343114445803011E+001  0.000000000000000E+000 -0.554877386474544E+001
  0.100000000000000E+001  0.871773447883609E+001  0.256041825276587E+000  0.959450893601700E+000  0.307382490994209E+001 -0.876895328657144E+000 -0.362579428299972E+000 -0.343114445803011E+001  0.000000000000000E+000 -0.435886723941804E+001
  0.100000000000000E+001  0.101060398191606E+002  0.266665878490977E+000  0.963904532812823E+000  0.302934902656043E+001 -0.824606001987808E+000 -0.291625142487642E+000 -0.343114445803011E+001  0.000000000000000E+000 -0.505301990958028E+001
  0.100000000000000E+001  0.102853476012308E+002  0.258150288463718E+000  0.977658892269115E+000  0.307555831370325E+001 -0.908291437764638E+000 -0.818886476268927E-001 -0.343114445803011E+001  0.000000000000000E+000 -0.514267380061538E+001
  0.100000000000000E+001  0.102727419968033E+002  0.268869994713908E+000  0.951069510621867E+000  0.301399473419679E+001 -0.776102941589060E+000 -0.505438930042871E+000 -0.343114445803011E+001  0.000000000000000E+000 -0.513637099840163E+001
  0.100000000000000E+001  0.534841518261557E+001  0.244904171562988E+000  0.988111191291860E+000  0.314179309677424E+001 -0.100630823642165E+001  0.558963111774391E-001 -0.343114445803011E+001  0.000000000000000E+000 -0.267420759130778E+001
  0.100000000000000E+001  0.525369037951189E+001  0.260110747165057E+000  0.966030126744159E+000  0.307244084159678E+001 -0.871937447746195E+000 -0.147767850979672E+000 -0.343114445803011E+001  0.000000000000000E+000 -0.262684518975594E+001
  0.100000000000000E+001  0.500000003801680E+001  0.257699384930969E+000  0.961520917790166E+000  0.306950400626996E+001 -0.874739830429952E+000 -0.316809003060651E+000 -0.343114445803011E+001  0.000000000000000E+000 -0.250000001900840E+001
  0.100000000000000E+001  0.481902592035583E+001  0.257628829505915E+000  0.964580149940416E+000  0.306699837712040E+001 -0.875710374728954E+000 -0.297992958595072E+000 -0.343114445803011E+001  0.000000000000000E+000 -0.240951296017792E+001
  0.100000000000000E+001  0.388322396418288E+001  0.263099714244918E+000  0.959891408950101E+000  0.305158784559372E+001 -0.845260674048332E+000 -0.246545369396864E+000 -0.343114445803011E+001  0.000000000000000E+000 -0.194161198209144E+001
  0.100000000000000E+001  0.381300512883612E+001  0.253846280057230E+000  0.974604202230082E+000  0.308632069204690E+001 -0.904901212619402E+000 -0.225509856721067E+000 -0.343114445803011E+001  0.000000000000000E+000 -0.190650256441806E+001
  0.100000000000000E+001  0.432647167326718E+001  0.262595421506137E+000  0.960787790165360E+000  0.303519149244085E+001 -0.827693622221478E+000 -0.468089658171150E+000 -0.343114445803011E+001  0.000000000000000E+000 -0.216323583663359E+001
  0.100000000000000E+001  0.331858969928285E+001  0.260986342391109E+000  0.957907403115717E+000  0.305002004502250E+001 -0.844324134978365E+000 -0.402045026719145E+000 -0.343114445803011E+001  0.000000000000000E+000 -0.165929484964143E+001
  0.100000000000000E+001  0.325526648017286E+001  0.264180529716400E+000  0.958154001264641E+000  0.304642884116681E+001 -0.836238150989315E+000 -0.272007727447985E+000 -0.343114445803011E+001  0.000000000000000E+000 -0.162763324008643E+001
  0.100000000000000E+001  0.323687116266262E+001  0.264161987668397E+000  0.961178752979650E+000  0.304053563173815E+001 -0.832271038318526E+000 -0.321830948988766E+000 -0.343114445803011E+001  0.000000000000000E+000 -0.161843558133131E+001
  0.100000000000000E+001  0.288544537936303E+001  0.249896557677630E+000  0.982658293628922E+000  0.311388510862656E+001 -0.964403707671142E+000 -0.303373439422971E-001 -0.343114445803011E+001  0.000000000000000E+000 -0.144272268968152E+001
  0.100000000000000E+001  0.316041419951926E+001  0.255393346643171E+000  0.973135867781869E+000  0.308995936424057E+001 -0.906003746546351E+000 -0.108646372481176E+000 -0.343114445803011E+001  0.000000000000000E+000 -0.158020709975963E+001
  0.100000000000000E+001  0.283124627676261E+001  0.260165180277110E+000  0.961399093686267E+000  0.306416051364044E+001 -0.866829397624657E+000 -0.232597817232723E+000 -0.343114445803011E+001  0.000000000000000E+000 -0.141562313838131E+001
  0.100000000000000E+001  0.242331443873629E+001  0.251028669488721E+000  0.973471371061682E+000  0.310465702759165E+001 -0.932347472637439E+000 -0.156413487068336E+000 -0.343114445803011E+001  0.000000000000000E+000 -0.121165721936814E+001
  0.100000000000000E+001  0.214559545269546E+001  0.260155986827311E+000  0.964994809230755E+000  0.306824881494488E+001 -0.871446220197338E+000 -0.180107631443205E+000 -0.343114445803011E+001  0.000000000000000E+000 -0.107279772634773E+001
  0.100000000000000E+001  0.207070802666335E+001  0.256335981634970E+000  0.973753738687052E+000  0.307543817902971E+001 -0.904151162708635E+000 -0.197263681272135E+000 -0.343114445803011E+001  0.000000000000000E+000 -0.103535401333168E+001
  0.100000000000000E+001  0.203366993088848E+001  0.255608757766910E+000  0.971439813096635E+000  0.307916350149726E+001 -0.892994757238830E+000 -0.233917549441529E+000 -0.343114445803011E+001  0.000000000000000E+000 -0.101683496544424E+001
  0.100000000000000E+001  0.198051180915957E+001  0.249734953271391E+000  0.978697298397133E+000  0.311631747733343E+001 -0.952508044978388E+000 -0.533073528444863E-001 -0.343114445803011E+001  0.000000000000000E+000 -0.990255904579785E+000
  0.100000000000000E+001  0.155739020962741E+001  0.251597513631422E+000  0.976131980067502E+000  0.311014574892938E+001 -0.945753875287386E+000 -0.410854172085129E-001 -0.343114445803011E+001  0.000000000000000E+000 -0.778695104813706E+000
  0.100000000000000E+001  0.129632316423227E+001  0.253346354598179E+000  0.974854138065357E+000  0.310299753879021E+001 -0.931815348196841E+000 -0.501973319675244E-001 -0.343114445803011E+001  0.000000000000000E+000 -0.648161582116136E+000
  0.100000000000000E+001  0.107321001050903E+001  0.253970943979859E+000  0.975215927245721E+000  0.309720257740497E+001 -0.923265399663507E+000 -0.790962013474221E-001 -0.343114445803011E+001  0.000000000000000E+000 -0.536605005254515E+000
  0.100000000000000E+001  0.182351977760672E+001  0.254211924012913E+000  0.971177345280644E+000  0.308795125599791E+001 -0.911950911947894E+000 -0.203233056851484E+000 -0.343114445803011E+001  0.000000000000000E+000 -0.911759888803362E+000
  0.100000000000000E+001  0.178293937027548E+001  0.255542134963890E+000  0.966867714628357E+000  0.308521022377851E+001 -0.896954659731994E+000 -0.199920884753097E+000 -0.343114445803011E+001  0.000000000000000E+000 -0.891469685137743E+000
  0.100000000000000E+001  0.157315666460686E+001  0.258619567790929E+000  0.966960065935536E+000  0.306627446722056E+001 -0.870555938456917E+000 -0.264075512456673E+000 -0.343114445803011E+001  0.000000000000000E+000 -0.786578332303430E+000
  0.100000000000000E+001  0.131207952626073E+001  0.256444516941823E+000  0.967751629459988E+000  0.306931868999339E+001 -0.887712859058068E+000 -0.314732202181970E+000 -0.343114445803011E+001  0.000000000000000E+000 -0.656039763130367E+000
  0.100000000000000E+001  0.103990346600445E+001  0.255353786132866E+000  0.971553469309503E+000  0.308452636486529E+001 -0.901929467292519E+000 -0.185945969919100E+000 -0.343114445803011E+001  0.000000000000000E+000 -0.519951733002226E+000
  0.100000000000000E+001  0.695145595314422E+000  0.258680682268076E+000  0.967339435873558E+000  0.307022284886791E+001 -0.879306051180718E+000 -0.206046084623295E+000 -0.343114445803011E+001  0.000000000000000E+000 -0.347572797657211E+000
  0.100000000000000E+001  0.627139201325869E+000  0.256409149270975E+000  0.968601635475541E+000  0.307897018463825E+001 -0.896240371949622E+000 -0.208832123364865E+000 -0.343114445803011E+001  0.000000000000000E+000 -0.313569600662935E+000
