  0.180193825077429E+000  0.622911508299057E+001  0.247222116420275E+000  0.983420372568593E+000  0.311459966209686E+001 -0.971300477036275E+000 -0.627218214545536E+000 -0.199605993274078E+001  0.000000000000000E+000 -0.311455754149528E+001
  0.180193825077429E+000  0.139096945577193E+002  0.261529559023326E+000  0.961697097377922E+000  0.304855860208019E+001 -0.882553812770493E+000 -0.725699244508691E+000 -0.199605993274078E+001  0.000000000000000E+000 -0.785392191252306E+001
  0.180193825077429E+000  0.931129811430038E+001  0.247330215460458E+000  0.990221707324907E+000  0.311625654457054E+001 -0.992010972656434E+000 -0.506658959034709E+000 -0.199605993274078E+001  0.000000000000000E+000 -0.465564905715019E+001
  0.180193825077429E+000  0.651109843054763E+001  0.251176403106936E+000  0.982010982435125E+000  0.309351892054571E+001 -0.939013734707243E+000 -0.648607245662618E+000 -0.199605993274078E+001  0.000000000000000E+000 -0.325554921527382E+001
  0.180193825077429E+000  0.690741734150821E+001  0.245594106929821E+000  0.990743277947468E+000  0.312194542930119E+001 -0.100421340417619E+001 -0.551907866708790E+000 -0.199605993274078E+001  0.000000000000000E+000 -0.345370867075410E+001
  0.180193825077429E+000  0.698926918639119E+001  0.247226954280652E+000  0.981199033671802E+000  0.311044560843445E+001 -0.952662382780044E+000 -0.770472840225392E+000 -0.199605993274078E+001  0.000000000000000E+000 -0.349463459319559E+001
  0.180193825077429E+000  0.590992784797615E+001  0.247793269837907E+000  0.981485931319117E+000  0.310730119794907E+001 -0.956272909312685E+000 -0.740347021378436E+000 -0.199605993274078E+001  0.000000000000000E+000 -0.295496392398808E+001
  0.180193825077429E+000  0.547253804300897E+001  0.251960028089120E+000  0.977661964702626E+000  0.309276109772321E+001 -0.945180330714058E+000 -0.611248402044286E+000 -0.199605993274078E+001  0.000000000000000E+000 -0.273626902150449E+001
  0.180193825077429E+000  0.527397275208701E+001  0.251745068993408E+000  0.980178350995827E+000  0.309438012538824E+001 -0.947342646879689E+000 -0.604609658926259E+000 -0.199605993274078E+001  0.000000000000000E+000 -0.263698637604350E+001
  0.180193825077429E+000  0.504658151810194E+001  0.256670010214066E+000  0.973498031229843E+000  0.307012135531148E+001 -0.918675804654209E+000 -0.640882305470595E+000 -0.199605993274078E+001  0.000000000000000E+000 -0.252329075905097E+001
  0.180193825077429E+000  0.488105601437284E+001  0.256487100833348E+000  0.972248982025411E+000  0.306764770139849E+001 -0.898263315080015E+000 -0.729754500399671E+000 -0.199605993274078E+001  0.000000000000000E+000 -0.244052800718642E+001
  0.180193825077429E+000  0.465940840371258E+001  0.252299012721880E+000  0.981647002593274E+000  0.308547347491150E+001 -0.943176692870903E+000 -0.665535456543032E+000 -0.199605993274078E+001  0.000000000000000E+000 -0.232970420185629E+001
  0.180193825077429E+000  0.444301938995818E+001  0.256277272669022E+000  0.975509993541900E+000  0.306797529396905E+001 -0.916731564053313E+000 -0.717318612332345E+000 -0.199605993274078E+001  0.000000000000000E+000 -0.222150969497909E+001
  0.180193825077429E+000  0.417080122734115E+001  0.253272643458754E+000  0.976704563845703E+000  0.308249004248553E+001 -0.916311743624798E+000 -0.734888196149135E+000 -0.199605993274078E+001  0.000000000000000E+000 -0.208540061367058E+001
  0.180193825077429E+000  0.379924802790750E+001  0.250570614800021E+000  0.984248721678531E+000  0.308822761147574E+001 -0.932017122955179E+000 -0.839431652211330E+000 -0.199605993274078E+001  0.000000000000000E+000 -0.189962401395375E+001
  0.180193825077429E+000  0.358256317895460E+001  0.251574539239561E+000  0.981598363225417E+000  0.308689740734256E+001 -0.929838383373531E+000 -0.788367456875991E+000 -0.199605993274078E+001  0.000000000000000E+000 -0.179128158947730E+001
  0.180193825077429E+000  0.330885653570549E+001  0.249640299105548E+000  0.984746956422606E+000  0.309932403602684E+001 -0.955587077761360E+000 -0.662681614570211E+000 -0.199605993274078E+001  0.000000000000000E+000 -0.165442826785274E+001
  0.180193825077429E+000  0.307297949624103E+001  0.255471336517935E+000  0.978528712122091E+000  0.307213273245230E+001 -0.921758050519488E+000 -0.666152128573974E+000 -0.199605993274078E+001  0.000000000000000E+000 -0.153648974812051E+001
  0.180193825077429E+000  0.301817378998308E+001  0.253620608192241E+000  0.977018086987545E+000  0.307521554505203E+001 -0.920270796108715E+000 -0.823271060370772E+000 -0.199605993274078E+001  0.000000000000000E+000 -0.150908689499154E+001
  0.180193825077429E+000  0.301696821813994E+001  0.252497350276544E+000  0.981941938969074E+000  0.308274894726175E+001 -0.932632777377283E+000 -0.751682924768912E+000 -0.199605993274078E+001  0.000000000000000E+000 -0.150848410906997E+001
  0.180193825077429E+000  0.276029963688674E+001  0.256991829813976E+000  0.973685430144833E+000  0.306609835924311E+001 -0.904837272948382E+000 -0.696227885411824E+000 -0.199605993274078E+001  0.000000000000000E+000 -0.138014981844337E+001
  0.180193825077429E+000  0.243694927576136E+001  0.251682810790779E+000  0.981192498954868E+000  0.308764711255572E+001 -0.932199865478196E+000 -0.746218274034724E+000 -0.199605993274078E+001  0.000000000000000E+000 -0.121847463788068E+001
  0.180193825077429E+000  0.236994988318375E+001  0.257838456306834E+000  0.972772566297244E+000  0.305918483764861E+001 -0.898181694396441E+000 -0.763057755427752E+000 -0.199605993274078E+001  0.000000000000000E+000 -0.118497494159187E+001
  0.180193825077429E+000  0.232938235254084E+001  0.257131819860040E+000  0.974379622869442E+000  0.306331990422883E+001 -0.897233990792231E+000 -0.741557913942612E+000 -0.199605993274078E+001  0.000000000000000E+000 -0.116469117627042E+001
  0.180193825077429E+000  0.221477725886494E+001  0.253079351626256E+000  0.979803591618810E+000  0.307987662094794E+001 -0.920779000895607E+000 -0.762888378969264E+000 -0.199605993274078E+001  0.000000000000000E+000 -0.110738862943247E+001
  0.180193825077429E+000  0.213759534369123E+001  0.253744550098136E+000  0.977080992953617E+000  0.308075892575469E+001 -0.925367073638291E+000 -0.707403470670596E+000 -0.199605993274078E+001  0.000000000000000E+000 -0.106879767184562E+001
  0.180193825077429E+000  0.196104933231679E+001  0.255714305282810E+000  0.976680573651170E+000  0.306547136076073E+001 -0.900766733720997E+000 -0.845293853657397E+000 -0.199605993274078E+001  0.000000000000000E+000 -0.980524666158397E+000
  0.180193825077429E+000  0.120070533600832E+001  0.253959330504832E+000  0.978439163130306E+000  0.307566584118433E+001 -0.919003727122556E+000 -0.770474781983913E+000 -0.199605993274078E+001  0.000000000000000E+000 -0.600352668004161E+000
  0.180193825077429E+000  0.885634469517422E+000  0.253619449804763E+000  0.976777324035344E+000  0.307725938187965E+001 -0.914450883974068E+000 -0.806258913755604E+000 -0.199605993274078E+001  0.000000000000000E+000 -0.442817234758712E+000
