  0.741558921234774E+000  0.159207193286201E+002  0.250857049544976E+000  0.989653105795172E+000  0.309169995969851E+001 -0.958662087992801E+000 -0.661058401799057E+000 -0.343114445803011E+001  0.000000000000000E+000 -0.796035966431007E+001
  0.741558921234774E+000  0.122918466331666E+002  0.262296598743862E+000  0.955509026269410E+000  0.301855207719923E+001 -0.762101734535874E+000 -0.159106544562426E+001 -0.343114445803011E+001  0.000000000000000E+000 -0.614592331658330E+001
  0.741558921234774E+000  0.739813913351710E+001  0.252359987290982E+000  0.982046846015781E+000  0.309228902570110E+001 -0.960628386422767E+000 -0.540756086918514E+000 -0.343114445803011E+001  0.000000000000000E+000 -0.369906956675855E+001
  0.741558921234774E+000  0.831847364554120E+001  0.245356597073045E+000  0.986792411126851E+000  0.311515944450063E+001 -0.975707610312459E+000 -0.832077026433127E+000 -0.343114445803011E+001  0.000000000000000E+000 -0.415923682277060E+001
  0.741558921234774E+000  0.135453836146498E+002  0.259971299019495E+000  0.972461108906124E+000  0.305327426917037E+001 -0.907601106473455E+000 -0.619043458746635E+000 -0.343114445803011E+001  0.000000000000000E+000 -0.677269180732489E+001
  0.741558921234774E+000  0.135485531314194E+002  0.265452335381936E+000  0.961357605423932E+000  0.303324182408238E+001 -0.855387657548978E+000 -0.660004519942999E+000 -0.343114445803011E+001  0.000000000000000E+000 -0.677427656570968E+001
  0.741558921234774E+000  0.138152773510616E+002  0.245940835861432E+000  0.977540507917620E+000  0.310966937374158E+001 -0.933180033872233E+000 -0.108193058239415E+001 -0.343114445803011E+001  0.000000000000000E+000 -0.690763867553082E+001
  0.741558921234774E+000  0.842162040529241E+001  0.250678469127919E+000  0.981560963708351E+000  0.308990301130500E+001 -0.919731538449449E+000 -0.822340123946774E+000 -0.343114445803011E+001  0.000000000000000E+000 -0.421081020264621E+001
  0.741558921234774E+000  0.115029735828148E+002  0.261053301400058E+000  0.968407619550891E+000  0.302786240878697E+001 -0.809535855511236E+000 -0.133031267078324E+001 -0.343114445803011E+001  0.000000000000000E+000 -0.575148679140739E+001
  0.741558921234774E+000  0.105940173025685E+002  0.261703866024607E+000  0.970197716166147E+000  0.302956913801542E+001 -0.839363132837134E+000 -0.101939312462359E+001 -0.343114445803011E+001  0.000000000000000E+000 -0.529700865128425E+001
  0.741558921234774E+000  0.996153700246357E+001  0.249524595933723E+000  0.987255428151771E+000  0.310104758729393E+001 -0.985405154056415E+000 -0.558900805253123E+000 -0.343114445803011E+001  0.000000000000000E+000 -0.498076850123178E+001
  0.741558921234774E+000  0.944311387182800E+001  0.257228911465107E+000  0.978172351837658E+000  0.307226061430163E+001 -0.926024049865314E+000 -0.494751186280988E+000 -0.343114445803011E+001  0.000000000000000E+000 -0.472155693591400E+001
  0.741558921234774E+000  0.877248512361614E+001  0.249653205580956E+000  0.978518434287221E+000  0.308530894960723E+001 -0.908535222298701E+000 -0.117279909989961E+001 -0.343114445803011E+001  0.000000000000000E+000 -0.438624256180807E+001
  0.741558921234774E+000  0.886646454483644E+001  0.255070402073652E+000  0.984186404129334E+000  0.307026922677367E+001 -0.934297939967299E+000 -0.663694245031656E+000 -0.343114445803011E+001  0.000000000000000E+000 -0.443323227241822E+001
  0.741558921234774E+000  0.717142441555434E+001  0.261904276362259E+000  0.956076758808160E+000  0.302940571939911E+001 -0.791336437873191E+000 -0.135254078640876E+001 -0.343114445803011E+001  0.000000000000000E+000 -0.358571220777717E+001
  0.741558921234774E+000  0.707112264460041E+001  0.256432249369569E+000  0.968251630356417E+000  0.306762112017773E+001 -0.899422838450878E+000 -0.777423730409255E+000 -0.343114445803011E+001  0.000000000000000E+000 -0.353556132230020E+001
  0.741558921234774E+000  0.693080525271590E+001  0.254005267117427E+000  0.967118764578478E+000  0.307466283615332E+001 -0.883829939462986E+000 -0.987852017210872E+000 -0.343114445803011E+001  0.000000000000000E+000 -0.346540262635795E+001
  0.741558921234774E+000  0.689619421555020E+001  0.253956707396005E+000  0.971760750050946E+000  0.307153258836222E+001 -0.900212343293271E+000 -0.943791237688783E+000 -0.343114445803011E+001  0.000000000000000E+000 -0.344809710777510E+001
  0.741558921234774E+000  0.658885485478714E+001  0.248596897799271E+000  0.983928483848914E+000  0.309691322261429E+001 -0.953727471775323E+000 -0.855580097994172E+000 -0.343114445803011E+001  0.000000000000000E+000 -0.329442742739357E+001
  0.741558921234774E+000  0.650603767508223E+001  0.261552907338424E+000  0.972118481597803E+000  0.304154937167860E+001 -0.874052869155248E+000 -0.771473527587546E+000 -0.343114445803011E+001  0.000000000000000E+000 -0.325301883754111E+001
  0.741558921234774E+000  0.638019794171210E+001  0.269226424696799E+000  0.949606693655642E+000  0.299399257838585E+001 -0.742346233582991E+000 -0.137845417129784E+001 -0.343114445803011E+001  0.000000000000000E+000 -0.319009897085605E+001
  0.741558921234774E+000  0.636222648887105E+001  0.260586317254566E+000  0.962975988102978E+000  0.302953697445929E+001 -0.812425488643003E+000 -0.139248742784612E+001 -0.343114445803011E+001  0.000000000000000E+000 -0.318111324443553E+001
  0.741558921234774E+000  0.614984017702699E+001  0.256871858666569E+000  0.969696398161599E+000  0.304724747811762E+001 -0.827297627305247E+000 -0.133779304946930E+001 -0.343114445803011E+001  0.000000000000000E+000 -0.307492008851350E+001
  0.741558921234774E+000  0.593312060410035E+001  0.260699569517046E+000  0.965563184341662E+000  0.304515646829336E+001 -0.849379899149374E+000 -0.917305866680650E+000 -0.343114445803011E+001  0.000000000000000E+000 -0.296656030205017E+001
  0.741558921234774E+000  0.581360650945774E+001  0.259497708323326E+000  0.974103856526961E+000  0.305144843012694E+001 -0.885540443554239E+000 -0.723109866504601E+000 -0.343114445803011E+001  0.000000000000000E+000 -0.290680325472887E+001
  0.741558921234774E+000  0.557624346759013E+001  0.262737318740498E+000  0.955067228347630E+000  0.302739561957510E+001 -0.803664908437151E+000 -0.124553450435612E+001 -0.343114445803011E+001  0.000000000000000E+000 -0.278812173379507E+001
  0.741558921234774E+000  0.542266851071979E+001  0.254759669840827E+000  0.979516675014529E+000  0.306266278523247E+001 -0.899465941249612E+000 -0.984750287664737E+000 -0.343114445803011E+001  0.000000000000000E+000 -0.271133425535989E+001
  0.741558921234774E+000  0.541849380014180E+001  0.255798122744720E+000  0.967738443462483E+000  0.306315102688752E+001 -0.878258325963316E+000 -0.105134831217061E+001 -0.343114445803011E+001  0.000000000000000E+000 -0.270924690007090E+001
  0.741558921234774E+000  0.530466237869319E+001  0.261578470453242E+000  0.964745684763939E+000  0.302755224460140E+001 -0.816021377275804E+000 -0.129155455373362E+001 -0.343114445803011E+001  0.000000000000000E+000 -0.265233118934660E+001
  0.741558921234774E+000  0.522858188663341E+001  0.251571722946519E+000  0.981174587181348E+000  0.308456302060153E+001 -0.917416882816118E+000 -0.865508760917841E+000 -0.343114445803011E+001  0.000000000000000E+000 -0.261429094331671E+001
  0.741558921234774E+000  0.522413441945614E+001  0.265672570928652E+000  0.955817241376996E+000  0.301523122647112E+001 -0.784359496503727E+000 -0.120548833171510E+001 -0.343114445803011E+001  0.000000000000000E+000 -0.261206720972807E+001
  0.741558921234774E+000  0.512791377802293E+001  0.261517766735289E+000  0.967429540561514E+000  0.302697491216720E+001 -0.813999310536550E+000 -0.126440522347833E+001 -0.343114445803011E+001  0.000000000000000E+000 -0.256395688901146E+001
  0.741558921234774E+000  0.497160527907293E+001  0.260247820707095E+000  0.961596582539830E+000  0.303767501932001E+001 -0.818522104681970E+000 -0.125983949818577E+001 -0.343114445803011E+001  0.000000000000000E+000 -0.248580263953646E+001
  0.741558921234774E+000  0.492921333505142E+001  0.269900683076122E+000  0.954955053415271E+000  0.299183922746082E+001 -0.763211898845504E+000 -0.124126140325077E+001 -0.343114445803011E+001  0.000000000000000E+000 -0.246460666752571E+001
  0.741558921234774E+000  0.479811371667200E+001  0.250120105773478E+000  0.986483738706802E+000  0.309601206878679E+001 -0.958147768929048E+000 -0.634951742305264E+000 -0.343114445803011E+001  0.000000000000000E+000 -0.239905685833600E+001
  0.741558921234774E+000  0.477207847964640E+001  0.254593401640219E+000  0.972169674496960E+000  0.305915132420937E+001 -0.853440767319869E+000 -0.126932835578585E+001 -0.343114445803011E+001  0.000000000000000E+000 -0.238603923982320E+001
  0.741558921234774E+000  0.473727985068909E+001  0.258802784730029E+000  0.975140526904014E+000  0.304441372827262E+001 -0.867334453283687E+000 -0.970544930461646E+000 -0.343114445803011E+001  0.000000000000000E+000 -0.236863992534455E+001
  0.741558921234774E+000  0.465934871271224E+001  0.260325146770587E+000  0.960160477245121E+000  0.303299587311691E+001 -0.799896928949000E+000 -0.140716161080650E+001 -0.343114445803011E+001  0.000000000000000E+000 -0.232967435635612E+001
  0.741558921234774E+000  0.453474897191267E+001  0.267679750312112E+000  0.953749547918755E+000  0.299755765298611E+001 -0.751672689238744E+000 -0.143314521026504E+001 -0.343114445803011E+001  0.000000000000000E+000 -0.226737448595634E+001
  0.741558921234774E+000  0.443026457576687E+001  0.257827832235002E+000  0.966265243032397E+000  0.304871282073612E+001 -0.833292963236879E+000 -0.119835166761931E+001 -0.343114445803011E+001  0.000000000000000E+000 -0.221513228788343E+001
  0.741558921234774E+000  0.426150305676491E+001  0.247170048310387E+000  0.985237440147509E+000  0.310906754882022E+001 -0.970013261070622E+000 -0.725997075194276E+000 -0.343114445803011E+001  0.000000000000000E+000 -0.213075152838245E+001
  0.741558921234774E+000  0.416818283691243E+001  0.257428607199040E+000  0.971823009096097E+000  0.305742905065634E+001 -0.881968181442632E+000 -0.920865190099964E+000 -0.343114445803011E+001  0.000000000000000E+000 -0.208409141845621E+001
  0.741558921234774E+000  0.415940030152294E+001  0.258709371208898E+000  0.966190609847342E+000  0.304779604645747E+001 -0.839960105005281E+000 -0.110311918081840E+001 -0.343114445803011E+001  0.000000000000000E+000 -0.207970015076147E+001
  0.741558921234774E+000  0.408176075231923E+001  0.250677240226302E+000  0.982303613131433E+000  0.309378749780321E+001 -0.941013687397483E+000 -0.694166093476221E+000 -0.343114445803011E+001  0.000000000000000E+000 -0.204088037615961E+001
  0.741558921234774E+000  0.404935913271562E+001  0.253682517641941E+000  0.982313073239358E+000  0.307199209918172E+001 -0.917868704010930E+000 -0.843552748837169E+000 -0.343114445803011E+001  0.000000000000000E+000 -0.202467956635781E+001
  0.741558921234774E+000  0.403411969786932E+001  0.259724507968396E+000  0.967615683066654E+000  0.303477395742232E+001 -0.829911448697822E+000 -0.124481915911233E+001 -0.343114445803011E+001  0.000000000000000E+000 -0.201705984893466E+001
  0.741558921234774E+000  0.402087874089524E+001  0.267018322413824E+000  0.957328294755507E+000  0.300385298296863E+001 -0.784009973707780E+000 -0.126517974469902E+001 -0.343114445803011E+001  0.000000000000000E+000 -0.201043937044762E+001
  0.741558921234774E+000  0.401227159628978E+001  0.262369193339567E+000  0.968784777138836E+000  0.303752292855790E+001 -0.859065504919045E+000 -0.804113682538489E+000 -0.343114445803011E+001  0.000000000000000E+000 -0.200613579814489E+001
  0.741558921234774E+000  0.400193968847576E+001  0.253508818343353E+000  0.980554108150508E+000  0.306915522760834E+001 -0.901079632935909E+000 -0.966404206400379E+000 -0.343114445803011E+001  0.000000000000000E+000 -0.200096984423788E+001
  0.741558921234774E+000  0.386969464676378E+001  0.255301946859537E+000  0.978874772039283E+000  0.306859754590918E+001 -0.917648067047504E+000 -0.740871292616541E+000 -0.343114445803011E+001  0.000000000000000E+000 -0.193484732338189E+001
  0.741558921234774E+000  0.385179785251375E+001  0.259528893388433E+000  0.972027767610903E+000  0.304231633565593E+001 -0.865475365801775E+000 -0.962539035974356E+000 -0.343114445803011E+001  0.000000000000000E+000 -0.192589892625688E+001
  0.741558921234774E+000  0.381866023854988E+001  0.254507877179107E+000  0.968615776579098E+000  0.307160742099705E+001 -0.885387070417549E+000 -0.974338196318385E+000 -0.343114445803011E+001  0.000000000000000E+000 -0.190933011927494E+001
  0.741558921234774E+000  0.363746726077347E+001  0.257302946371251E+000  0.974995490938420E+000  0.305959778318397E+001 -0.899683790281779E+000 -0.807053847036478E+000 -0.343114445803011E+001  0.000000000000000E+000 -0.181873363038674E+001
  0.741558921234774E+000  0.340856429403428E+001  0.259782739574118E+000  0.960440803576458E+000  0.304088725859103E+001 -0.824276478468279E+000 -0.122011817385941E+001 -0.343114445803011E+001  0.000000000000000E+000 -0.170428214701714E+001
  0.741558921234774E+000  0.340205635769208E+001  0.257049641308382E+000  0.971386644096070E+000  0.306131128683031E+001 -0.897363735214662E+000 -0.809132797880403E+000 -0.343114445803011E+001  0.000000000000000E+000 -0.170102817884604E+001
  0.741558921234774E+000  0.326995068670350E+001  0.255247263408404E+000  0.975824467323515E+000  0.307307886156806E+001 -0.911139636196011E+000 -0.740203933188192E+000 -0.343114445803011E+001  0.000000000000000E+000 -0.163497534335175E+001
  0.741558921234774E+000  0.322692083725137E+001  0.259938369813983E+000  0.965618455436525E+000  0.304525452190070E+001 -0.860779390935920E+000 -0.981225300724431E+000 -0.343114445803011E+001  0.000000000000000E+000 -0.161346041862569E+001
  0.741558921234774E+000  0.321846950648922E+001  0.256938229093500E+000  0.977228073753891E+000  0.305535970856496E+001 -0.884213123762581E+000 -0.916225627680501E+000 -0.343114445803011E+001  0.000000000000000E+000 -0.160923475324461E+001
  0.741558921234774E+000  0.321680163068634E+001  0.259412594494173E+000  0.968596483058579E+000  0.303831606081380E+001 -0.834605354764808E+000 -0.122209840308495E+001 -0.343114445803011E+001  0.000000000000000E+000 -0.160840081534317E+001
  0.741558921234774E+000  0.318347384555569E+001  0.256266309349638E+000  0.969120269382893E+000  0.306766896868994E+001 -0.892723597776800E+000 -0.813706601484834E+000 -0.343114445803011E+001  0.000000000000000E+000 -0.159173692277785E+001
  0.741558921234774E+000  0.299447315329536E+001  0.266074127528210E+000  0.961080562497538E+000  0.300943651693332E+001 -0.796452031776631E+000 -0.117436243302208E+001 -0.343114445803011E+001  0.000000000000000E+000 -0.149723657664768E+001
  0.741558921234774E+000  0.269375204406849E+001  0.264524818933366E+000  0.961879800399982E+000  0.301694889878756E+001 -0.799184160578252E+000 -0.117634468139135E+001 -0.343114445803011E+001  0.000000000000000E+000 -0.134687602203424E+001
  0.741558921234774E+000  0.262424037485720E+001  0.262130009123170E+000  0.965346861519088E+000  0.302817136963755E+001 -0.823327829905645E+000 -0.116471100003188E+001 -0.343114445803011E+001  0.000000000000000E+000 -0.131212018742860E+001
  0.741558921234774E+000  0.258779002706368E+001  0.263828920165684E+000  0.965379265820381E+000  0.302518123005248E+001 -0.828515305118889E+000 -0.994204545671059E+000 -0.343114445803011E+001  0.000000000000000E+000 -0.129389501353184E+001
  0.741558921234774E+000  0.248680579094067E+001  0.264776236741259E+000  0.956400493622773E+000  0.301836569299152E+001 -0.794473213431727E+000 -0.119478268924369E+001 -0.343114445803011E+001  0.000000000000000E+000 -0.124340289547033E+001
  0.741558921234774E+000  0.241928168538030E+001  0.256023299114399E+000  0.972961479018622E+000  0.306068978496733E+001 -0.871680238251751E+000 -0.992351850151485E+000 -0.343114445803011E+001  0.000000000000000E+000 -0.120964084269015E+001
  0.741558921234774E+000  0.241615528766493E+001  0.262640558231511E+000  0.959264584863624E+000  0.302716233317344E+001 -0.807240810574397E+000 -0.122720350640864E+001 -0.343114445803011E+001  0.000000000000000E+000 -0.120807764383246E+001
  0.741558921234774E+000  0.239098295935601E+001  0.257152637385531E+000  0.968725928014523E+000  0.305714150280573E+001 -0.880155282363345E+000 -0.970509781707418E+000 -0.343114445803011E+001  0.000000000000000E+000 -0.119549147967801E+001
  0.741558921234774E+000  0.219018662537356E+001  0.260708634986707E+000  0.967265634980855E+000  0.303962579153193E+001 -0.845760821628274E+000 -0.101644670406583E+001 -0.343114445803011E+001  0.000000000000000E+000 -0.109509331268678E+001
  0.741558921234774E+000  0.214016509481635E+001  0.262981749478257E+000  0.963791951404607E+000  0.302283251790263E+001 -0.816071572407425E+000 -0.119937162640794E+001 -0.343114445803011E+001  0.000000000000000E+000 -0.107008254740818E+001
  0.741558921234774E+000  0.197104385739908E+001  0.261034310932720E+000  0.962082848838898E+000  0.303259253060431E+001 -0.814592388825520E+000 -0.122811272806760E+001 -0.343114445803011E+001  0.000000000000000E+000 -0.985521928699542E+000
  0.741558921234774E+000  0.187996105318213E+001  0.258135444727975E+000  0.966571312516656E+000  0.305017138495013E+001 -0.850789128215823E+000 -0.110177162361506E+001 -0.343114445803011E+001  0.000000000000000E+000 -0.939980526591064E+000
  0.741558921234774E+000  0.167819774635423E+001  0.254178668287125E+000  0.974928700895210E+000  0.307346237892057E+001 -0.911121470985595E+000 -0.835228286519499E+000 -0.343114445803011E+001  0.000000000000000E+000 -0.839098873177115E+000
  0.741558921234774E+000  0.163683369900151E+001  0.255813701121718E+000  0.975215562412097E+000  0.306615342629906E+001 -0.897458359999344E+000 -0.841895581164369E+000 -0.343114445803011E+001  0.000000000000000E+000 -0.818416849500757E+000
  0.741558921234774E+000  0.150047434997802E+001  0.257917899818894E+000  0.969131281338641E+000  0.305112957009824E+001 -0.859978683131452E+000 -0.105993097717406E+001 -0.343114445803011E+001  0.000000000000000E+000 -0.750237174989010E+000
  0.741558921234774E+000  0.145090399815176E+001  0.258462535027805E+000  0.970639644323974E+000  0.304592615465586E+001 -0.860539801966752E+000 -0.107163859748652E+001 -0.343114445803011E+001  0.000000000000000E+000 -0.725451999075879E+000
  0.741558921234774E+000  0.118101752337250E+001  0.261916610495778E+000  0.963004840317652E+000  0.303448940505428E+001 -0.838209254578224E+000 -0.101745745134164E+001 -0.343114445803011E+001  0.000000000000000E+000 -0.590508761686251E+000
  0.741558921234774E+000  0.116395437683479E+001  0.258188960733746E+000  0.971208473726460E+000  0.304663854662658E+001 -0.856476443659669E+000 -0.107794299540487E+001 -0.343114445803011E+001  0.000000000000000E+000 -0.581977188417397E+000
  0.741558921234774E+000  0.113532143274707E+001  0.261908211629932E+000  0.965566789432047E+000  0.303637654213488E+001 -0.845424921588510E+000 -0.946470295657321E+000 -0.343114445803011E+001  0.000000000000000E+000 -0.567660716373535E+000
  0.741558921234774E+000  0.111378912011952E+001  0.257112230106201E+000  0.971642032127813E+000  0.305306683225744E+001 -0.871083587239356E+000 -0.103679608456564E+001 -0.343114445803011E+001  0.000000000000000E+000 -0.556894560059761E+000
  0.741558921234774E+000  0.106629728629658E+001  0.256374845226685E+000  0.969384010406858E+000  0.306239333988852E+001 -0.881350839372623E+000 -0.943869183490220E+000 -0.343114445803011E+001  0.000000000000000E+000 -0.533148643148289E+000
  0.741558921234774E+000  0.104638877422301E+001  0.261848940748089E+000  0.965687632080050E+000  0.303563165471405E+001 -0.846939210109824E+000 -0.965867455514913E+000 -0.343114445803011E+001  0.000000000000000E+000 -0.523194387111506E+000
  0.741558921234774E+000  0.945710797508236E+000  0.258400454648183E+000  0.969577143280669E+000  0.305282022367265E+001 -0.867018182460360E+000 -0.918754859381268E+000 -0.343114445803011E+001  0.000000000000000E+000 -0.472855398754119E+000
  0.741558921234774E+000  0.816505125409611E+000  0.256480999607534E+000  0.970199311226133E+000  0.305771907874757E+001 -0.871018901634594E+000 -0.105094656960369E+001 -0.343114445803011E+001  0.000000000000000E+000 -0.408252562704806E+000
  0.741558921234774E+000  0.813980938771302E+000  0.257251118874288E+000  0.973603639931775E+000  0.305417002394377E+001 -0.877361104265347E+000 -0.962096065536819E+000 -0.343114445803011E+001  0.000000000000000E+000 -0.406990469385651E+000
  0.741558921234774E+000  0.634259762910182E+000  0.254862561453283E+000  0.975086034668275E+000  0.306691348019828E+001 -0.895339055044536E+000 -0.939965513610513E+000 -0.343114445803011E+001  0.000000000000000E+000 -0.317129881455091E+000
  0.741558921234774E+000  0.627600895758526E+000  0.255053290194596E+000  0.975345742685334E+000  0.306816092102563E+001 -0.902508342345390E+000 -0.858879132779234E+000 -0.343114445803011E+001  0.000000000000000E+000 -0.313800447879263E+000
  0.741558921234774E+000  0.595288401670655E+000  0.256635692350970E+000  0.970063523672972E+000  0.305619939833156E+001 -0.865541620471380E+000 -0.107324961709812E+001 -0.343114445803011E+001  0.000000000000000E+000 -0.297644200835328E+000
