  0.879951337498176E-001  0.878893672456211E+002  0.256328442367408E+000  0.983098276932907E+000  0.310492784823600E+001 -0.826750065665109E+001 -0.287161811205726E+002
  0.879951337498176E-001  0.892950257909814E+002  0.256674900649757E+000  0.982638431800811E+000  0.310329821905809E+001 -0.727667811446501E+001 -0.304098329354388E+002
  0.879951337498176E-001  0.880832698511539E+002  0.256467975852244E+000  0.984752182735687E+000  0.310229687563361E+001 -0.943251613318031E+001 -0.276481169468097E+002
  0.879951337498176E-001  0.877395035387734E+002  0.256693716726162E+000  0.982263510765884E+000  0.310156330638828E+001 -0.635180936370136E+001 -0.305569405600984E+002
  0.879951337498176E-001  0.864113129516077E+002  0.256320894281618E+000  0.982904114944392E+000  0.310458907809249E+001 -0.794356042712485E+001 -0.283010942030921E+002
  0.879951337498176E-001  0.873206867536656E+002  0.256689856771180E+000  0.981952526493029E+000  0.310289792654198E+001 -0.641553971839525E+001 -0.302838018128507E+002
  0.879951337498176E-001  0.864417571687512E+002  0.255997826508241E+000  0.981632852867272E+000  0.310535293199895E+001 -0.678923051649597E+001 -0.294706462222927E+002
  0.879951337498176E-001  0.868265819040578E+002  0.256250288198525E+000  0.984448389400278E+000  0.310359457452136E+001 -0.943679531974432E+001 -0.270154937866977E+002
  0.879951337498176E-001  0.850381067881912E+002  0.256136243883914E+000  0.981995737706757E+000  0.310590297049714E+001 -0.735192933269001E+001 -0.282061222158186E+002
  0.879951337498176E-001  0.848745400835694E+002  0.255560768523184E+000  0.982481380908981E+000  0.310943082152807E+001 -0.898746518045795E+001 -0.264888030157398E+002
  0.879951337498176E-001  0.847668536748303E+002  0.255968602970232E+000  0.982773913881079E+000  0.310636643835798E+001 -0.833423727834230E+001 -0.270881877134859E+002
  0.879951337498176E-001  0.844138813612724E+002  0.255948252286393E+000  0.981734101857863E+000  0.310639043867646E+001 -0.721935517311841E+001 -0.280265836619308E+002
  0.879951337498176E-001  0.841329390518389E+002  0.255240676740881E+000  0.982156805756796E+000  0.310965511674943E+001 -0.869384867481389E+001 -0.264116190055186E+002
  0.879951337498176E-001  0.838448182904347E+002  0.255542006807229E+000  0.982102446388455E+000  0.310828696238749E+001 -0.819837467418516E+001 -0.267630326254453E+002
  0.879951337498176E-001  0.836867014894340E+002  0.255660687300317E+000  0.981748237236678E+000  0.310809963214079E+001 -0.776897413784109E+001 -0.271133747612890E+002
  0.879951337498176E-001  0.835963695626561E+002  0.255518085297629E+000  0.982705417635495E+000  0.310846331208425E+001 -0.891085231716393E+001 -0.259263306185772E+002
  0.879951337498176E-001  0.834769139979081E+002  0.255526252700024E+000  0.982160935721447E+000  0.310911874516788E+001 -0.853471444953275E+001 -0.262427407038344E+002
  0.879951337498176E-001  0.834437642910765E+002  0.255512149252714E+000  0.982030794525371E+000  0.310877542049713E+001 -0.828111630226269E+001 -0.264797639976886E+002
  0.879951337498176E-001  0.834344542775820E+002  0.255427178813181E+000  0.982542779907740E+000  0.310943892505259E+001 -0.905003268263101E+001 -0.257061926105731E+002
