  0.458249980854058E+000  0.938924007697669E+002  0.255717388490011E+000  0.976542965018319E+000  0.311307691903618E+001 -0.486118239308031E+001 -0.353942830362420E+002
  0.458249980854058E+000  0.971481761228130E+002  0.255933364936478E+000  0.981280838810735E+000  0.310410980528663E+001 -0.603813224646105E+001 -0.358452208593843E+002
  0.458249980854058E+000  0.906084322462137E+002  0.254542453248088E+000  0.984724200147217E+000  0.311121171913854E+001 -0.121463015273961E+002 -0.256860871263578E+002
  0.458249980854058E+000  0.905512484030328E+002  0.255834799586100E+000  0.981345810523765E+000  0.310951292482032E+001 -0.783009352611623E+001 -0.299737032060473E+002
  0.458249980854058E+000  0.891722180323598E+002  0.255096051896421E+000  0.983557620465744E+000  0.310878506424791E+001 -0.996027454949932E+001 -0.271540069973276E+002
  0.458249980854058E+000  0.899113773243197E+002  0.254195508317308E+000  0.984176900746225E+000  0.311362567689980E+001 -0.123084661881300E+002 -0.251753950046770E+002
  0.458249980854058E+000  0.896918838402772E+002  0.254459453678330E+000  0.981983366096976E+000  0.311314006848824E+001 -0.966927334357875E+001 -0.277048411072069E+002
  0.458249980854058E+000  0.887475432769512E+002  0.254550430385314E+000  0.983400249757654E+000  0.311206252476561E+001 -0.108629264588945E+002 -0.260390177102282E+002
  0.458249980854058E+000  0.885658077862597E+002  0.255131919569029E+000  0.982604013375754E+000  0.311256250091875E+001 -0.101694636641485E+002 -0.266416127596284E+002
  0.458249980854058E+000  0.885220503193941E+002  0.255031415220416E+000  0.983257813222103E+000  0.311268825270255E+001 -0.109410875457770E+002 -0.258481101445671E+002
  0.458249980854058E+000  0.883311916055482E+002  0.255039919013399E+000  0.984107409495355E+000  0.311196425638984E+001 -0.116811705476344E+002 -0.250125977857868E+002
  0.458249980854058E+000  0.877233730808644E+002  0.254917030425492E+000  0.983546166080401E+000  0.311009748031264E+001 -0.103762252632699E+002 -0.260136338078094E+002
  0.458249980854058E+000  0.875476050084650E+002  0.255522331572834E+000  0.981694601896124E+000  0.311062263723685E+001 -0.854654384566091E+001 -0.277554311892187E+002
  0.458249980854058E+000  0.874567343598304E+002  0.254522035588614E+000  0.984634491348077E+000  0.311209771865625E+001 -0.123408647715955E+002 -0.239156749389667E+002
  0.458249980854058E+000  0.871681944077384E+002  0.255744850086415E+000  0.985092957736057E+000  0.310601836483429E+001 -0.109549028583628E+002 -0.251573668761535E+002
  0.458249980854058E+000  0.869039777312374E+002  0.255689769978618E+000  0.984871576216166E+000  0.310604819646170E+001 -0.106847138187929E+002 -0.252954475774729E+002
  0.458249980854058E+000  0.868269599874289E+002  0.254872335172168E+000  0.981776348915311E+000  0.311420409964660E+001 -0.984836763598615E+001 -0.260932848883754E+002
  0.458249980854058E+000  0.867057046562830E+002  0.255429275645252E+000  0.983593252156186E+000  0.310965668343868E+001 -0.103092177510623E+002 -0.255718071077263E+002
  0.458249980854058E+000  0.866805680271761E+002  0.254838913933006E+000  0.984506803319793E+000  0.311052031732684E+001 -0.116578119108567E+002 -0.242106446333784E+002
  0.458249980854058E+000  0.866448507299975E+002  0.255451260098979E+000  0.983731361433997E+000  0.310938775706173E+001 -0.103816023289880E+002 -0.254689955666578E+002
  0.458249980854058E+000  0.865740041290559E+002  0.254745435110841E+000  0.982786572138210E+000  0.311169418340411E+001 -0.100504567698565E+002 -0.257647178253185E+002
  0.458249980854058E+000  0.865577864191192E+002  0.255306708381571E+000  0.982525692098845E+000  0.311114533387350E+001 -0.960199112785680E+001 -0.262050746123499E+002
  0.458249980854058E+000  0.865570779158041E+002  0.255183522279260E+000  0.982098822474064E+000  0.311215192134934E+001 -0.948106977703741E+001 -0.263256417115117E+002
  0.458249980854058E+000  0.865205763154145E+002  0.254737184816223E+000  0.983474291711198E+000  0.311372543238603E+001 -0.115414315436144E+002 -0.242470291447400E+002
  0.458249980854058E+000  0.865115294553900E+002  0.254689786106314E+000  0.985029514050769E+000  0.311145076602640E+001 -0.126145141403810E+002 -0.231694231179611E+002
  0.458249980854058E+000  0.864605795707532E+002  0.254618071118035E+000  0.983546204406349E+000  0.311430740871813E+001 -0.118269524091065E+002 -0.239315099069171E+002
  0.458249980854058E+000  0.864553994412210E+002  0.254883281672027E+000  0.985018173609559E+000  0.311138009195450E+001 -0.125852746295423E+002 -0.231705976217152E+002
  0.458249980854058E+000  0.862935117000515E+002  0.254888316585061E+000  0.984104168794453E+000  0.311046608274420E+001 -0.111559995773276E+002 -0.245189288033452E+002
  0.458249980854058E+000  0.862806846963928E+002  0.254687664870802E+000  0.984903626661312E+000  0.311250303828589E+001 -0.128222685107987E+002 -0.228462463680448E+002
  0.458249980854058E+000  0.862246458264725E+002  0.255655512692612E+000  0.984446316777354E+000  0.310664569067813E+001 -0.103503219003084E+002 -0.252901735435749E+002
  0.458249980854058E+000  0.861556318212502E+002  0.254725500293117E+000  0.984871537298359E+000  0.311225510163969E+001 -0.126976646729636E+002 -0.229083237683086E+002
  0.458249980854058E+000  0.861401354475153E+002  0.255519043925012E+000  0.983104678894755E+000  0.310931111628941E+001 -0.963837642620276E+001 -0.259598638282020E+002
  0.458249980854058E+000  0.860363050001399E+002  0.254691676144733E+000  0.984915403529827E+000  0.311181140954738E+001 -0.125966034836508E+002 -0.229497215470663E+002
  0.458249980854058E+000  0.860263660327837E+002  0.254919080373489E+000  0.981237114712482E+000  0.311404756259293E+001 -0.923833740957274E+001 -0.263030181374662E+002
  0.458249980854058E+000  0.859570445833795E+002  0.255093872300465E+000  0.984467741749008E+000  0.310942135874002E+001 -0.112530049542821E+002 -0.242536898680548E+002
  0.458249980854058E+000  0.858239617596927E+002  0.254805865607826E+000  0.983919560607150E+000  0.311116475224937E+001 -0.111708169179132E+002 -0.242693364925803E+002
  0.458249980854058E+000  0.857790566891292E+002  0.254613111896257E+000  0.982235540119634E+000  0.311296163222486E+001 -0.988304054942371E+001 -0.255346603257880E+002
  0.458249980854058E+000  0.857325942447918E+002  0.254628075641096E+000  0.982895132583954E+000  0.311258114857476E+001 -0.104743526934998E+002 -0.249201169595432E+002
  0.458249980854058E+000  0.857050882201737E+002  0.254519415636624E+000  0.983987455651049E+000  0.311292268923158E+001 -0.118481775025972E+002 -0.235325391381368E+002
  0.458249980854058E+000  0.857048113677372E+002  0.254939897283076E+000  0.982988512332613E+000  0.311270642546452E+001 -0.106378577767856E+002 -0.247427204377301E+002
  0.458249980854058E+000  0.856966608184445E+002  0.254570923876731E+000  0.984272525274017E+000  0.311259986958779E+001 -0.120781023287757E+002 -0.232984006110936E+002
  0.458249980854058E+000  0.856941947511372E+002  0.254975177307083E+000  0.982946975722494E+000  0.311253229159399E+001 -0.105319977949423E+002 -0.248432721112733E+002
  0.458249980854058E+000  0.856911618958473E+002  0.254942106256070E+000  0.984289037306937E+000  0.311150711895583E+001 -0.117362396699593E+002 -0.236375138086115E+002
  0.458249980854058E+000  0.856580791602999E+002  0.255283032468213E+000  0.984144686557479E+000  0.310959583901841E+001 -0.109313247602307E+002 -0.244258873505663E+002
  0.458249980854058E+000  0.855411346086026E+002  0.255207868297699E+000  0.984372203743727E+000  0.310965671025633E+001 -0.112216151549206E+002 -0.240771246800277E+002
  0.458249980854058E+000  0.855345406653996E+002  0.254543579952755E+000  0.983927530736567E+000  0.311399370651210E+001 -0.121578164353625E+002 -0.231376264279844E+002
  0.458249980854058E+000  0.855271671319402E+002  0.254623141045010E+000  0.983757255399031E+000  0.311374785768286E+001 -0.118732972582532E+002 -0.234184588383640E+002
  0.458249980854058E+000  0.855155668859033E+002  0.255082943665332E+000  0.982245125367528E+000  0.311234826338263E+001 -0.970129537781359E+001 -0.255846605957852E+002
  0.458249980854058E+000  0.855136600508832E+002  0.255096754344197E+000  0.981949404625010E+000  0.311245863716049E+001 -0.942451746568616E+001 -0.258604850904026E+002
  0.458249980854058E+000  0.855098064514711E+002  0.255197053205549E+000  0.983564554282544E+000  0.310920728366263E+001 -0.101135298363499E+002 -0.251695459200327E+002
  0.458249980854058E+000  0.855075052242019E+002  0.254866660509220E+000  0.982937929536903E+000  0.311124951274763E+001 -0.100721816492188E+002 -0.252097434935293E+002
  0.458249980854058E+000  0.854851598734062E+002  0.255811560158702E+000  0.983074586386890E+000  0.310697571087480E+001 -0.885663552301362E+001 -0.264141169443366E+002
  0.458249980854058E+000  0.853986031061019E+002  0.255316862499801E+000  0.983529962085562E+000  0.310864332991279E+001 -0.989291819755734E+001 -0.253345558861407E+002
  0.458249980854058E+000  0.853559259926944E+002  0.254734487253355E+000  0.982429655115593E+000  0.311228950537887E+001 -0.986366363302356E+001 -0.253424718939707E+002
  0.458249980854058E+000  0.853469967316851E+002  0.254600443777836E+000  0.984232313259263E+000  0.311313521918386E+001 -0.122191729804332E+002 -0.229824979160564E+002
  0.458249980854058E+000  0.853088732746671E+002  0.254915899902224E+000  0.981027950318284E+000  0.311204070124944E+001 -0.832033507204594E+001 -0.268622740959347E+002
  0.458249980854058E+000  0.852456974215983E+002  0.254787616044674E+000  0.984270954901722E+000  0.311171760086578E+001 -0.117795426961433E+002 -0.233714785453030E+002
  0.458249980854058E+000  0.850762103071861E+002  0.254695202102375E+000  0.983217198627424E+000  0.311232885053606E+001 -0.107528190863503E+002 -0.243134585978898E+002
  0.458249980854058E+000  0.850484577202944E+002  0.254638130343683E+000  0.983814512265605E+000  0.311262943800649E+001 -0.115464118183165E+002 -0.235059895724777E+002
  0.458249980854058E+000  0.849769831172456E+002  0.254792769603374E+000  0.983595617991237E+000  0.311268313146895E+001 -0.113166099074577E+002 -0.237000541818122E+002
  0.458249980854058E+000  0.848702375167921E+002  0.255584059718094E+000  0.982958582529890E+000  0.310790718767791E+001 -0.901454961595630E+001 -0.259487416730868E+002
  0.458249980854058E+000  0.848519425519321E+002  0.254732879680717E+000  0.983837387760380E+000  0.311247488930427E+001 -0.115237127846649E+002 -0.234304310219483E+002
  0.458249980854058E+000  0.848170224021727E+002  0.254920616133331E+000  0.982517544547835E+000  0.311138918689191E+001 -0.965701571288192E+001 -0.252796680188515E+002
  0.458249980854058E+000  0.847879495967721E+002  0.254658937439249E+000  0.983451428854242E+000  0.311269661338558E+001 -0.111480793696118E+002 -0.237740679594213E+002
  0.458249980854058E+000  0.847817768480900E+002  0.254530473731966E+000  0.982229835172129E+000  0.311384476968039E+001 -0.101858352050938E+002 -0.247332257495983E+002
  0.458249980854058E+000  0.846482539337912E+002  0.255093935192502E+000  0.983455701489239E+000  0.311034621884317E+001 -0.103645156742802E+002 -0.244877838232625E+002
  0.458249980854058E+000  0.846365339065509E+002  0.255327645999174E+000  0.981709064487651E+000  0.311087536214908E+001 -0.863714617783228E+001 -0.262092933060903E+002
  0.458249980854058E+000  0.846247399963999E+002  0.255061027904236E+000  0.982606828546776E+000  0.311185364542072E+001 -0.992226635306195E+001 -0.249182761757851E+002
  0.458249980854058E+000  0.845252596505137E+002  0.254882053745008E+000  0.981863782535302E+000  0.311336132930578E+001 -0.964070146929652E+001 -0.251501008866074E+002
  0.458249980854058E+000  0.844982166736454E+002  0.255339725968573E+000  0.982939970180636E+000  0.310930923123681E+001 -0.944248531719098E+001 -0.253347955502788E+002
  0.458249980854058E+000  0.844478594437865E+002  0.255548173311936E+000  0.981740662712651E+000  0.310921446781645E+001 -0.812250665205214E+001 -0.266295956004882E+002
  0.458249980854058E+000  0.844171155730560E+002  0.255111271871127E+000  0.983216641097633E+000  0.311060161431657E+001 -0.101780525760593E+002 -0.245586777411158E+002
  0.458249980854058E+000  0.844082999806055E+002  0.255418513694149E+000  0.980959242512306E+000  0.311053129132644E+001 -0.775945162148706E+001 -0.269728708994628E+002
  0.458249980854058E+000  0.844016133755540E+002  0.254607482846421E+000  0.982235878117710E+000  0.311358496252098E+001 -0.101034519978351E+002 -0.246255272205890E+002
  0.458249980854058E+000  0.843442305832970E+002  0.255520448844381E+000  0.981141266409270E+000  0.310951114059196E+001 -0.760399199076721E+001 -0.270962958315284E+002
  0.458249980854058E+000  0.843339241931695E+002  0.254969811707138E+000  0.981026026925586E+000  0.311322601181903E+001 -0.873613364086346E+001 -0.259590009863684E+002
  0.458249980854058E+000  0.843108754248188E+002  0.254928755565929E+000  0.982594664922202E+000  0.311242935733748E+001 -0.101024313585061E+002 -0.245811788845504E+002
  0.458249980854058E+000  0.842560352909292E+002  0.255314657817017E+000  0.980653246155306E+000  0.311074416754302E+001 -0.752396273034818E+001 -0.271322274457635E+002
  0.458249980854058E+000  0.841760557146008E+002  0.254753812332621E+000  0.981347206647595E+000  0.311416261712685E+001 -0.938359912204500E+001 -0.252326012659025E+002
  0.458249980854058E+000  0.841377199396644E+002  0.255261713674170E+000  0.980750039734081E+000  0.311106348817833E+001 -0.772515042496570E+001 -0.268718820755136E+002
  0.458249980854058E+000  0.841260975915106E+002  0.254714305728250E+000  0.982178942339668E+000  0.311316837222302E+001 -0.989974118857546E+001 -0.246914801378269E+002
  0.458249980854058E+000  0.840990430765621E+002  0.255305398268308E+000  0.981861078051792E+000  0.311045540051579E+001 -0.865259444013259E+001 -0.259250996287956E+002
  0.458249980854058E+000  0.840781633880267E+002  0.255330954601308E+000  0.981586086600170E+000  0.311038976552135E+001 -0.834428284359396E+001 -0.262229713810665E+002
  0.458249980854058E+000  0.840753471616465E+002  0.255260626030196E+000  0.981570000863591E+000  0.311094966223323E+001 -0.851434127532883E+001 -0.260515048361415E+002
  0.458249980854058E+000  0.840546016079425E+002  0.254973040286524E+000  0.982250273235700E+000  0.311170196808343E+001 -0.947701103292191E+001 -0.250784623016965E+002
  0.458249980854058E+000  0.840196595387907E+002  0.255179117251519E+000  0.981204798014504E+000  0.311120029742382E+001 -0.822181350712017E+001 -0.263161887929223E+002
