  0.159995484234388E+000  0.884647313905247E+002  0.256328442367408E+000  0.983098276932907E+000  0.310492784823600E+001 -0.826750065665109E+001 -0.287161811205726E+002
  0.159995484234388E+000  0.898703899358849E+002  0.256674900649757E+000  0.982638431800811E+000  0.310329821905809E+001 -0.727667811446501E+001 -0.304098329354388E+002
  0.159995484234388E+000  0.886586339960574E+002  0.256467975852244E+000  0.984752182735687E+000  0.310229687563361E+001 -0.943251613318031E+001 -0.276481169468097E+002
  0.159995484234388E+000  0.883148676836770E+002  0.256693716726162E+000  0.982263510765884E+000  0.310156330638828E+001 -0.635180936370136E+001 -0.305569405600984E+002
  0.159995484234388E+000  0.869866770965113E+002  0.256320894281618E+000  0.982904114944392E+000  0.310458907809249E+001 -0.794356042712485E+001 -0.283010942030921E+002
  0.159995484234388E+000  0.878960508985692E+002  0.256689856771180E+000  0.981952526493029E+000  0.310289792654198E+001 -0.641553971839525E+001 -0.302838018128507E+002
  0.159995484234388E+000  0.870171213136548E+002  0.255997826508241E+000  0.981632852867272E+000  0.310535293199895E+001 -0.678923051649597E+001 -0.294706462222927E+002
  0.159995484234388E+000  0.874019460489614E+002  0.256250288198525E+000  0.984448389400278E+000  0.310359457452136E+001 -0.943679531974432E+001 -0.270154937866977E+002
  0.159995484234388E+000  0.856134709330947E+002  0.256136243883914E+000  0.981995737706757E+000  0.310590297049714E+001 -0.735192933269001E+001 -0.282061222158186E+002
  0.159995484234388E+000  0.854499042284730E+002  0.255560768523184E+000  0.982481380908981E+000  0.310943082152807E+001 -0.898746518045795E+001 -0.264888030157398E+002
  0.159995484234388E+000  0.853422178197339E+002  0.255968602970232E+000  0.982773913881079E+000  0.310636643835798E+001 -0.833423727834230E+001 -0.270881877134859E+002
  0.159995484234388E+000  0.849892455061759E+002  0.255948252286393E+000  0.981734101857863E+000  0.310639043867646E+001 -0.721935517311841E+001 -0.280265836619308E+002
  0.159995484234388E+000  0.847083031967424E+002  0.255240676740881E+000  0.982156805756796E+000  0.310965511674943E+001 -0.869384867481389E+001 -0.264116190055186E+002
  0.159995484234388E+000  0.844201824353382E+002  0.255542006807229E+000  0.982102446388455E+000  0.310828696238749E+001 -0.819837467418516E+001 -0.267630326254453E+002
  0.159995484234388E+000  0.842620656343375E+002  0.255660687300317E+000  0.981748237236678E+000  0.310809963214079E+001 -0.776897413784109E+001 -0.271133747612890E+002
  0.159995484234388E+000  0.841717337075596E+002  0.255518085297629E+000  0.982705417635495E+000  0.310846331208425E+001 -0.891085231716393E+001 -0.259263306185772E+002
  0.159995484234388E+000  0.840522781428116E+002  0.255526252700024E+000  0.982160935721447E+000  0.310911874516788E+001 -0.853471444953275E+001 -0.262427407038344E+002
  0.159995484234388E+000  0.840191284359800E+002  0.255512149252714E+000  0.982030794525371E+000  0.310877542049713E+001 -0.828111630226269E+001 -0.264797639976886E+002
  0.159995484234388E+000  0.840098184224856E+002  0.255427178813181E+000  0.982542779907740E+000  0.310943892505259E+001 -0.905003268263101E+001 -0.257061926105731E+002
  0.159995484234388E+000  0.842769600920946E+002  0.255249545595735E+000  0.982295658188716E+000  0.311003205380919E+001 -0.897043484547896E+001 -0.256962177312154E+002
